<?xml version="1.0"?>
<opencv_storage>
<my_svm type_id="opencv-ml-svm">
  <svm_type>C_SVC</svm_type>
  <kernel><type>LINEAR</type></kernel>
  <C>1.0000000000000000e-002</C>
  <term_criteria><epsilon>1.1920928955078125e-007</epsilon>
    <iterations>50000</iterations></term_criteria>
  <var_all>840</var_all>
  <var_count>840</var_count>
  <class_count>2</class_count>
  <class_labels type_id="opencv-matrix">
    <rows>1</rows>
    <cols>2</cols>
    <dt>i</dt>
    <data>
      -1 1</data></class_labels>
  <sv_total>1</sv_total>
  <support_vectors>
    <_>
      -4.27193003e-014 0. 0. 0. 0. 0. 0. 0. -4.27193003e-014 0. 0. 0. 0.
      0. 0. 0. -4.27193003e-014 0. 0. 0. 0. 0. 0. 0. -4.27193003e-014 0.
      0. 0. 0. 0. 0. 0. 9.29423720e-002 8.06825608e-002 -3.81334014e-002
      1.04637574e-002 6.48643821e-002 -4.35077995e-002 4.50151712e-002
      1.23519987e-001 5.73915243e-002 6.23098798e-002 1.12232016e-002
      4.74168314e-003 2.13836636e-002 -1.41204474e-002 -1.20708514e-002
      3.59295197e-002 8.79459903e-002 5.90250008e-002 2.94401986e-003
      2.25351360e-002 2.99563725e-002 3.02971117e-002 -4.52541187e-002
      5.80185093e-002 -4.27193003e-014 0. 0. 0. 0. 0. 0. 0.
      -4.27193003e-014 0. 0. 0. 0. 0. 0. 0. -4.27193003e-014 0. 0. 0. 0.
      0. 0. 0. -4.27193003e-014 0. 0. 0. 0. 0. 0. 0. -1.05904073e-001
      -1.70906680e-003 3.98933664e-002 4.77987975e-002 -1.37962494e-003
      -2.62800511e-002 6.12829328e-002 3.82265076e-002 -6.03906903e-003
      -1.12200491e-002 3.76355648e-002 5.30150766e-003 -9.65251587e-003
      -3.93666215e-002 3.31122316e-002 2.12795176e-002 -5.63298389e-002
      -4.44180891e-002 1.08739324e-002 -1.35532226e-002 -2.36888733e-002
      -3.78290610e-003 2.47933641e-002 4.97579202e-002 -4.27193003e-014
      0. 0. 0. 0. 0. 0. 0. -4.27193003e-014 0. 0. 0. 0. 0. 0. 0.
      -4.27193003e-014 0. 0. 0. 0. 0. 0. 0. -4.27193003e-014 0. 0. 0. 0.
      0. 0. 0. -1.74222961e-002 2.39525940e-002 4.14678752e-002
      3.80020142e-002 7.21649965e-003 8.64916742e-002 1.43113229e-002
      -9.36007127e-002 6.04515411e-002 -5.75354183e-003 4.72032525e-007
      1.88023504e-003 9.00331698e-003 -9.17445961e-003 -2.00861301e-002
      -5.79372002e-003 -1.20615435e-003 -1.05098998e-002 1.87420957e-002
      -3.43463123e-002 -1.91646442e-002 3.57994111e-003 -3.96760814e-002
      -4.77384925e-002 -4.27193003e-014 0. 0. 0. 0. 0. 0. 0.
      -4.27193003e-014 0. 0. 0. 0. 0. 0. 0. -4.27193003e-014 0. 0. 0. 0.
      0. 0. 0. -4.27193003e-014 0. 0. 0. 0. 0. 0. 0. -1.16324537e-002
      -1.27984686e-002 -1.06398249e-002 1.44581478e-002 -5.41034108e-003
      -1.65274013e-002 -3.76160033e-002 1.31224971e-002 -1.08360033e-002
      -1.05724754e-002 1.37402462e-002 1.34101259e-002 5.01144528e-002
      -2.82323677e-002 -2.09890530e-002 3.39775458e-002 5.01468591e-003
      -1.41964909e-002 1.22866156e-002 6.65603613e-004 -4.09243815e-002
      -1.90452915e-002 -2.97315810e-002 2.17627641e-002 -4.27193003e-014
      0. 0. 0. 0. 0. 0. 0. -4.27193003e-014 0. 0. 0. 0. 0. 0. 0.
      -4.27193003e-014 0. 0. 0. 0. 0. 0. 0. -4.27193003e-014 0. 0. 0. 0.
      0. 0. 0. 1.06111448e-002 4.43480955e-003 -5.30260429e-003
      -6.52697822e-003 9.18402243e-003 -2.38978583e-002 -1.21801728e-002
      -8.80857278e-003 2.38834191e-002 1.82386916e-002 5.99026040e-004
      6.25083514e-004 4.69936281e-002 -1.15427636e-002 2.63285600e-002
      -3.79949994e-003 9.77093633e-003 -3.95773351e-002 2.06358302e-002
      1.80680137e-002 -6.14104196e-002 -2.10238006e-002 -8.23050272e-003
      -1.56430006e-002 -4.27193003e-014 0. 0. 0. 0. 0. 0. 0.
      -4.27193003e-014 0. 0. 0. 0. 0. 0. 0. -4.27193003e-014 0. 0. 0. 0.
      0. 0. 0. -4.27193003e-014 0. 0. 0. 0. 0. 0. 0. -1.03917359e-004
      1.07892379e-002 1.31827500e-002 7.94005871e-004 -8.76324624e-003
      -1.26601420e-002 -3.21158990e-002 2.79681794e-002 2.84847629e-004
      1.86706576e-002 -5.60975308e-003 -1.31763630e-002 9.54315625e-003
      -3.16056348e-002 1.94708817e-002 4.36749086e-002 2.11875215e-002
      -2.22799052e-002 2.87779570e-002 5.11843525e-003 -2.57852282e-002
      -2.98159309e-002 -4.16989019e-003 2.61377357e-002 -4.27193003e-014
      0. 0. 0. 0. 0. 0. 0. -4.27193003e-014 0. 0. 0. 0. 0. 0. 0.
      -4.27193003e-014 0. 0. 0. 0. 0. 0. 0. -4.27193003e-014 0. 0. 0. 0.
      0. 0. 0. -6.94633126e-002 -5.12123518e-002 -3.24881915e-003
      8.85167811e-003 -7.14327395e-002 3.04861534e-002 -3.21952291e-002
      -2.76561361e-002 2.43453123e-002 1.09442761e-002 2.02263203e-002
      1.53688835e-002 -2.05047820e-002 -2.82598659e-002 1.03232842e-002
      1.80187151e-002 -1.26788681e-002 2.13916153e-002 1.67268161e-002
      1.03290949e-003 -2.65285559e-002 -2.07139533e-002 4.05696174e-003
      -6.85284706e-003 -4.27193003e-014 0. 0. 0. 0. 0. 0. 0.
      -4.27193003e-014 0. 0. 0. 0. 0. 0. 0. -4.27193003e-014 0. 0. 0. 0.
      0. 0. 0. -4.27193003e-014 0. 0. 0. 0. 0. 0. 0. -6.70949966e-002
      -1.01363227e-001 -1.16614169e-002 -2.14689877e-002
      -1.25876769e-001 3.82365584e-002 -1.15343314e-002 -3.50539200e-002
      2.92729791e-002 2.08066106e-002 2.04784516e-002 -5.77289518e-003
      -3.59116076e-003 -3.78668830e-002 1.52552491e-002 5.09572914e-003
      3.66338529e-002 4.45889449e-003 -6.74111350e-003 -1.56282075e-002
      -3.96519117e-002 -3.83310392e-002 1.15691358e-002 -2.54852548e-002
      -4.27193003e-014 0. 0. 0. 0. 0. 0. 0. -4.27193003e-014 0. 0. 0. 0.
      0. 0. 0. -4.27193003e-014 0. 0. 0. 0. 0. 0. 0. -4.27193003e-014 0.
      0. 0. 0. 0. 0. 0. -2.10407600e-002 -7.05390275e-002
      -2.37413868e-002 -2.49658525e-002 -4.98676896e-002 1.72288828e-002
      1.16429962e-002 -5.81064038e-002 -5.22362515e-002 4.91421297e-002
      3.36118676e-002 9.90801142e-004 -2.44643027e-003 -1.99607145e-002
      1.29310284e-002 -1.12946574e-002 1.74761622e-003 -5.17216837e-003
      1.62081898e-003 -2.00694217e-003 -6.42345753e-003 -4.06485125e-002
      -5.93617838e-003 -5.14685130e-003 -4.27193003e-014 0. 0. 0. 0. 0.
      0. 0. -4.27193003e-014 0. 0. 0. 0. 0. 0. 0. -4.27193003e-014 0. 0.
      0. 0. 0. 0. 0. -4.27193003e-014 0. 0. 0. 0. 0. 0. 0.
      6.94854036e-002 -6.11811876e-002 -4.94333394e-002 -7.80886621e-004
      -1.03776688e-002 8.09539109e-003 -9.81978104e-002 -1.29949287e-001
      -4.78954948e-002 3.14403512e-002 -7.00882683e-003 -8.05483293e-003
      -4.45257537e-002 -2.08252780e-002 5.47843613e-002 -8.67092889e-003
      2.55818292e-002 5.95613103e-003 -2.35688891e-002 -7.78882881e-004
      -3.30748484e-002 -2.41437871e-002 1.58240013e-002 -2.02145800e-002
      -4.27193003e-014 0. 0. 0. 0. 0. 0. 0. -4.27193003e-014 0. 0. 0. 0.
      0. 0. 0. -4.27193003e-014 0. 0. 0. 0. 0. 0. 0. -4.27193003e-014 0.
      0. 0. 0. 0. 0. 0. 8.48551989e-002 -4.16992195e-002 1.45692481e-002
      8.18021074e-002 8.25461373e-002 7.37361163e-002 -1.65242195e-001
      -1.36697382e-001 -6.15146980e-002 5.39677143e-002 -1.84070896e-002
      -5.85764125e-002 -2.75358465e-002 -4.76167314e-002 4.76996340e-002
      -4.34839167e-003 -1.83393061e-002 3.08833309e-002 -1.08270021e-002
      -9.52339917e-003 -5.02387099e-002 4.65047406e-003 -1.25433085e-002
      -1.20166810e-002 -4.27193003e-014 0. 0. 0. 0. 0. 0. 0.
      -4.27193003e-014 0. 0. 0. 0. 0. 0. 0. -4.27193003e-014 0. 0. 0. 0.
      0. 0. 0. -4.27193003e-014 0. 0. 0. 0. 0. 0. 0. -2.95486525e-002
      -2.85345539e-002 1.55031877e-002 -2.58452981e-003 8.52504298e-002
      4.35001701e-002 -5.28682545e-002 -1.58504486e-001 -1.40800839e-002
      1.24598304e-002 -5.26034720e-002 -1.14393393e-002 -9.40343551e-003
      -7.40577700e-003 2.19103619e-002 5.85955195e-003 2.07426734e-002
      -5.68557670e-003 -5.24082743e-002 -3.44470292e-002
      -3.06366067e-002 2.75779814e-002 -2.74746437e-002 -4.62347381e-002
      -4.27193003e-014 0. 0. 0. 0. 0. 0. 0. -4.27193003e-014 0. 0. 0. 0.
      0. 0. 0. -4.27193003e-014 0. 0. 0. 0. 0. 0. 0. -4.27193003e-014 0.
      0. 0. 0. 0. 0. 0. -9.07213539e-002 -4.09651287e-002
      1.33202048e-002 -4.33307625e-002 -1.90412849e-002 -5.02917692e-002
      3.19159813e-002 -2.43794359e-002 -3.08841858e-002 -4.02128212e-002
      -2.83927172e-002 9.75613110e-003 -1.13636963e-002 -1.78535171e-002
      1.80952922e-002 -6.06943108e-003 -6.51577264e-002 -8.74895528e-002
      -4.29022033e-003 -2.31259838e-002 -3.21519934e-002 1.05628390e-002
      1.96066909e-002 -5.11563830e-002 -4.27193003e-014 0. 0. 0. 0. 0.
      0. 0. -4.27193003e-014 0. 0. 0. 0. 0. 0. 0. -4.27193003e-014 0. 0.
      0. 0. 0. 0. 0. -4.27193003e-014 0. 0. 0. 0. 0. 0. 0.
      1.00068785e-002 1.30143820e-003 -1.12275764e-001 -5.57251200e-002
      3.07879504e-002 1.85322221e-002 -3.91997993e-002 -3.22895981e-002
      -8.91716592e-003 6.68980628e-002 -9.99471024e-002 -4.18666899e-002
      4.26159762e-002 5.49421869e-002 -3.67642716e-002 -4.80249003e-002
      7.77314277e-003 -5.90936374e-003 -8.29791054e-002 -8.11352581e-002
      -4.07483708e-003 5.78097366e-002 -5.57890125e-002 -6.40889257e-002
      -4.27193003e-014 0. 0. 0. 0. 0. 0. 0. -4.27193003e-014 0. 0. 0. 0.
      0. 0. 0. -4.27193003e-014 0. 0. 0. 0. 0. 0. 0. -4.27193003e-014 0.
      0. 0. 0. 0. 0. 0. -2.72405837e-002 -9.91855785e-002
      8.44154656e-002 4.82622348e-002 2.99837068e-002 -1.10845104e-001
      2.66408566e-002 2.30393019e-002 -1.79166924e-002 -6.98938295e-002
      9.47427079e-002 7.11430758e-002 6.91592926e-003 -1.11217998e-001
      1.28452471e-002 2.87649035e-002 -1.50850825e-002 -1.09672435e-001
      1.26655996e-001 -1.48085253e-002 -2.44692918e-002 -9.86975878e-002
      1.65736973e-002 -1.89446099e-003</_></support_vectors>
  <decision_functions>
    <_>
      <sv_count>1</sv_count>
      <rho>-1.7105681405030904e+000</rho>
      <alpha>
        1.</alpha>
      <index>
        0</index></_></decision_functions></my_svm>
</opencv_storage>
