<?xml version="1.0"?>
<opencv_storage>
<my_svm type_id="opencv-ml-svm">
  <svm_type>C_SVC</svm_type>
  <kernel><type>LINEAR</type></kernel>
  <C>1.0000000000000000e-002</C>
  <term_criteria><epsilon>1.1920928955078125e-007</epsilon>
    <iterations>50000</iterations></term_criteria>
  <var_all>3780</var_all>
  <var_count>3780</var_count>
  <class_count>2</class_count>
  <class_labels type_id="opencv-matrix">
    <rows>1</rows>
    <cols>2</cols>
    <dt>i</dt>
    <data>
      -1 1</data></class_labels>
  <sv_total>1</sv_total>
  <support_vectors>
    <_>
      -5.38159087e-002 2.47187894e-002 3.67365964e-002 -5.48153780e-002
      -2.08729953e-002 -9.87880025e-003 3.86765897e-002 3.71909677e-003
      -6.04346506e-002 -8.40982199e-002 1.38871223e-002 2.60024592e-002
      -2.57306937e-002 3.34804580e-002 -2.79191304e-002 3.73802371e-002
      -6.06872840e-003 -7.82828256e-002 -1.56145599e-002 3.20067927e-002
      4.76873592e-002 -5.15457727e-002 -5.45116104e-002 7.14173866e-003
      8.41691494e-002 3.72182354e-002 -3.53228338e-002 -2.28733923e-002
      2.82572266e-002 5.66801280e-002 -4.40546051e-002 -2.29419097e-002
      -2.42013894e-002 4.89134155e-002 2.09775083e-002 -4.00277041e-002
      -1.11416373e-002 3.42123546e-002 8.96848366e-003 -2.09614504e-002
      1.25670135e-002 -3.23642455e-002 6.99004252e-003 -3.90399969e-003
      -4.21090983e-002 -5.20370249e-003 8.25440511e-003 -1.30906412e-002
      -6.03613853e-002 7.61390710e-003 -1.67967826e-002 -3.85389887e-002
      -4.77835424e-002 -6.14375062e-002 7.13136978e-003 6.04175813e-002
      3.41018066e-002 -4.88511734e-002 -3.24131511e-002 -3.64167057e-002
      1.65616572e-002 1.89618897e-002 -2.15446148e-002 -1.12692714e-002
      4.87872735e-002 2.21440308e-002 -5.85469417e-002 -3.94110158e-002
      -1.95485372e-002 -5.44829480e-003 1.30847152e-002 -7.22197145e-002
      5.83145488e-003 1.13039119e-002 -1.57458931e-002 -3.99865881e-002
      4.57562059e-002 -3.42748389e-002 -2.88435798e-002 -4.60370742e-002
      -3.39478739e-002 -2.51278691e-002 9.55251511e-003 1.22620231e-002
      -1.35187909e-003 5.04915044e-002 -4.06072699e-002 -4.26092595e-002
      -6.05866648e-002 -5.99003211e-002 2.94427704e-002 2.90379561e-002
      2.65427423e-003 -4.82438169e-002 -2.39296649e-002 -3.11959125e-002
      3.33143724e-003 -2.09992398e-002 -3.19242328e-002 3.59656885e-002
      2.38698404e-002 4.72228369e-003 -1.05426442e-002 4.37781354e-003
      -7.80289434e-003 5.45924064e-003 -2.89935116e-002 -1.60864964e-002
      -1.86918005e-002 -2.40168925e-002 1.81386131e-003 5.59929002e-004
      4.94024903e-002 -2.88733058e-002 -1.86976604e-002 -2.82812286e-002
      -3.25804353e-002 2.79637389e-002 1.53472964e-002 3.35853696e-002
      4.59186397e-002 6.87943473e-002 -9.94965527e-003 1.19534982e-002
      -2.55637728e-002 1.29125416e-002 2.38693263e-002 7.08507316e-004
      -3.14271590e-003 -1.93044841e-002 -1.02155553e-002
      -6.05482655e-003 3.91068542e-003 -1.96905695e-002 5.95102692e-003
      3.55476961e-002 6.00556210e-002 5.48563227e-002 2.87244357e-002
      3.70347779e-003 9.75929294e-003 1.43469626e-003 -2.69014924e-003
      4.52447124e-002 2.42922995e-002 -1.12467967e-002 2.44866498e-002
      -7.21299183e-003 -4.15104703e-004 -4.08877209e-002
      -3.73878106e-002 -5.53391911e-002 2.10974999e-002 3.54036652e-002
      4.62171659e-002 8.49383399e-002 3.20070311e-002 2.69694198e-002
      -2.88217678e-003 4.95637348e-003 -1.54751427e-002 2.23278869e-002
      2.75339466e-002 4.49094642e-003 2.33205464e-002 8.45254341e-004
      -4.95304018e-002 -4.68243062e-002 -4.34835590e-002
      -6.68080077e-002 3.28264292e-003 2.92268414e-002 4.11599092e-002
      6.96603432e-002 4.57754470e-002 -1.29006878e-002 2.36862237e-004
      1.18553545e-002 -9.83598270e-003 2.32173745e-002 3.96866165e-002
      2.54260525e-002 5.40798493e-002 -3.19090649e-003 3.12139988e-002
      -1.77927017e-002 1.13800215e-003 -2.50100587e-002 2.39893459e-002
      4.94849123e-002 3.12649198e-002 4.53388914e-002 -1.69513505e-002
      4.38945256e-002 5.86705934e-003 3.82427722e-002 6.41234592e-003
      2.66063660e-002 -1.01129934e-002 -1.42822480e-002 3.12516689e-002
      2.07056594e-003 -1.49702793e-002 -6.63244538e-003 2.83026937e-002
      -1.37365721e-002 2.37017814e-002 -1.12511870e-002 -1.68393087e-002
      1.74302049e-002 -1.18958652e-002 -3.24454010e-002 7.29612540e-003
      7.60114193e-002 2.68980674e-002 9.12928768e-003 3.36078070e-002
      2.29218435e-002 1.67544112e-002 -5.91078028e-002 1.89114995e-002
      8.12794082e-003 3.64557765e-002 -3.64860613e-003 1.05738109e-002
      5.72061874e-002 6.98491558e-003 3.09252273e-002 -3.57178003e-002
      5.64455427e-002 2.98419110e-002 5.49851470e-002 1.81087721e-002
      3.00023984e-002 -1.10542728e-002 -1.49996264e-003 8.73912498e-003
      -4.70225103e-002 -6.80293664e-002 -1.42035456e-002 4.06536944e-002
      1.68090574e-002 -4.91286255e-003 2.13893387e-003 3.93848009e-002
      3.09179034e-002 -1.39284832e-002 -7.04440242e-003 1.67627074e-002
      5.33044003e-002 2.52306834e-002 -3.84877902e-003 4.22890708e-002
      -1.00586032e-002 2.39725262e-002 -3.27105634e-002 3.63862850e-002
      -2.13732999e-002 3.83125916e-002 -1.11086620e-002 1.00832777e-002
      4.30761576e-002 3.39824371e-002 3.70922796e-002 -1.98278017e-002
      6.45601824e-002 -1.71348490e-002 1.86729536e-003 -1.86139364e-002
      6.64683245e-003 -5.56052255e-005 2.36196611e-002 5.23721892e-003
      -2.64575444e-002 -6.00200798e-003 -1.23675028e-002
      -4.76490147e-003 -4.23372053e-002 -2.69374270e-002 6.35792688e-003
      3.27820964e-002 3.80197316e-002 1.40398997e-003 -7.07622748e-005
      -1.10877827e-002 -3.84063236e-002 -3.80429998e-002
      -4.94558085e-003 3.38745601e-002 3.30015719e-002 -2.24318021e-004
      -5.45735471e-002 3.78956348e-002 3.45155527e-003 -2.08397880e-002
      -1.33250551e-002 6.67833537e-003 2.33280119e-002 -2.88607087e-002
      -4.88385418e-003 -1.88195836e-002 6.41842261e-002 4.25134040e-002
      1.07247401e-002 3.89154553e-002 2.53822394e-002 1.76028125e-002
      1.53566226e-002 6.91412203e-003 -2.68573444e-002 -1.59434974e-002
      -1.87372621e-002 -3.00878827e-002 -4.05744910e-002
      -1.33936303e-002 3.28802317e-002 7.20719632e-004 1.75281186e-002
      -1.32395665e-003 -1.98986363e-002 1.71181466e-002 3.82354259e-002
      2.05307975e-002 1.35305580e-002 1.09915109e-002 -1.27404341e-002
      6.24114368e-003 -2.89938189e-002 6.25035167e-002 1.30888252e-002
      3.76787819e-002 6.45620981e-003 -1.02609536e-003 3.72238494e-002
      6.74355030e-002 6.97256103e-002 1.06798708e-002 3.45790908e-002
      -3.97883635e-003 4.55922335e-002 2.06820387e-002 3.57680432e-002
      1.37482276e-002 -5.79166831e-003 1.78696797e-003 -2.67697498e-002
      -2.85033546e-002 -1.41559588e-002 3.90412915e-003 -3.08619644e-002
      6.05990971e-003 1.09343734e-002 2.97861416e-002 5.78442216e-002
      -1.10627301e-002 -2.69093607e-002 -1.29140699e-002 6.21349365e-003
      -1.55638848e-002 3.66852665e-003 4.61238548e-002 3.42999101e-002
      3.58644053e-002 -8.95362627e-003 1.43081583e-002 -1.39823009e-003
      2.28460021e-002 1.57098603e-002 3.24276499e-002 5.26628420e-002
      4.14189696e-002 4.04002564e-003 -1.27658183e-002 4.60408479e-002
      2.28392351e-002 3.21549028e-002 2.51159612e-002 3.68963741e-002
      4.12751585e-002 1.96586903e-002 1.19451182e-002 -3.16142999e-002
      -7.42944106e-002 -3.44880000e-002 -2.55563390e-003
      -8.56660493e-003 3.75150777e-002 3.06805726e-002 1.49130896e-002
      8.52449052e-003 -3.44053395e-002 -5.66722639e-002 7.08669424e-003
      2.11306531e-002 4.93758824e-003 4.97856475e-002 6.02665171e-002
      2.98578888e-002 -5.16931619e-003 -3.67696360e-002 5.23129962e-002
      2.38846075e-002 2.42717844e-002 4.71399678e-003 1.66202094e-002
      5.58669455e-002 3.32663544e-002 3.59043963e-002 2.20729187e-002
      5.92298135e-002 8.20390042e-003 7.45074591e-003 -2.87425285e-003
      2.08800491e-002 2.03081421e-004 4.62632254e-003 1.16571002e-002
      -4.27146815e-002 -2.37809718e-002 7.00645614e-003 5.73626347e-003
      4.36114799e-003 1.35513758e-002 2.22829822e-002 3.68620120e-002
      3.21482839e-005 8.17764271e-003 3.51462374e-003 3.22076492e-002
      2.11776961e-002 4.34723310e-002 1.32759428e-002 4.79311682e-002
      -8.11172556e-003 -2.25859974e-002 -1.06666647e-002 2.80018579e-002
      -1.29745565e-002 -4.71725827e-003 -1.48254344e-002 2.78200507e-002
      4.62195426e-002 1.56490169e-002 -8.40772875e-003 1.10896071e-002
      5.96503951e-002 5.13178715e-003 -5.22417296e-003 -5.43883478e-004
      3.49757113e-002 5.92106394e-003 1.13962789e-003 -4.28225510e-002
      -2.26839110e-002 -1.56447273e-002 -1.18799657e-002
      -2.35255454e-002 -9.31475963e-003 1.61011964e-002 -8.80207308e-003
      4.87689348e-003 7.73150314e-005 5.51560149e-003 2.31584767e-003
      9.62658692e-003 -2.67292485e-002 -3.82226007e-003 8.20775889e-003
      1.11648617e-002 -2.16074828e-002 -4.68242913e-002 -3.83551456e-002
      1.81137156e-002 -1.15720807e-002 9.26049706e-003 -1.78057197e-002
      1.30653603e-003 2.40612794e-002 1.93820875e-002 -1.29172476e-002
      -1.94119327e-002 3.83424871e-002 9.27401241e-003 5.90663888e-002
      6.38812259e-002 4.07940783e-002 -1.78139154e-002 -1.44572705e-002
      -2.03166660e-002 -1.25927627e-002 -2.20532343e-002
      -3.64294611e-002 -1.61162075e-002 -2.38205586e-003
      -2.22489946e-002 1.75880697e-002 3.14163901e-002 9.92743415e-004
      2.38804426e-002 1.14048515e-002 6.55476470e-003 5.42996973e-002
      6.37372732e-002 6.49346737e-003 -1.66276619e-002 -1.83072395e-003
      -2.50080843e-002 -2.16461830e-002 9.62837338e-002 1.70234870e-002
      3.53285223e-002 3.03459801e-002 -2.94542033e-002 -1.21757658e-002
      1.38941826e-002 -3.82478870e-002 2.63239187e-003 1.14856079e-001
      8.83883517e-003 -2.16216482e-002 -1.87608674e-002 -3.99010591e-002
      -2.44053490e-002 3.06665320e-002 6.30828366e-003 6.42811297e-004
      5.35392649e-002 1.29230591e-002 3.48756313e-002 3.48718129e-002
      -2.46055704e-002 -2.37182900e-002 2.75309887e-002 2.86493596e-004
      2.51374990e-002 5.20361662e-002 1.46928979e-002 1.16143341e-003
      1.29298894e-002 -2.10873084e-003 -4.72366773e-002 1.67220887e-002
      4.10758369e-002 -3.90354022e-002 -5.79978675e-002 -1.53125208e-002
      5.82416281e-002 2.09624916e-002 -3.41257453e-002 -5.34970239e-002
      2.30748169e-002 4.60394956e-002 -4.48465906e-002 -2.54473239e-002
      -3.57296914e-002 1.28581515e-002 9.29593574e-003 -4.11642827e-002
      -4.21572998e-002 4.74466830e-002 4.05647270e-002 -2.43001655e-002
      -2.17196234e-002 -4.72129136e-002 1.79631412e-002 3.23254429e-003
      -3.77061032e-002 -5.24047017e-002 2.59716250e-002 2.06791032e-002
      -2.32702121e-002 -2.17774827e-002 -2.47205328e-002 3.23954597e-002
      6.08210778e-003 -2.61372365e-002 -2.69875973e-002 3.75598297e-002
      2.33375262e-002 -1.16198957e-002 -5.96289337e-003 -3.68657671e-002
      2.92709135e-002 2.57882718e-002 -2.16400903e-002 -4.41271029e-002
      1.50747355e-002 1.37131764e-002 -1.06910793e-002 -1.47621986e-002
      -3.23146395e-002 5.40778972e-003 2.51009483e-002 -5.88869974e-002
      -1.77784264e-002 2.50522606e-002 -1.15603507e-002 -3.18897888e-002
      -4.02153432e-002 -3.58982831e-002 4.25766297e-002 5.34122400e-002
      1.36773046e-002 -1.00858279e-001 -1.97250154e-002 -3.20419371e-002
      -7.31516222e-004 1.36958028e-004 -1.22692259e-002 5.29553816e-002
      4.75337282e-002 -3.56701538e-002 4.54070838e-003 1.01391980e-002
      6.47454197e-003 -4.05150652e-002 -3.08924895e-002 -2.30929330e-002
      -6.78963261e-003 4.70830454e-003 -1.82270985e-002 3.84286791e-002
      -4.69430350e-003 -1.17521770e-002 -2.66721901e-002
      -1.19245062e-002 -3.32235196e-003 -3.18352357e-002
      -3.61352861e-002 1.71075277e-002 -4.99559045e-002 -6.89649209e-003
      -2.35546264e-004 -7.15442747e-003 -2.98688076e-002
      -2.23191958e-002 1.78771894e-002 -6.20931434e-003 -3.39632407e-002
      3.44916224e-003 8.06210373e-005 -3.44272591e-002 -4.47955988e-002
      -2.92900410e-002 -2.28550751e-003 -2.86901034e-002
      -4.03336063e-002 -2.10494157e-002 3.50723267e-002 -2.66143028e-002
      -8.80801026e-003 -1.02941552e-002 -3.48332804e-003 4.38003847e-003
      1.26630894e-003 -1.58042386e-002 3.89268920e-002 1.56949274e-002
      -2.02214420e-002 2.88978741e-002 4.97672558e-002 2.27900892e-002
      1.50224166e-002 3.60075198e-002 3.38566937e-002 7.59510547e-002
      2.01564506e-002 -9.06829461e-002 -1.07477240e-001 -5.74015342e-002
      -8.17375071e-003 2.39396226e-002 -5.80806052e-003 -1.53126083e-002
      3.88463810e-002 -2.18220409e-002 -1.41792253e-001 -9.08120796e-002
      2.98948446e-003 4.26652655e-002 6.02797978e-002 7.78756291e-002
      4.83334064e-002 5.93738072e-002 -4.16814536e-002 -6.73806146e-002
      1.76624134e-002 3.37242968e-002 7.41765881e-003 -4.11762949e-003
      1.82544254e-002 -1.53933568e-002 3.86961885e-002 -1.15021393e-002
      -2.68637221e-002 6.49270415e-002 5.77281192e-002 3.23355645e-002
      1.93692707e-002 3.99311967e-002 -1.09498193e-002 4.32551205e-002
      -7.75474459e-002 -1.50160179e-001 -3.94023433e-002 1.41160516e-002
      1.72935277e-002 1.86758805e-002 3.60006057e-002 1.36699844e-002
      2.54781619e-002 -5.83152883e-002 -7.62950704e-002 3.72154564e-002
      4.06718217e-002 3.34933139e-002 2.25770455e-002 2.63659563e-002
      2.11277902e-002 1.93095319e-002 -2.58673895e-002 -6.71176687e-002
      2.20546443e-002 2.17092652e-002 1.23809306e-002 -1.08708553e-002
      2.48002708e-002 -4.71346974e-002 -5.76198241e-003 -3.04292068e-002
      -5.42575270e-002 1.36395106e-002 1.50981890e-002 4.38852143e-003
      2.36396715e-002 6.46024421e-002 -9.33454093e-003 -2.77059129e-003
      -3.82980444e-002 -8.58082697e-002 9.46511049e-003 2.72704381e-002
      4.18281965e-002 -6.01666421e-003 -4.17804200e-004 -1.72755830e-002
      9.46484040e-003 -7.23137287e-003 -5.35471700e-002 2.05012541e-002
      3.78357805e-002 3.83157916e-002 3.29382345e-002 2.67867632e-002
      2.71092192e-003 -4.32989374e-003 -2.46541072e-002 -4.16073948e-002
      1.35815786e-002 -1.59917101e-002 -2.77986955e-002 4.03382350e-003
      1.14525640e-002 -2.86390036e-002 -4.08066437e-003 -1.03828125e-002
      -5.75006939e-003 6.44780602e-003 4.98727849e-003 1.42358392e-002
      3.61382216e-002 8.56975000e-003 -1.65185109e-002 -1.99935120e-003
      -4.85179648e-002 -8.21084529e-002 2.61710230e-002 1.09988265e-003
      8.88855383e-003 2.69408477e-003 -1.72748510e-002 -1.38348956e-002
      -1.18899960e-002 -4.57532518e-002 -4.46988344e-002 1.21987052e-002
      1.90352295e-002 3.56623493e-002 2.62721535e-002 -2.20982600e-002
      3.05845123e-003 -2.11880580e-002 -2.49439589e-004 2.10621245e-002
      1.65151265e-002 -4.85181779e-004 1.50261512e-002 1.60720944e-002
      5.76940319e-003 -3.96604538e-002 -1.81398038e-002 1.23641491e-002
      8.53792671e-003 4.06049527e-002 9.76821687e-003 4.60369419e-003
      5.86912641e-003 -1.35180159e-002 -3.17953303e-002 2.10386999e-002
      -5.39507642e-002 -3.85727957e-002 8.80083349e-003 2.35372409e-002
      1.61066949e-002 3.57566588e-003 -4.33282880e-003 -2.27795728e-002
      -1.23664290e-002 -3.39595526e-002 -3.73866521e-002 2.65250057e-002
      1.00443261e-002 -1.52635463e-002 -4.20338362e-002 -1.51022412e-002
      -1.84756964e-002 -5.31021096e-002 3.70333456e-002 -3.91158508e-003
      8.05250742e-003 -1.09898159e-002 -3.00690942e-002 -5.72405662e-003
      2.84533240e-002 -6.02110894e-003 2.64087655e-002 3.41930166e-002
      4.38896520e-003 4.63881269e-002 3.28595340e-002 4.80138604e-003
      3.17758210e-002 5.95149845e-002 2.90356763e-002 2.91369315e-002
      -1.66982021e-002 -2.89985444e-002 1.92101970e-002 -7.45672313e-003
      -4.16775718e-002 -4.36863676e-002 -1.44945132e-002 3.22899432e-003
      -2.62866542e-002 -5.39084747e-002 9.50990617e-003 3.01734041e-002
      6.49994658e-003 -2.12920569e-002 -2.89910729e-003 1.91922970e-002
      5.40860230e-004 -8.18605535e-003 2.42891945e-002 -6.43201778e-003
      4.18750122e-002 1.47041278e-002 -1.51325366e-003 3.93975014e-003
      2.91431192e-002 8.03707982e-004 4.25566733e-002 2.74081286e-002
      -7.58436916e-004 6.02722615e-002 2.34971661e-002 5.02725039e-003
      -3.31260293e-004 3.25780511e-002 4.06805752e-003 5.99110350e-002
      -5.83177209e-002 -1.99455917e-002 3.93120460e-002 -4.16466733e-003
      -3.03243026e-002 -1.11388043e-002 2.87408214e-002 -1.17377704e-002
      1.40471011e-002 -2.71529611e-003 -2.79921927e-002 2.86761485e-002
      2.08851695e-002 -1.06266160e-002 1.62658747e-002 4.15077172e-002
      9.78267286e-003 1.02002751e-002 5.89667186e-002 -1.48505652e-002
      2.91079767e-002 4.32205107e-003 -3.75376232e-002 -1.02924777e-003
      2.16930937e-002 -1.93446130e-003 8.61833841e-002 6.18369393e-002
      2.65077055e-002 3.54344659e-002 -1.78017579e-002 -3.58449593e-002
      3.27735059e-002 5.02339751e-002 3.99239138e-002 8.22231248e-002
      -2.96032085e-004 -1.13297235e-002 1.95492036e-003 4.06879466e-003
      -6.43618032e-002 -2.02152524e-002 2.04898026e-002 9.21534607e-004
      1.36968093e-002 1.10262185e-002 1.20181162e-002 2.71676481e-002
      -2.56553683e-002 -1.09190486e-001 -2.54845135e-002 2.19959412e-002
      3.08368765e-002 1.95984468e-002 2.67226584e-002 1.25373229e-002
      3.41263483e-003 -4.42534238e-002 -1.34019013e-002 1.57792978e-002
      3.53307240e-002 2.95228157e-002 4.97593954e-002 4.15785983e-002
      -4.70685773e-003 -1.65682826e-002 2.48575001e-003 3.39520723e-002
      4.99425866e-002 5.03120646e-002 4.51675504e-002 6.55100644e-002
      -2.28474475e-002 -3.56832482e-002 -1.56111764e-002
      -2.90950667e-002 -4.38031442e-002 -1.75002571e-002 2.21545082e-002
      2.94770319e-002 8.52621067e-003 -2.01281160e-002 -5.28971292e-002
      -4.93721589e-002 -1.68273188e-002 -1.98871531e-002
      -3.63310426e-002 -6.76664524e-003 6.71398081e-003 7.98550155e-003
      4.93842512e-002 -5.91047108e-004 -2.80807298e-002 -1.06739243e-002
      1.93850640e-002 9.47757810e-003 -2.70995661e-003 -4.36775945e-003
      4.87297289e-002 3.78937460e-002 3.67952250e-002 3.85843106e-002
      3.47719975e-002 4.76453565e-002 1.31691694e-002 5.55906072e-003
      1.24057131e-002 3.96047793e-002 -1.03364214e-002 -5.87133765e-002
      -5.74454814e-002 -4.78591025e-002 -6.91181347e-002
      -8.02162886e-002 -4.93709892e-002 -3.61719690e-002
      -3.52847669e-003 6.51832949e-003 -2.29786951e-002 -1.88468732e-002
      -1.26643321e-002 -4.44145575e-002 -6.74030930e-002
      -5.30574992e-002 -5.40431589e-002 1.41657954e-002 1.83133874e-002
      3.48437801e-002 6.31061429e-003 6.13373937e-003 -5.11372578e-004
      -4.68043126e-002 -3.81561033e-002 -9.15419776e-003
      -4.27376293e-003 3.84924598e-002 7.07179531e-002 3.86690237e-002
      4.39692698e-002 3.39618698e-002 1.32126324e-002 3.11734099e-002
      5.16102090e-002 1.09734097e-002 -5.60353603e-003 -5.51768998e-003
      -2.90723499e-002 -5.17700650e-002 -7.07141683e-002
      -9.24686566e-002 -9.16924626e-002 -6.69036880e-002
      -1.65141840e-002 5.14865257e-002 6.91048279e-002 3.94739769e-002
      1.93993282e-002 -1.13955997e-002 -2.48702690e-002 -6.49308041e-003
      2.01003514e-002 1.14831952e-002 -2.31308546e-002 3.55797186e-002
      1.19724916e-002 -1.04188398e-002 5.76817878e-002 1.79616436e-002
      2.11895481e-002 2.20811907e-002 -5.65834232e-002 2.46441867e-002
      3.36936340e-002 -1.42327556e-003 -2.23919768e-002 5.08463308e-002
      4.63870401e-003 2.48199068e-002 3.65739465e-002 7.50477100e-003
      -4.93521802e-002 2.89354883e-002 9.22826212e-003 1.17966696e-003
      3.56204882e-002 -1.24561088e-003 -2.09462866e-002 3.34485783e-003
      -5.63737564e-002 1.40772210e-002 2.42505167e-002 -1.16140964e-002
      -3.48338448e-002 2.35315077e-002 -4.82288795e-003 3.05236108e-003
      3.43563147e-002 2.05863453e-002 -3.71917859e-002 4.52199169e-002
      2.03664247e-002 -3.72396000e-002 -1.04585625e-002 -1.64233334e-002
      2.40375306e-002 3.01893172e-003 -2.54417621e-002 -4.01376896e-002
      2.87737865e-002 8.04418325e-003 -5.76504655e-002 -3.38005684e-002
      -2.23337058e-002 6.15826547e-002 2.35909335e-002 -1.39334751e-002
      -5.18077612e-002 2.85857506e-002 3.70921902e-002 2.48860382e-003
      -2.05615107e-002 -3.64641920e-002 1.68805458e-002 1.03532020e-002
      -7.12107792e-002 -4.80050147e-002 3.58115137e-002 -9.64758359e-003
      -7.76463225e-002 -2.89000086e-002 -3.79200615e-002 4.73603196e-002
      3.28324027e-002 -5.30891158e-002 2.66580395e-002 1.70866530e-002
      -2.44060121e-002 -5.09525128e-002 -2.72623845e-003 4.60463315e-002
      8.46489444e-002 8.07706267e-002 6.72777146e-002 -6.54591024e-002
      -7.16242194e-002 -5.90764508e-002 -2.98063252e-002 1.68106165e-002
      2.72093639e-002 5.05778231e-002 2.93681193e-002 6.13188744e-003
      7.64865661e-003 -2.77174376e-002 -1.39435992e-001 -1.68614492e-001
      -6.44295141e-002 1.48769596e-003 6.24166206e-002 8.69582444e-002
      4.87360507e-002 -9.60516110e-002 -1.53307885e-001 -1.93936020e-001
      -1.64205328e-001 -4.63888794e-002 -1.63791794e-002
      -1.53531448e-003 2.64505885e-004 -5.27969822e-002 -4.02330607e-002
      -3.04508135e-002 2.90117022e-002 4.84398082e-002 5.64089678e-002
      4.06148694e-002 3.70584317e-002 -2.92173550e-002 -2.28790604e-002
      7.92739727e-003 -2.39117723e-002 -5.69209605e-002 -1.02369497e-002
      4.85190414e-002 4.81987223e-002 -4.06910526e-003 -6.51510283e-002
      -1.02849230e-002 -1.18344359e-001 -1.22731641e-001
      -5.23436554e-002 -9.55431722e-003 4.93158847e-002 1.60590522e-002
      -3.56814973e-002 -1.07908301e-001 -1.08009316e-001
      -3.45749967e-002 -9.42972675e-002 -1.14661269e-001
      -7.37394989e-002 2.27490105e-002 3.19624064e-003 -8.71524960e-002
      -1.27192080e-001 -7.36757740e-002 2.38407049e-002 -1.78183183e-001
      -2.44694695e-001 -1.16073109e-001 8.73721577e-003 4.62930240e-002
      8.21348932e-003 -3.18184234e-002 6.65990710e-002 1.02028111e-003
      -1.76906928e-001 -1.62665844e-001 6.55534538e-003 1.08129382e-001
      1.01935022e-001 9.43060890e-002 7.32848868e-002 1.32062525e-001
      4.31945920e-002 -1.62136763e-001 -2.59388179e-001 -1.56481087e-001
      -2.26426795e-002 -2.94431709e-002 -7.15621263e-002
      -7.73467869e-002 2.09832918e-002 1.00126788e-001 -6.34277612e-002
      -1.14910841e-001 6.65465649e-003 8.84926394e-002 5.52307367e-002
      2.74737254e-002 6.44773692e-002 1.52635351e-001 -9.22811925e-002
      -2.07931265e-001 -1.17097542e-001 -2.75130067e-002 2.40964424e-002
      2.67271716e-002 1.25166040e-003 -3.14847380e-002 7.96089973e-003
      -5.52576222e-002 -8.89520645e-002 2.29855571e-002 3.91393080e-002
      7.71071985e-002 3.02281398e-002 -3.33125400e-003 -2.17301287e-002
      -4.87153837e-003 -3.24847922e-003 -8.11036825e-002
      -6.21534698e-002 2.81537529e-002 6.83613420e-002 6.13754522e-003
      -2.01980993e-002 -1.82083193e-002 6.61391169e-002 -2.98502110e-003
      1.78281814e-002 4.77935560e-002 8.48220140e-002 1.22817099e-001
      7.69879445e-002 2.51157247e-002 1.03193009e-002 2.02176180e-002
      -6.16659634e-002 -9.89980996e-002 -2.65652197e-003 3.93175222e-002
      9.14419070e-002 9.70902294e-003 -2.11809091e-002 -5.83497733e-002
      -5.33687100e-002 -7.88016245e-002 -8.96195620e-002
      -1.06806273e-003 4.66499217e-002 7.16831833e-002 2.58970316e-002
      -5.53648965e-003 -5.18321060e-002 -6.06479794e-002
      -8.71669687e-003 -2.29508355e-002 3.28553505e-002 5.14880866e-002
      1.06074654e-001 5.74847236e-002 3.88342179e-002 -2.01361440e-003
      1.25500932e-002 -1.92042794e-002 -2.47851270e-003 4.74944524e-002
      7.89351165e-002 8.48223194e-002 4.78855558e-002 1.90641582e-002
      -4.06398391e-003 1.17499344e-002 -8.76905024e-002 -1.08125076e-001
      -1.36515554e-002 -1.36259769e-003 4.89808917e-002 -1.16985952e-002
      -2.91018877e-002 -4.52566408e-002 -6.68896958e-002
      -9.19678137e-002 -8.66976306e-002 2.63821753e-003 4.98906486e-002
      5.01899086e-002 1.58103965e-002 -2.39875000e-002 -1.23261278e-002
      -4.50222194e-002 1.69577834e-003 -1.68244876e-002 2.12229583e-002
      2.16849577e-002 3.03875655e-002 -2.16748493e-004 -1.10367229e-002
      1.44498311e-002 4.69344519e-002 2.58428417e-002 1.02516264e-002
      1.70371141e-002 5.47854751e-002 -5.26456255e-003 -9.51169152e-003
      2.65317820e-002 3.06418762e-002 5.71035855e-002 -9.85076800e-002
      -9.31115821e-002 -3.01253609e-002 4.73122485e-002 2.36756690e-002
      -1.24593759e-002 -6.39883848e-003 -4.34986576e-002
      -7.66214728e-002 -9.70003679e-002 -8.31060782e-002 6.41214103e-003
      4.68804203e-002 1.66980308e-002 -3.15702893e-002 -2.97616180e-002
      -7.18562678e-002 -1.05504066e-001 2.55180467e-002 -8.50358326e-003
      1.34807639e-002 5.27120568e-002 -8.30592879e-004 -2.51297653e-002
      2.58528572e-002 2.92757004e-002 7.45834112e-002 4.05713506e-002
      3.62720080e-002 6.08646870e-002 7.60970935e-002 1.28090046e-002
      3.65689062e-002 5.26493378e-002 3.14101763e-002 3.40567045e-002
      -9.11249891e-002 -5.70679680e-002 4.05852422e-002 3.84896286e-002
      1.75531805e-002 -2.53139865e-002 -2.83013154e-002 -7.30968639e-002
      -1.02717005e-001 -8.55372772e-002 -3.71506624e-002 5.19797914e-002
      4.34774049e-002 -5.29180374e-003 1.30447652e-002 -9.93410964e-003
      -5.46202809e-002 -7.29785264e-002 2.17668395e-002 4.44438308e-002
      9.39564705e-002 1.01082079e-001 6.20783456e-002 4.93349805e-002
      3.98382805e-002 4.06543072e-003 -4.53111809e-003 -3.35118212e-002
      4.37643528e-002 9.09313709e-002 8.60479176e-002 2.62957402e-002
      6.22129738e-002 5.82055785e-002 -1.03288991e-002 -1.00053232e-002
      -5.86337484e-002 -3.42247300e-002 3.65059040e-002 3.41610536e-002
      2.58962288e-002 4.16724384e-002 1.95471775e-002 -3.46675888e-002
      -4.01003510e-002 -3.44191864e-002 -4.14668061e-002 2.23951675e-002
      7.14728162e-002 5.14424406e-002 5.94252236e-002 4.76454310e-002
      -1.02476198e-002 -4.63106371e-002 -5.30437380e-002 1.57318870e-003
      5.50777614e-002 8.05865750e-002 5.52322567e-002 6.77295849e-002
      5.94894327e-002 1.90806191e-003 -2.19652080e-003 -6.90675080e-002
      -3.46648246e-002 2.72338763e-002 9.57170203e-002 9.26659033e-002
      8.64560828e-002 5.44029288e-002 -2.41083070e-003 -4.35140990e-002
      -9.43884195e-004 -2.51820497e-002 2.89549753e-002 7.04951361e-002
      1.23055438e-002 2.49837898e-002 5.12009114e-002 -2.44069658e-003
      -4.49634343e-003 -1.24548422e-002 -1.22476253e-004 3.40024978e-002
      2.08295044e-002 -2.26429552e-002 2.41857674e-002 6.03835024e-002
      2.79661603e-002 4.80780005e-003 -6.57587722e-002 -7.75996596e-002
      2.90387608e-002 8.34020972e-002 7.13069513e-002 7.28024244e-002
      4.57959659e-002 -6.50765374e-003 -3.43728019e-003 -7.37474710e-002
      -5.15947007e-002 4.06791046e-002 4.45232391e-002 4.68677580e-002
      7.62362108e-002 7.34152645e-002 7.72947865e-003 -4.54381593e-002
      6.08160626e-003 6.39900682e-004 2.03235894e-002 3.13570872e-002
      5.88140786e-002 5.81955910e-002 7.46261626e-002 3.92865352e-002
      1.52858114e-002 -2.61061583e-002 -1.59551129e-002 7.70785089e-004
      4.03515212e-002 7.15930164e-002 5.01441024e-002 4.40329053e-002
      4.75519383e-003 -1.37828095e-002 -7.29008317e-002 -2.15367377e-002
      3.43175530e-002 6.87071905e-002 9.31235030e-002 9.32824835e-002
      9.79295969e-002 -1.37785254e-002 -6.81804791e-002 -1.28325433e-001
      -6.62253499e-002 -1.53142288e-002 4.32855375e-002 6.33130670e-002
      6.16151765e-002 5.11510111e-002 -4.96881977e-002 -1.21632904e-001
      1.20754745e-002 -2.89367083e-002 -1.17972251e-002 1.70958899e-002
      2.39692759e-002 1.59457941e-002 7.25623639e-003 -1.40453065e-002
      2.46840455e-002 6.77156821e-002 2.22429447e-002 8.59917328e-003
      2.71854531e-002 -1.98845863e-002 1.45246210e-002 2.11325791e-002
      1.93089545e-002 8.43097121e-002 -8.14520791e-002 -9.57929119e-002
      -7.24426508e-002 -3.98926325e-002 -1.62411053e-002 2.41614152e-002
      -3.27669579e-004 -5.07708713e-002 -5.97969145e-002
      -3.21680047e-002 -5.27152866e-002 -6.72631338e-002
      -3.56368087e-002 -7.23007321e-002 -3.75416987e-002
      -2.49595437e-002 -3.84691171e-002 -1.25571515e-003 4.98420522e-002
      1.22744162e-002 -1.58702787e-002 -6.92533627e-002 -1.10715084e-001
      -9.61201191e-002 -5.69700748e-002 -1.74264088e-002 3.64626162e-002
      9.63240489e-002 9.02125984e-002 5.91121912e-002 4.26787250e-002
      -8.07855837e-003 1.71781320e-003 1.95514429e-002 6.98965117e-002
      7.78483078e-002 -2.32153162e-002 -5.36987409e-002 -5.48424870e-002
      -1.00401722e-001 -1.57927185e-001 -1.38850704e-001
      -1.04033902e-001 -6.27931654e-002 -2.96991840e-002 7.24479109e-002
      8.09357390e-002 7.15983286e-002 3.46246101e-002 -5.18567860e-002
      -2.27289125e-002 1.64652430e-002 6.89980760e-002 4.54571955e-002
      -9.10472125e-003 1.67473480e-002 2.03652703e-003 -2.56106518e-002
      1.81606021e-002 -2.86803804e-002 -3.09784780e-004 1.70405500e-003
      -7.48986658e-003 3.65025960e-002 1.36979995e-002 -1.92489512e-002
      -3.00370734e-002 1.93727892e-002 -2.89047733e-002 -2.27031484e-002
      7.85730034e-003 4.87422459e-002 4.74298466e-003 2.89223623e-002
      2.60568280e-002 -7.56303407e-003 7.92728178e-003 -3.59432809e-002
      -2.99952365e-002 7.88959861e-003 -6.52006594e-003 1.23514272e-002
      3.91433313e-002 5.69713209e-003 -1.33460015e-002 3.36532779e-002
      -2.27376577e-002 -4.56843339e-002 6.85365684e-003 3.10110804e-002
      -5.25071397e-002 3.54767740e-002 6.85653910e-002 2.05421615e-002
      -3.38819399e-002 -1.91564206e-002 4.03649658e-002 5.27001023e-002
      -5.12994938e-002 -6.85712323e-002 4.74299006e-002 2.28034668e-002
      -7.41866156e-002 -8.02191347e-002 -6.38319999e-002 1.99339520e-002
      5.03670163e-002 -7.82451332e-002 -4.43971641e-002 2.57311817e-002
      7.54546970e-002 -2.95759621e-003 -3.28536220e-002 -2.99595902e-003
      5.49377277e-002 5.56833483e-002 -3.82996760e-002 -5.89765124e-002
      4.00860570e-002 5.70840687e-002 -5.74791506e-002 -7.47274309e-002
      -7.37642944e-002 1.60959139e-002 5.86661473e-002 -4.45972271e-002
      6.94056302e-002 4.99220639e-002 -6.62584156e-002 -1.22426800e-001
      -7.23682046e-002 -5.59081621e-002 -1.02896132e-002 6.49071112e-002
      7.36098737e-002 -1.08047761e-003 -8.16197768e-002 -1.52984560e-001
      -1.41736925e-001 -5.48494942e-002 -7.57988691e-002
      -5.58685176e-002 -7.62065733e-003 2.98137702e-002 1.05874494e-001
      1.01990797e-001 4.14025709e-002 -5.43111153e-002 -7.81387612e-002
      -1.24821067e-001 -7.32905269e-002 4.17644940e-002 9.78260860e-002
      1.71654373e-002 9.00381431e-003 -3.80789787e-002 -8.00692439e-002
      -5.82987852e-002 -1.38902962e-001 -1.76136494e-001
      -1.14730440e-001 -1.04924580e-002 -3.01812999e-002
      -8.11450705e-002 -7.04368129e-002 -4.66943905e-002 5.24305366e-002
      3.48547415e-004 -2.85071265e-002 -5.98722734e-002 -3.37998532e-002
      3.78642492e-002 -1.89913474e-002 -1.07783273e-001 -6.03439547e-002
      1.00256922e-002 -2.17909012e-002 -9.18516889e-002 -6.51926249e-002
      8.34979862e-003 -4.74798568e-002 -7.09648430e-002 -5.29900827e-002
      -1.10061783e-002 2.88535710e-002 -2.86464691e-002 -8.09985176e-002
      -1.03584088e-001 -3.56605351e-002 1.16432002e-002 -8.55643675e-002
      -1.15441337e-001 -2.37529799e-002 -1.84298605e-002
      -5.68997450e-002 -1.18113786e-001 -3.82078402e-002 3.98400538e-002
      1.04796588e-001 -7.83555359e-002 -2.03759760e-001 -1.59018323e-001
      -4.55932431e-002 -1.08170010e-001 -1.46789163e-001
      -6.94534034e-002 6.27810806e-002 1.79194957e-001 2.00900193e-002
      -3.71994153e-002 -3.96473147e-003 5.97505718e-002 5.95512567e-003
      -1.68873481e-002 5.45155406e-002 1.82974979e-001 6.58060685e-002
      -8.28258321e-002 -1.53198957e-001 -1.13639295e-001
      -7.92922825e-002 -1.88952208e-001 -2.32755855e-001
      -1.03940703e-001 9.78721753e-002 1.52144879e-001 3.39760445e-002
      -3.54764983e-002 1.49305575e-002 5.56439720e-002 -2.42251586e-002
      -5.72285838e-002 2.19864547e-002 1.66294649e-001 6.58743456e-002
      -5.93942590e-002 -6.81527555e-002 -1.66867357e-002 2.90447772e-002
      -5.60490452e-002 -6.10521324e-002 -5.00409491e-002 8.89973342e-002
      4.89050746e-002 1.84308793e-002 2.22154111e-002 4.63300571e-002
      7.22137913e-002 2.52322163e-002 9.84180626e-003 -7.47970399e-003
      6.33518323e-002 5.06092198e-002 -5.15594855e-002 -6.53771684e-002
      -2.07717791e-002 3.66670080e-002 -3.31869125e-002 -8.24361965e-002
      -6.06651157e-002 4.95517626e-002 2.61209346e-002 3.26041412e-003
      1.59615697e-003 4.63264808e-002 7.73571953e-002 5.65306097e-002
      3.99711132e-002 -1.46534166e-003 2.93289814e-002 3.87559384e-002
      1.26070688e-002 -1.34852100e-002 1.07890982e-002 4.06113192e-002
      3.78612475e-003 8.91339686e-003 -2.74721123e-002 1.45727191e-002
      4.38516438e-002 1.55512895e-002 -6.66543143e-004 7.04776915e-003
      1.40295718e-002 -7.85739743e-004 1.41730849e-002 -5.91268716e-003
      4.24294397e-002 4.63223085e-003 -2.07455885e-002 -6.56193681e-003
      2.20665615e-002 4.90190908e-002 3.80139425e-002 2.68815923e-002
      -3.61227198e-003 2.25060508e-002 5.02789319e-002 -5.12631470e-003
      -4.02955897e-003 4.08923067e-003 2.46348232e-003 1.53621556e-002
      4.30145152e-002 1.87835135e-002 3.84403206e-002 8.21845159e-002
      -5.99891506e-003 -3.09336148e-002 -3.61742452e-002
      -4.16524559e-002 -4.37736847e-002 -1.17433015e-002 1.19859390e-002
      8.92324671e-002 1.30094200e-001 3.10762115e-002 -1.95878167e-002
      -3.65840308e-002 -8.21655765e-002 -7.32244700e-002
      -2.04857364e-002 1.77361388e-002 1.41115889e-001 9.89455432e-002
      -6.97667361e-004 -4.43080068e-002 -4.40398939e-002
      -4.51790541e-002 -4.56314757e-002 -4.76345327e-003
      -3.81065853e-004 9.18331817e-002 1.29354835e-001 2.52573099e-002
      -2.37200316e-002 -7.83676356e-002 -7.99545422e-002
      -3.08772549e-002 1.47334477e-002 3.20081264e-002 1.29258841e-001
      1.02880456e-001 -9.00846627e-003 -3.15392390e-002 -7.23868832e-002
      -1.14114046e-001 -9.47047472e-002 -2.78077554e-002
      -1.07335942e-002 1.19307898e-001 9.97151658e-002 2.66038757e-002
      2.05639265e-002 -1.72538962e-002 -8.64100158e-002 -2.39177495e-002
      8.48959759e-003 -4.89548023e-004 1.02890357e-001 1.02505066e-001
      -1.49330664e-002 -1.78552419e-002 -1.16562992e-001
      -1.15078241e-001 -5.12256362e-002 -1.11332024e-002
      -7.73763610e-003 8.83875415e-002 9.99829099e-002 2.76584807e-003
      6.59633940e-003 -2.15508044e-002 -8.21083635e-002 -6.88540470e-003
      2.51366813e-002 7.56347924e-003 8.15992206e-002 6.29537031e-002
      8.96472111e-003 2.20020916e-002 1.74514335e-002 -1.23036094e-002
      8.60855170e-003 3.61093394e-002 -1.54630616e-002 4.23346981e-002
      -3.32757607e-002 -3.18244025e-002 1.97852887e-002 4.31157183e-003
      -3.34942248e-003 2.00177990e-002 1.70643274e-002 -4.19944897e-002
      -2.39384398e-002 3.94477546e-002 -8.27988889e-003 3.73694971e-002
      -4.72441409e-003 -9.27091856e-003 4.04348969e-002 3.66478749e-002
      4.59680753e-003 5.77347837e-002 -1.54756224e-002 -2.79634725e-002
      3.98694053e-002 1.53666008e-002 1.76142678e-002 3.55720930e-002
      3.20946723e-002 -2.79998388e-002 -3.51823643e-002 -1.36438254e-002
      -2.72646509e-002 3.46379802e-002 4.64117900e-002 5.16053587e-002
      3.59308869e-002 4.88252155e-002 -1.45125063e-002 6.99541904e-003
      -6.19413145e-002 -7.14209005e-002 -5.34555642e-003 6.22937530e-002
      5.91595061e-002 3.93415913e-002 2.82652397e-002 -6.23976476e-002
      -3.88685130e-002 1.71093699e-002 -1.50164394e-002 6.31327257e-002
      6.11232594e-002 5.08932061e-002 4.53124531e-002 3.80593650e-002
      -1.41899679e-002 7.03528197e-003 -3.49178426e-002 -6.71898499e-002
      2.08356157e-002 5.14831021e-002 4.51340564e-002 5.22088371e-002
      -1.11410888e-002 -5.52135557e-002 -3.56292352e-002
      -3.75805125e-002 -6.92377537e-002 3.09578646e-002 6.76893443e-002
      3.94923836e-002 5.02234884e-002 4.11493629e-002 -4.28993292e-002
      -5.76623483e-003 -6.17470182e-002 -5.33526652e-002 5.75649589e-002
      5.25126792e-002 3.90225649e-002 5.21532334e-002 5.52027151e-002
      -4.07297425e-002 -2.69211903e-002 6.66181836e-003 -3.85774039e-002
      4.38564867e-002 6.27662092e-002 3.30309533e-002 6.00567907e-002
      2.43533794e-002 -7.95529261e-002 -5.71125373e-003 -1.53766181e-002
      -3.32332030e-002 4.84940894e-002 5.77692203e-002 3.72325890e-002
      6.21162206e-002 7.05186054e-002 -3.97107638e-002 -4.33856659e-002
      -4.20898385e-002 -6.58886041e-003 4.28378545e-002 7.61197954e-002
      8.69296193e-002 7.36308321e-002 7.68076852e-002 -1.14657218e-002
      -4.77121398e-002 -9.77165699e-002 -4.94355038e-002
      -6.99642301e-003 5.90145513e-002 7.55799338e-002 5.87703027e-002
      2.73010768e-002 -5.31111956e-002 -1.00229487e-001 -4.18292731e-002
      -1.33135840e-002 7.92019665e-002 8.38451758e-002 9.66743827e-002
      7.93408006e-002 6.25335425e-002 -2.31561670e-003 -1.74305271e-002
      -1.02732785e-001 -5.37466556e-002 3.20356376e-002 6.26807362e-002
      8.34596455e-002 6.42573461e-002 1.83372349e-002 -5.30051850e-002
      -9.10150856e-002 -1.68018173e-002 -3.38241532e-002
      -3.93428244e-002 -5.11592301e-003 2.79207882e-002 3.54692787e-002
      1.12818200e-002 -2.46236138e-002 -4.00480255e-002 1.77465826e-002
      -3.01799122e-002 -4.61203158e-002 -4.21888307e-002
      -6.59605935e-002 -3.23893428e-002 -2.64275423e-003 4.93450975e-003
      1.85198151e-002 -4.56785448e-002 -1.73778515e-002 1.73327848e-002
      3.07819545e-002 3.83493565e-002 1.32829114e-003 -1.80506110e-002
      -5.21672256e-002 -3.30490619e-002 1.01957200e-002 -1.34806726e-002
      -3.40082571e-002 -4.66431305e-002 -5.80791309e-002
      -3.42320427e-002 -2.38464512e-002 -1.35971420e-002 1.19579649e-002
      6.28742483e-003 -4.65028919e-002 -6.05842099e-002 -1.10772565e-001
      -1.82023495e-001 -1.44716471e-001 -5.62095381e-002 3.62979947e-003
      1.06719155e-002 1.18936390e-001 1.07357010e-001 6.13463745e-002
      4.81689386e-002 -2.97086928e-002 -3.94189032e-003 3.28599699e-002
      1.05147183e-001 9.50584561e-002 -2.34136335e-003 -3.36698331e-002
      -7.37459883e-002 -1.53743416e-001 -1.68646172e-001
      -1.11754186e-001 -4.62017283e-002 -1.98596288e-002
      -2.12228694e-003 9.90237072e-002 1.03338726e-001 4.18611541e-002
      1.65957995e-002 -3.91094536e-002 1.29916146e-002 6.43007383e-002
      1.26058400e-001 1.29538298e-001 2.13200562e-002 5.26918471e-002
      8.57536308e-003 -1.54017843e-002 -1.37185759e-003 -4.19790111e-002
      -3.84027883e-002 1.46485064e-002 -1.05747313e-003 2.70025134e-002
      3.91374156e-002 1.49192372e-002 6.83900388e-003 2.14379616e-002
      -1.99101847e-002 -3.93263474e-002 4.48403973e-003 2.81368680e-002
      -1.28584327e-002 2.69351806e-002 -2.27581020e-002 -3.56344543e-002
      1.31296227e-003 -3.03147361e-002 -1.60139836e-002 3.90660539e-002
      5.96038764e-003 1.42240832e-002 2.00031307e-002 -3.26566771e-002
      -8.64773896e-003 5.34409285e-003 -6.30903710e-003 -1.30443312e-002
      1.77003182e-002 4.23961272e-003 -4.03531902e-002 -1.44941662e-003
      3.04563046e-002 -2.63137445e-002 -4.59832363e-002 -1.51487906e-002
      2.02981271e-002 1.82717815e-002 -2.81249806e-002 -5.78806773e-002
      9.51705687e-003 2.32622903e-002 -5.43556623e-002 -1.95668694e-002
      -5.75579517e-002 -1.93141755e-002 9.21890419e-003 -4.79462184e-002
      4.01784433e-003 2.68219318e-002 2.64465995e-002 -2.91307122e-002
      -4.54632938e-002 -5.43582812e-002 1.01474868e-002 3.35617661e-002
      -1.27931719e-003 -4.94360812e-002 1.10981576e-002 3.77659313e-002
      -2.11445708e-002 -1.25079332e-002 -6.11274280e-002
      -2.28750221e-002 1.93474852e-002 -5.32372370e-002 6.99056536e-002
      8.77443030e-002 5.30965514e-002 -1.70204174e-002 -5.18011786e-002
      -1.38659775e-001 -1.19579129e-001 -2.56601218e-002 2.77126711e-002
      -6.56146780e-002 -3.08046141e-003 1.39298188e-002 -1.90853216e-002
      -3.79571803e-002 -1.73236161e-001 -2.18234792e-001
      -2.04577506e-001 -1.29272997e-001 4.46170457e-002 8.59065950e-002
      7.29623660e-002 1.69342496e-002 -4.97551775e-003 -4.90294732e-002
      -3.05114612e-002 3.46196629e-002 1.40407784e-002 -3.23467404e-002
      2.76213065e-002 5.22701368e-002 1.53104113e-002 8.73006880e-003
      -4.61631045e-002 -5.70617244e-002 -7.73476437e-002
      -7.75670409e-002 -1.21083654e-001 -1.01672247e-001
      -1.51415346e-002 2.69941837e-002 4.47836518e-002 -2.61775255e-002
      -7.25446790e-002 -1.32003039e-001 -1.11838192e-001
      -8.73686969e-002 -1.44735262e-001 -9.83630121e-002 2.18317490e-002
      4.49733250e-003 -8.83988738e-002 -1.34428859e-001 -8.77574608e-002
      -2.21646726e-002 -5.35191558e-002 -2.11184677e-002 2.72089243e-002
      5.65011911e-002 8.14095289e-002 3.51050571e-002 1.47134671e-002
      -8.89291149e-003 -5.02152778e-002 -2.63497829e-002
      -5.20995520e-002 2.73926067e-003 4.67299707e-002 4.53756228e-002
      -1.69321056e-002 -5.62141910e-002 7.11977045e-005 -2.85626296e-003
      4.92424890e-002 -8.29698443e-002 -8.24098736e-002 -7.36424793e-003
      -9.58321523e-003 -1.69044346e-001 -2.57635057e-001
      -1.66529939e-001 5.80824949e-002 1.35818362e-001 4.99636196e-002
      2.81485990e-002 8.50121900e-002 1.14295490e-001 -7.66818738e-003
      -1.23245560e-001 -1.08582705e-001 7.26081654e-002 6.00184724e-002
      -1.16463574e-002 1.90842953e-002 6.31088763e-002 1.39789199e-002
      -1.05341382e-001 -2.19211489e-001 -1.77189410e-001 1.09384395e-002
      9.43651721e-002 8.42681080e-002 1.02638565e-001 1.12240091e-001
      9.10633802e-002 3.18615604e-003 -1.62368461e-001 -1.76247671e-001
      -3.73428278e-002 6.60377443e-002 -2.36505922e-002 -1.88746513e-003
      3.61834206e-002 9.10034329e-002 3.95989493e-002 -6.38570786e-002
      -1.06978729e-001 1.88086256e-002 1.70918535e-002 -1.46549335e-002
      4.05293889e-002 8.24809521e-002 1.22063905e-001 9.46461111e-002
      6.25337139e-002 1.26175000e-003 2.99750809e-002 -1.07817203e-002
      -2.03998070e-002 1.51633797e-002 1.88127756e-002 1.35853915e-002
      -7.32796080e-003 -1.10014826e-001 -2.17064738e-001
      -1.09075263e-001 -2.83145737e-002 -3.72509435e-002 1.48070324e-003
      3.21994349e-002 4.35561426e-002 4.71461713e-002 4.04773764e-002
      -8.08737427e-002 -7.20439330e-002 1.29622519e-002 -1.54858008e-002
      4.34853658e-002 7.11714700e-002 8.71803984e-002 6.28343001e-002
      5.19876108e-002 -2.81447694e-002 -9.40657593e-003 3.72047536e-002
      -5.82713913e-003 2.37282328e-002 6.15238920e-002 6.67088702e-002
      6.98690712e-002 4.94463705e-002 -1.97536894e-003 -7.86235463e-003
      -5.96579276e-002 -6.40050471e-002 -4.13331017e-003 1.47062223e-002
      4.90089133e-002 4.26506959e-002 7.82945566e-003 -9.51289833e-002
      -6.53142631e-002 -2.36372240e-002 -3.72539386e-002 1.64547674e-002
      3.27997059e-002 4.26966883e-002 5.04655428e-002 4.32398031e-003
      -1.11865968e-001 -5.97853847e-002 4.25363071e-002 -9.92015749e-003
      -1.09731918e-002 -4.42489982e-003 4.00823541e-002 3.04085538e-002
      3.30854468e-002 -1.99185759e-002 2.68976693e-003 4.11760919e-002
      3.19142006e-002 4.73384969e-002 7.67637184e-003 3.05524059e-002
      4.89066653e-002 6.26584738e-002 1.72476191e-002 3.94206867e-002
      -4.86572236e-002 -3.68677266e-002 -6.17623096e-003
      -1.11684669e-002 3.88137437e-002 1.15552424e-002 -2.67832614e-002
      -1.31472439e-001 -8.03401545e-002 -3.41835469e-002
      -1.08313644e-002 -1.03559392e-002 8.38709623e-003 2.46869531e-002
      2.95907520e-002 2.28932630e-002 -8.41702744e-002 -9.90408510e-002
      5.81571646e-002 2.73249652e-002 3.65529694e-002 -3.21512334e-002
      3.44504118e-002 3.79650854e-002 2.64620055e-002 -1.84490010e-002
      4.61561382e-002 3.79492678e-002 2.62550618e-002 5.33547960e-002
      1.80139598e-002 3.22102904e-002 7.42453635e-002 3.09411641e-002
      1.17891785e-002 4.52594832e-002 -8.69084373e-002 -3.78420092e-002
      7.50190206e-003 -1.31119015e-002 2.76465695e-002 1.06817298e-002
      -7.67567381e-003 -9.21295285e-002 -1.35891825e-001
      -1.10629246e-001 -7.53948465e-002 4.66207974e-003 -2.34427527e-002
      -2.91228178e-003 4.11019213e-002 -4.91840858e-003 -7.02808350e-002
      -1.29552275e-001 7.63205299e-003 5.50640188e-003 4.35528830e-002
      2.44439244e-002 6.59020394e-002 9.34598371e-002 6.23017736e-002
      5.89311589e-003 2.21191011e-002 -3.09708789e-002 5.55583218e-004
      7.86474422e-002 4.80446368e-002 6.56199753e-002 8.20326060e-002
      9.04894471e-002 5.40554151e-003 -3.77545469e-002 -9.54858661e-002
      -7.61750191e-002 -1.84396002e-002 -3.83355878e-002
      -3.58066964e-003 4.25915606e-002 2.63505634e-002 -5.25400490e-002
      -9.81578454e-002 -5.46056107e-002 -2.25590747e-002 2.03960272e-003
      5.14908135e-003 -8.02940782e-003 4.90675867e-002 7.73180649e-002
      -3.02169286e-002 -9.19402614e-002 -2.26066858e-002
      -2.47693732e-002 6.02378137e-002 5.99893294e-002 5.42511158e-002
      6.67485371e-002 4.91380058e-002 -3.41999643e-002 -5.74439652e-002
      -3.80307771e-002 -1.74064711e-002 5.53467497e-002 7.74567425e-002
      7.39837587e-002 8.41530561e-002 2.58907373e-003 -7.93188810e-002
      -7.22426102e-002 -2.96806637e-002 -3.12146242e-003 3.45868170e-002
      5.34392819e-002 2.77270488e-002 6.12885803e-002 5.76461107e-002
      -3.57038267e-002 -6.58283159e-002 -3.94156538e-002 3.34509462e-002
      7.22518712e-002 8.81760791e-002 3.71831879e-002 7.77697489e-002
      3.05309296e-002 -2.87914183e-002 -4.02919091e-002 -1.10841244e-002
      -1.52073931e-002 3.82983387e-002 4.76168357e-002 7.28970468e-002
      7.08893314e-002 1.73050526e-003 -1.14812985e-001 -7.01144338e-002
      -5.77280670e-002 -2.08769962e-002 4.42641564e-002 4.56112064e-002
      6.57527223e-002 4.18982580e-002 2.88711302e-002 -7.69769251e-002
      -7.26720467e-002 -5.89907542e-003 2.69678980e-002 6.46812469e-002
      2.06665862e-002 6.27987366e-003 5.09022623e-002 1.66786741e-002
      -2.93275993e-002 -6.21073693e-003 -7.70333130e-003 4.99329045e-002
      7.26822168e-002 2.75106747e-002 -1.03276484e-002 2.83070635e-002
      3.81547883e-002 -2.16528177e-002 -9.37704928e-003 -7.47200251e-002
      -4.50197458e-002 6.71325400e-002 6.72945976e-002 1.12118781e-001
      6.17094748e-002 3.70411649e-002 -3.62294428e-002 -8.27392414e-002
      -1.25815958e-001 -5.97617254e-002 4.12487201e-002 5.90356700e-002
      5.28256297e-002 2.62927525e-002 -1.25360964e-002 -8.23717117e-002
      -1.20992474e-001 1.91924181e-002 4.22224179e-002 8.23488683e-002
      6.38897568e-002 5.71797453e-002 5.82983941e-002 3.69159877e-002
      8.37189332e-003 2.08609905e-002 4.18045744e-003 1.82298217e-002
      6.48123324e-002 3.88641059e-002 2.13811640e-002 6.79459004e-003
      -7.81311747e-003 -9.18598752e-003 -2.77299844e-002
      -5.87034784e-002 -4.54592705e-002 -2.24233605e-003 3.33072133e-002
      1.05296967e-005 -4.03119586e-002 -8.10404420e-002 -1.16413608e-001
      -9.33418795e-002 -3.53831425e-003 -4.60666977e-002
      -4.47026044e-002 -3.48737277e-002 -7.18130320e-002
      -5.78027517e-002 -8.00062120e-002 -7.55562931e-002
      -5.17673083e-002 1.18006822e-002 3.13360034e-003 3.82780991e-002
      3.80394012e-002 2.71487031e-002 1.04134595e-002 -2.79072691e-002
      -3.70135605e-002 -5.88047225e-003 5.97881638e-002 1.21733071e-002
      -2.80890078e-003 3.76419015e-002 -1.06616607e-002 1.73926912e-002
      1.19834552e-002 1.62421651e-002 4.51279171e-002 -3.34951282e-002
      -8.30158889e-002 -1.01698637e-001 -1.57833099e-001
      -1.63697839e-001 -1.07901342e-001 -6.65984228e-002
      -6.22100905e-002 -1.58923864e-002 5.59513196e-002 4.09132242e-002
      1.70701984e-002 -2.82824151e-002 -4.05462384e-002 2.92660221e-002
      6.67293891e-002 8.88180286e-002 8.40301812e-002 3.05411348e-004
      -3.50869633e-002 -6.39460459e-002 -1.02451198e-001
      -9.40813795e-002 -5.53576946e-002 -1.56532973e-002
      -9.82355210e-004 1.37417242e-002 6.69431761e-002 5.02948239e-002
      3.56076472e-002 -2.43550297e-002 7.50408217e-004 4.82188500e-002
      6.74020424e-002 9.61967632e-002 9.12710205e-002 -1.47450315e-002
      8.26204661e-004 -2.97844484e-002 -5.57376221e-002 1.50848404e-002
      -2.06959387e-003 1.29388785e-002 4.30475809e-002 -2.22557131e-003
      2.89279018e-002 3.04719387e-003 -6.06380589e-002 -4.48649675e-002
      2.18612701e-002 -9.46760364e-003 -5.88759594e-003 4.00257483e-002
      1.49614383e-002 -2.26488076e-002 1.29791591e-002 4.53609833e-003
      -4.45880629e-002 1.59343928e-002 5.93444856e-004 8.50622449e-003
      2.84291338e-002 -1.48172155e-002 3.31625044e-002 1.01867225e-002
      -3.83897834e-002 -4.09176573e-002 6.42212806e-003 1.03778357e-003
      -5.00472914e-003 2.74254512e-002 2.55025998e-002 1.49963982e-002
      4.35102247e-002 3.90217416e-002 -2.99883373e-002 -2.74337400e-002
      -4.38117385e-002 5.16014956e-002 6.29522428e-002 2.75135599e-003
      -2.51868386e-002 3.12638953e-002 3.18031795e-002 -1.63248703e-002
      1.22744171e-003 -2.34127119e-002 2.29942035e-002 3.39638032e-002
      -4.21804562e-002 -2.27940474e-002 2.91964561e-002 6.31742924e-002
      -3.51629518e-002 -9.67288613e-002 -6.61663115e-002 3.69510539e-002
      3.09139825e-002 -3.40801626e-002 -6.37734011e-002 -9.55927465e-003
      7.15386961e-003 -4.31475751e-002 -4.02055271e-002 -6.41422123e-002
      8.53934325e-003 6.91117160e-003 -6.54892176e-002 1.25598232e-003
      5.95745854e-002 5.45276478e-002 -3.52093801e-002 -1.00275055e-002
      -9.43939388e-003 -7.01900572e-003 1.84655152e-002 4.17738920e-003
      -4.69469205e-002 2.87178159e-002 4.50906679e-002 5.21244574e-003
      1.12502752e-002 -6.54822355e-003 5.35173854e-003 -5.30836266e-003
      -6.65539131e-002 -7.73133859e-002 2.27978197e-003 5.07007614e-002
      -1.80326495e-002 -3.77897769e-002 -2.68999077e-002 1.01778712e-002
      1.04294885e-002 -4.93872352e-002 -8.02090988e-002 -1.30101768e-002
      9.53697227e-003 -2.79243048e-002 -2.74526067e-002 -5.07716648e-002
      1.16613759e-002 1.39557803e-002 -6.02570884e-002 -4.40351479e-002
      -1.02688055e-002 -1.60647818e-004 -7.71988649e-003 9.22283530e-003
      -2.23964942e-003 2.68000271e-002 1.40772285e-002 -2.90379412e-002
      -1.12309679e-003 -2.68681888e-002 -1.15618706e-002
      -5.02997497e-003 -6.13255007e-003 -3.22749019e-002
      -2.78779436e-002 1.44548342e-002 2.06696000e-002 -4.38591540e-002
      -1.09585542e-002 -1.17261456e-002 -2.53680144e-002
      -1.29180523e-002 -4.99762595e-002 -1.58888113e-003 1.81335378e-002
      -1.85345225e-002 7.05497339e-003 -3.62042002e-002 -2.72090454e-002
      1.85061409e-003 2.70545133e-003 -6.26008632e-003 -1.62184872e-002
      1.83943957e-002 2.92429812e-002 4.92368378e-002 -1.32063562e-002
      -2.02623010e-002 1.73868649e-002 -8.79491307e-003 -5.26881255e-002
      -1.00967363e-001 -8.53889361e-002 2.84334589e-002 5.35684675e-002
      4.68716137e-002 3.45488824e-002 2.60105990e-002 3.63223404e-002
      1.39247384e-002 -6.92124665e-002 -1.30717099e-001 -2.81275027e-002
      3.61641459e-002 -1.14886258e-002 -7.81032583e-003 1.80460177e-002
      -1.42396623e-002 -7.72491749e-003 -9.95995104e-003
      -1.79083366e-002 2.91006137e-002 6.41026199e-002 3.92230339e-002
      3.83324698e-002 2.73151826e-002 3.41801159e-002 4.11203615e-002
      4.14538048e-002 -2.32642367e-002 1.03804432e-002 2.72877403e-002
      -1.44180364e-003 8.97716079e-003 -4.29018447e-003 3.85749852e-003
      1.98502373e-002 -2.28154343e-002 -1.41766533e-001 -7.36314058e-002
      3.36097255e-002 2.03248602e-003 2.88946517e-002 4.01756763e-002
      2.47292425e-002 3.76958512e-002 4.31140140e-002 -9.12032276e-002
      -5.45518063e-002 4.20287475e-002 2.36841640e-003 1.71948299e-002
      1.97922885e-002 2.05137227e-002 4.40082662e-002 3.70546654e-002
      -4.57829759e-002 -3.61416563e-002 2.18057204e-002 2.93101114e-003
      5.01168035e-002 4.60377075e-002 2.46559810e-002 7.31817782e-002
      6.05736487e-002 -2.75379848e-002 -2.81594396e-002 2.74046585e-002
      -2.75533721e-002 3.98754701e-003 2.12267041e-003 1.35158794e-002
      2.62778327e-002 9.68715735e-003 -9.62282047e-002 -2.90636588e-002
      5.17335907e-002 4.26033000e-003 3.51922438e-002 3.37045863e-002
      1.29649406e-002 3.05189211e-002 2.45151781e-002 -6.63085058e-002
      9.94576793e-003 -2.31590495e-002 -3.53746898e-002 2.79015712e-002
      1.12303533e-002 -2.55920971e-003 4.21981514e-002 3.76241356e-002
      -5.62800355e-002 -3.03868614e-002 -1.83950495e-002 9.21441335e-003
      5.93586899e-002 3.33778150e-002 -8.80845822e-003 4.97561507e-002
      7.07121193e-002 -7.37076811e-003 -4.10520583e-002 1.51540870e-002
      -1.37604456e-002 1.19731540e-003 -2.04078909e-002 -1.59799699e-002
      -1.95033196e-002 -5.15734637e-003 -9.51448008e-002
      -2.75182184e-002 1.68494508e-002 -7.79570546e-004 -1.39970770e-002
      1.03382673e-002 2.49384008e-002 7.18337623e-003 8.19385611e-003
      -4.44235578e-002 -2.93673091e-002 -7.67727848e-003
      -1.19634904e-003 3.91631387e-002 -1.32722249e-002 -4.35469188e-002
      -1.19218407e-002 4.11900766e-002 -1.41270878e-002 -2.49147452e-002
      2.31807493e-002 1.08364346e-002 3.49397808e-002 1.27509385e-002
      2.06951182e-002 2.32576579e-002 2.87224203e-002 3.49724926e-002
      1.88767407e-002 -1.45404309e-003 -2.72311699e-002 -9.59175359e-003
      -8.53309687e-003 2.21997425e-002 -1.01621160e-002 9.42287873e-003
      -6.38385862e-002 -6.64733946e-002 -3.64637822e-002
      -3.91912125e-002 1.71726671e-004 -3.76913659e-002 -2.07805652e-002
      -3.42373713e-003 8.29343498e-003 -6.67734221e-002 -2.84251720e-002
      -6.00985659e-004 -1.61511656e-002 2.56614685e-002 1.11822374e-002
      3.09063550e-002 1.26759484e-002 3.17455716e-002 2.41713673e-002
      9.81979445e-003 1.12608830e-002 -1.51917851e-002 3.36946473e-002
      1.98005140e-002 -8.54761619e-003 2.55247392e-002 5.61166964e-002
      -3.00387153e-003 -9.65960696e-003 -2.60026511e-002
      -4.69964370e-002 -3.95784825e-002 -8.57819244e-002
      -6.63208589e-002 -3.20844501e-002 -1.78446516e-003
      -4.02463041e-002 -4.13570832e-003 1.41328443e-002 -7.27874599e-003
      -1.75696742e-002 -4.00834195e-002 -5.83876446e-002
      -9.67323780e-003 1.55535331e-002 9.94768087e-003 -5.49374055e-003
      1.03977108e-002 -1.03301313e-002 2.88110469e-002 -1.64481346e-002
      -3.67342383e-002 5.20683033e-003 2.63664089e-002 2.10353676e-002
      1.89156160e-002 3.04115415e-002 5.12127466e-002 6.19646944e-002
      1.48501163e-002 -3.88970524e-002 2.88502015e-002 5.42382374e-002
      4.68823314e-002 3.61820087e-002 3.91950719e-002 -2.29014942e-004
      -1.08390786e-002 -2.98730917e-002 -3.89202498e-002
      -2.37135775e-002 1.16441492e-002 -5.50948754e-002 -3.20588835e-002
      3.21009941e-002 1.22824376e-002 1.91052463e-002 -9.01795458e-003
      -2.65282262e-002 -1.20655820e-002 2.34984420e-003 -2.06320621e-002
      1.42155606e-002 5.09713963e-002 2.28532832e-002 3.71540152e-002
      -3.12527828e-003 6.52105373e-005 1.12810601e-002 3.10237110e-002
      1.33525850e-002 3.36857215e-002 4.70502153e-002 1.70489959e-002
      3.56191993e-002 2.51925481e-003 5.97474771e-003 1.86692295e-003
      3.02533004e-002 5.13516739e-003 2.81014331e-002 1.63861047e-002
      -1.05165429e-002 -4.60261200e-003 -4.17761728e-002
      -6.30436689e-002 -2.58960649e-002 -6.59508584e-003
      -4.67468257e-004 1.43316248e-002 2.02827901e-002 3.79331200e-003
      3.12367338e-003 -2.21295636e-002 -6.39019012e-002 -3.78504880e-002
      6.86559919e-003 -5.61144762e-003 1.86546110e-002 5.74938431e-002
      -7.14765908e-003 1.75434630e-002 -8.22781213e-003 -2.92661507e-002
      4.45031188e-003 3.13297026e-002 1.13253612e-002 3.85465771e-002
      6.25620186e-002 4.50576702e-003 3.54082733e-002 2.35052295e-002
      5.19647868e-003 -2.20592096e-002 2.78086681e-002 3.25078554e-002
      3.65382768e-002 2.15046462e-002 -7.46949110e-003 1.64559092e-002
      -6.25108043e-003 -1.50786852e-002 -2.00579073e-002
      -1.51094887e-002 -3.08999550e-002 -1.43274702e-002 2.27044448e-002
      -3.09392773e-002 -1.27511872e-002 -2.26324759e-002
      -1.03872400e-002 -3.76036353e-002 -4.67300154e-002
      -5.81649579e-002 -1.31243013e-003 2.81317662e-002 3.33505892e-003
      3.64829227e-002 2.25006230e-002 1.10341609e-002 -9.24917869e-003
      1.29478602e-002 2.26745382e-002 1.40898516e-002 3.42624746e-002
      4.81175911e-003 1.94003358e-002 3.16384472e-002 5.07381046e-003
      1.16766011e-002 -6.61745947e-003 1.03112198e-002 2.38470621e-002
      -1.23005314e-002 -5.77887371e-002 -4.79014553e-002
      -5.56180738e-002 -4.64809611e-002 -5.72487451e-002
      -6.84197471e-002 -6.42322600e-002 7.55199883e-003 1.33049991e-002
      -6.25293702e-002 -6.16435222e-002 -3.34685706e-002
      -3.13664004e-002 -2.85931882e-002 -1.69608518e-002
      -2.02424563e-002 2.30447296e-002 2.92956475e-002 -1.62172355e-002
      -9.95986816e-003 2.02102419e-002 -3.30900610e-003 5.38866594e-003
      -9.66115110e-003 -1.04437843e-002 4.45361249e-002 4.84201796e-002
      2.58985013e-002 5.87137649e-003 2.60233823e-002 2.77507603e-002
      3.22551802e-002 2.40176879e-002 1.81416050e-002 5.50547093e-002
      -2.47488637e-002 -6.26392663e-002 -8.31633508e-002
      -7.91959688e-002 -5.69547825e-002 -4.09078896e-002
      -2.33280361e-002 -1.69031247e-002 -1.39015103e-002 6.44537667e-003
      2.00697817e-002 8.32576677e-003 -1.66184362e-002 -2.88011949e-003
      1.33725693e-002 3.15110534e-002 6.44346699e-002 3.45606133e-002
      -1.03767738e-002 -1.87007766e-002 -3.57553400e-002
      -9.41903330e-003 4.28024167e-003 5.58935790e-006 -1.90653671e-002
      1.17055876e-002 2.09016725e-003 4.80491528e-003 4.22161967e-002
      2.77957320e-002 3.07265148e-002 5.09962812e-002 1.86509676e-002
      2.46935170e-002 5.75487539e-002 2.76306216e-002 -4.57042418e-002
      2.28313673e-002 3.64742801e-003 -1.78516656e-002 2.39178427e-002
      1.36512844e-002 1.45255672e-002 3.51496488e-002 -2.39396449e-002
      1.92079134e-002 3.34401093e-002 -7.56435504e-004 -3.97359999e-003
      7.79446959e-003 -2.08907928e-002 -1.20443739e-002 2.10904367e-002
      2.94708516e-002 -4.97167446e-002 2.61569396e-002 6.17277669e-003
      3.66641185e-003 5.53856753e-002 -2.39713658e-002 -4.26491024e-003
      4.14950587e-002 -1.56371575e-002 -1.48778250e-002 2.75044888e-002
      1.88759360e-002 4.25911928e-003 2.31481157e-002 -1.30839404e-002
      1.87623221e-002 3.83688584e-002 1.38983401e-002 8.45132954e-003
      2.74183098e-002 7.34905079e-002 -1.70021094e-002 -6.18755035e-002
      -3.86641324e-002 3.85283306e-002 4.76282239e-002 -5.92610100e-003
      -1.55865951e-002 2.56030001e-002 5.52643426e-002 -3.93858291e-002
      -3.77748348e-002 -2.71825567e-002 2.52637640e-002 2.46989708e-002
      -2.74325460e-002 -4.76226024e-002 -2.41372772e-002 3.73897515e-002
      -4.42762785e-002 -1.01790559e-002 -8.66264999e-002 2.59549636e-002
      2.16166787e-002 -4.89206463e-002 -1.10926360e-001 -2.36871354e-002
      5.18230349e-002 -3.67426313e-002 4.85281181e-003 -4.91994098e-002
      6.89805066e-003 8.71923100e-003 -1.07413508e-001 -1.35596432e-002
      1.94501970e-002 3.50402668e-002 -2.81173736e-002 -4.93151098e-002
      -2.47826222e-002 1.24040795e-002 2.97566354e-002 -6.78181136e-003
      -2.27599423e-002 -8.15055537e-005 2.45425534e-002 -1.69746168e-002
      -3.54771316e-002 -4.70579676e-002 1.97188724e-002 3.50670256e-002
      1.22067314e-002 -8.42932165e-002 -1.60690513e-003 9.20582097e-003
      -4.99614291e-002 1.50910541e-002 -3.11513245e-002 -2.02862155e-002
      -1.70164846e-003 -4.50777821e-002 -5.15906923e-002
      -4.44868878e-002 -4.09949236e-002 -3.21747698e-002 2.11555995e-002
      -4.33278382e-002 -2.78549362e-003 2.40481105e-002 -1.69469249e-002
      -8.66432034e-004 -2.79056672e-002 -1.14567932e-002
      -3.38282436e-002 -1.68481953e-002 -4.58586514e-002
      -1.20766433e-002 1.74079258e-002 2.78281383e-002 1.92443114e-002
      -4.46155146e-002 1.13188743e-003 1.40554260e-003 1.16927605e-002
      1.56851094e-002 7.92579725e-003 2.42536012e-002 3.77064422e-002
      -2.04091389e-002 -5.51683009e-002 -4.58798930e-002
      -5.36715984e-002 5.15797623e-002 -4.29447405e-002 -1.89612731e-002
      1.29793976e-002 -1.35637773e-002 -4.63134348e-002 -5.30708656e-002
      -3.39999609e-002 -3.41205709e-002 9.57706273e-002 -8.30895361e-003
      -1.23809818e-002 -8.25364259e-004 -2.49078237e-002 1.13911449e-003
      -4.09939438e-002 -1.37658939e-002 -5.29352855e-003
      -1.60653107e-002 -7.89061189e-003 -8.39430466e-003
      -1.06845284e-002 1.41857248e-002 5.65545522e-002 2.61077657e-003
      1.14087975e-002 5.70728490e-003 1.75757296e-002 8.32135696e-003
      6.47027567e-002 3.25549766e-002 4.80177961e-002 -4.50762250e-002
      -4.09801938e-002 -2.11367123e-002 -4.37515900e-002 6.02038503e-002
      -3.59792858e-002 -3.07550859e-002 -2.84405705e-002
      -2.54239105e-002 1.79419797e-002 -1.17063830e-002 3.74802724e-002
      -1.57290287e-002 8.03815946e-002 -1.14895531e-003 3.26264016e-002
      1.98467188e-002 3.76722440e-002 2.76798774e-002 -6.46213219e-002
      -2.85717305e-002 -3.00194100e-002 -3.86862084e-002
      -1.21878143e-002 3.11709102e-002 -1.22564193e-002 1.80973522e-002
      1.63978320e-002 -2.12131273e-002 1.35341045e-002 5.30675752e-003
      -4.45511006e-002 1.95480101e-002 3.75220329e-002 2.97096055e-002
      4.56935689e-002 2.62924992e-002 -3.23650166e-002 7.57662440e-003
      -4.08021994e-002 3.98940817e-002 -4.74585295e-002 1.33685628e-002
      -1.89672690e-002 1.97491813e-002 5.41257858e-003 1.67730283e-002
      3.69181931e-002 -1.01354271e-002 3.31736729e-002 -1.83290488e-003
      6.47336170e-002 5.08708693e-002 2.68601216e-002 1.79938826e-004
      -4.45411205e-002 9.17857420e-003 -2.15920992e-002 -6.80544376e-002
      -5.39244898e-003 2.71311551e-002 -1.84063166e-002 -1.79600231e-002
      -3.22687672e-003 -1.11288587e-002 4.64273207e-002 8.22318345e-003
      -5.24585135e-002 -9.25812777e-003 3.89331318e-002 -1.10494262e-002
      -1.74826700e-002 6.33292226e-003 -1.01286615e-003 1.00982375e-002
      -2.09474824e-002 3.61424722e-002 -1.98252555e-002 4.18645442e-002
      4.60142940e-002 3.14694382e-002 2.40860116e-002 -6.54679304e-003
      2.72846911e-002 1.05674304e-002 4.58186641e-002 -3.02126235e-003
      5.69546074e-002 5.69192581e-002 4.63153757e-002 2.16523302e-004
      -1.30359717e-002 2.48091370e-002 -2.56710351e-002 -7.33838379e-002
      -4.92988117e-002 5.31505793e-003 -1.89565811e-002 -6.87198900e-003
      1.11248437e-002 1.33786285e-002 6.10362440e-002 6.71985932e-003
      6.73644710e-003 -1.03104012e-002 3.98348570e-002 3.19912136e-002
      2.19363272e-002 2.05644243e-003 -3.17848176e-002 6.54952694e-003
      -2.06255857e-002 6.01471812e-002 -4.89165001e-002 1.66396312e-002
      2.01600268e-002 1.73028130e-002 3.25353891e-002 2.36916632e-004
      6.87322244e-002 1.37259196e-002 7.75674060e-002 -4.04440425e-002
      3.74579765e-002 2.62640249e-002 3.68195176e-002 -1.60126928e-002
      -3.92972715e-002 8.56833346e-003 -2.74890773e-002 -4.30485047e-003
      -2.08920185e-002 2.60833204e-002 7.17407558e-003 6.18775655e-003
      8.41415673e-003 -2.73268521e-002 7.19595980e-003 3.04384925e-003
      -3.74570466e-003 3.11397249e-003 3.98914032e-002 3.62916440e-002
      1.77023150e-002 -1.60205103e-002 -2.11853869e-002 4.06588018e-002
      -1.50314262e-002 4.82157655e-002 -4.03977185e-002 3.17601077e-002
      3.00750183e-003 -8.33823142e-005 -1.54468324e-002 -4.70043346e-003
      2.02805623e-002 -5.44311537e-004 6.74836412e-002 1.69074610e-002
      6.23681471e-002 4.38223630e-002 2.91270297e-002 1.36022526e-003
      -3.17199975e-002 -1.88482795e-002 -2.38357354e-002
      -1.26446318e-002 -2.16871873e-002 -7.13795330e-003 3.04632960e-003
      3.34985484e-003 3.58424783e-002 1.99725851e-002 3.45990434e-002
      1.98226813e-002 -2.56350767e-002 -3.11797485e-003 8.76064040e-003
      1.69598591e-002 5.17348461e-002 -2.02769821e-004 -5.98495035e-003
      -7.01179029e-003 -2.97649540e-002 5.79794645e-002 -4.31386940e-002
      8.39729235e-003 1.79110728e-002 4.29734848e-002 1.68951731e-002
      1.59219354e-002 4.38236073e-002 1.41069684e-002 7.35565871e-002
      -8.12204613e-004 2.95321513e-002 -1.57834925e-002 3.62418704e-002
      1.13296397e-002 -2.29841396e-002 2.56346595e-002 6.48559711e-004
      -1.25601199e-002 -3.32782231e-002 3.36594554e-003 7.02422811e-003
      1.67993475e-002 -2.53042695e-003 -2.24525239e-002 1.77037604e-002
      1.64631777e-003 -1.98995490e-002 -5.87043120e-003 3.16961519e-002
      1.70690864e-002 2.64337962e-003 -7.99144991e-003 -2.02890541e-002
      4.67831790e-002 5.33719268e-003 6.82585165e-002 -1.93189066e-002
      3.31439339e-002 -3.49951047e-003 1.61080696e-002 1.56068895e-002
      -1.51200807e-002 5.47974855e-002 2.66778283e-003 3.84447612e-002
      1.22580584e-002 6.73926622e-002 4.67405282e-002 2.26093102e-002
      1.52786374e-002 -2.95647737e-002 5.58262831e-003 -1.86023731e-002
      -3.67781371e-002 -2.79140156e-002 2.86053313e-004 1.02241496e-002
      2.25720815e-002 3.26294750e-002 -1.07699307e-002 1.92916803e-002
      4.69567161e-003 -5.55570833e-002 -5.40963821e-002 -1.12744123e-002
      -1.45645277e-003 3.43275033e-002 3.40859443e-002 -1.01334378e-002
      3.76655348e-002 9.04741464e-004 2.83662770e-002 -2.07434800e-002
      2.47749947e-002 3.61622572e-002 3.30809876e-002 2.19023544e-002
      -8.70635640e-003 3.09410132e-002 -4.63781459e-003 5.25185503e-002
      -1.75596885e-002 8.09657760e-003 2.08156928e-002 2.49805395e-002
      1.76817756e-002 -8.78337491e-003 1.76695287e-002 2.98839668e-003
      -4.14461680e-002 -2.19697449e-002 1.57810538e-003 1.92601094e-003
      2.88866516e-002 -1.27433194e-003 -2.35284176e-002 3.36510013e-003
      4.84339846e-003 -3.13804410e-002 -2.84924265e-003 -7.38936709e-003
      2.14062426e-002 3.52712348e-002 2.99729444e-002 -1.21841710e-002
      2.53257658e-002 1.86165255e-002 6.17041737e-002 -3.47870886e-002
      -8.79791100e-003 1.54861454e-002 6.65610805e-002 1.11921309e-002
      -2.77196374e-002 3.98157863e-003 -6.69311266e-004 6.56650290e-002
      -1.50620204e-003 1.66133989e-003 -2.10693470e-004 2.48670690e-002
      1.10520599e-002 -4.18474190e-002 -3.20515670e-002 -1.28626451e-002
      -3.33539397e-002 -2.63011586e-002 -4.12296169e-002
      -2.90655848e-002 6.38505165e-003 2.61136238e-002 -7.11720949e-003
      -2.58785486e-002 2.19550915e-002 -6.03855867e-003 -1.06382417e-002
      -2.48257257e-002 -3.51287313e-002 1.67104509e-002 1.97820067e-002
      -1.39023839e-002 -5.23093576e-003 -4.72649746e-003 3.98273841e-002
      -3.90634127e-002 -2.86392067e-002 -1.77996662e-002 2.10659243e-002
      4.03925404e-002 -6.41996926e-003 -1.58069972e-002 1.98132545e-002
      2.12848224e-002 -2.71165706e-002 -8.24262202e-003 8.21513031e-003
      3.45838815e-002 -5.91697684e-003 -2.21843813e-002 -1.00433202e-002
      -5.12533472e-004 -1.32549526e-002 -8.00688099e-003
      -5.15497439e-002 -5.54269925e-002 2.11025169e-003 5.84658235e-003
      2.96791717e-002 2.16084104e-002 7.10450765e-003 3.10864951e-002
      1.91945164e-003 -2.06901636e-002 1.39747122e-002 3.15205529e-002
      2.75078672e-003 -3.12709175e-002 4.22737002e-003 -7.40049500e-003
      3.26800533e-002 -1.84972938e-002 -5.57324998e-002 -4.85049412e-002
      -1.03726489e-002 4.58557950e-003 3.57215106e-002 3.88268270e-002
      -2.57297163e-003 6.52864054e-002 1.03506716e-002 -4.92457934e-002
      -1.16044665e-002 -8.73474311e-003 -1.58168282e-002 3.43807414e-002
      2.64203013e-003 2.38623051e-003 4.56540957e-002 -5.10523841e-003
      7.87912123e-003 5.17717339e-002 -6.16400130e-003 -4.95865336e-003
      1.95359234e-002 1.19540608e-003 -2.17604125e-003 1.69118289e-002
      2.51128115e-002 4.24652696e-002 6.97607845e-002 9.86441784e-003
      -3.26946825e-002 3.65809500e-002 2.76790131e-002 6.42589293e-003
      9.86389741e-002 -9.52722970e-003 -2.34432295e-002 -2.69306009e-003
      -4.84432392e-002 -4.65290919e-002 8.09867214e-003 -1.31097657e-003
      9.71355382e-003 9.21981856e-002 1.29623404e-002 6.19581016e-003
      2.86549460e-002 -1.62149761e-002</_></support_vectors>
  <decision_functions>
    <_>
      <sv_count>1</sv_count>
      <rho>-1.9680487213103361e+000</rho>
      <alpha>
        1.</alpha>
      <index>
        0</index></_></decision_functions></my_svm>
</opencv_storage>
