<?xml version="1.0"?>
<opencv_storage>
<my_svm type_id="opencv-ml-svm">
  <svm_type>C_SVC</svm_type>
  <kernel><type>LINEAR</type></kernel>
  <C>1.0000000000000000e-002</C>
  <term_criteria><epsilon>1.1920928955078125e-007</epsilon>
    <iterations>50000</iterations></term_criteria>
  <var_all>3780</var_all>
  <var_count>3780</var_count>
  <class_count>2</class_count>
  <class_labels type_id="opencv-matrix">
    <rows>1</rows>
    <cols>2</cols>
    <dt>i</dt>
    <data>
      -1 1</data></class_labels>
  <sv_total>1</sv_total>
  <support_vectors>
    <_>
      -5.91431223e-002 1.88920647e-002 3.01574674e-002 -7.67834857e-002
      -1.85270943e-002 -4.91089150e-002 1.29251052e-002 4.85203750e-002
      -5.71783669e-002 -1.18321583e-001 3.50779598e-003 1.18551068e-002
      -3.56610157e-002 1.10871559e-002 -1.14941657e-001 -1.61991306e-002
      2.14334819e-002 -9.36186239e-002 -2.67137364e-002 4.62141559e-002
      2.01955400e-002 -6.54457062e-002 -6.55364022e-002 1.21543240e-002
      5.25229238e-002 8.73746164e-003 -4.16139849e-002 -6.34304360e-002
      5.67252701e-003 3.99308875e-002 -4.90149856e-002 -3.97120006e-002
      -7.53381327e-002 1.78221744e-002 1.71650071e-002 -5.62094338e-002
      -5.74376099e-002 -5.91545040e-003 -2.90446188e-002
      -2.31166091e-002 2.17182916e-002 -6.21144697e-002 1.75853651e-002
      1.22063942e-002 -6.70752302e-002 -5.48783690e-002 -1.78601481e-002
      -2.11381130e-002 -6.86498955e-002 2.43476629e-002 -9.57582891e-003
      5.69493650e-003 -6.71532238e-003 -4.26158383e-002 -2.69176010e-002
      6.24266919e-004 1.27817467e-002 -7.59112695e-003 -4.38601710e-002
      -4.24536914e-002 3.66142429e-002 2.36741621e-002 -4.10362519e-002
      -6.53236285e-002 -6.38618250e-004 2.06104796e-002 -6.74825311e-002
      -6.23586662e-002 -5.50052291e-003 2.97932774e-002 2.35352237e-002
      -5.43288775e-002 -2.94151604e-002 -2.22034063e-002
      -1.34880841e-002 -7.37464204e-002 2.27607358e-002 -3.39075699e-002
      -6.68275217e-003 -2.03494933e-002 -1.16254706e-002
      -6.08353503e-002 -3.78755890e-002 -1.94925275e-002
      -6.37477562e-002 2.35050134e-002 -5.59696145e-002 -1.23460777e-002
      -3.91012914e-002 -4.64659892e-002 1.55360596e-002 -7.62478169e-003
      -4.59176674e-003 -4.58754748e-002 -7.48225451e-002
      -2.98673920e-002 -8.79515707e-003 -7.28464546e-003
      -7.70647917e-003 3.40472572e-002 1.81388818e-002 2.14782860e-002
      -5.41337766e-003 -2.82493252e-002 -2.73016654e-002
      -2.29408983e-002 -1.55303767e-002 -4.65767086e-003
      -2.04951428e-002 -5.66188619e-002 -2.18479112e-002
      -3.15578319e-002 6.11358918e-002 -3.39803356e-003 1.09762019e-002
      -1.12162298e-002 -1.46377599e-002 3.72165628e-002 -1.68258585e-002
      3.45478021e-002 -4.78109578e-003 9.54490751e-002 -7.80701358e-003
      4.11109924e-002 2.10212581e-002 1.73488371e-002 1.83553211e-002
      -1.74643043e-002 7.52308266e-003 2.86514536e-002 -6.77194074e-003
      5.74746681e-003 -3.27108838e-002 -1.92005504e-002 -1.89928673e-002
      -1.12198684e-002 2.41611395e-002 5.85016198e-002 4.67468798e-002
      1.86206156e-003 3.15643921e-002 2.57608350e-002 2.58698221e-002
      2.65530478e-002 5.06308265e-002 -3.83211263e-002 2.46663392e-002
      -4.49974090e-002 1.60290841e-002 -4.86130938e-002 1.56929288e-002
      -1.84284952e-002 1.94896944e-002 5.92545047e-002 3.11334655e-002
      7.38324225e-002 -1.34434586e-003 3.88086811e-002 8.84718541e-003
      5.55747263e-002 4.46110219e-003 1.09607233e-002 9.55664832e-003
      -3.06016766e-002 4.34638001e-002 2.00630035e-002 -9.17093754e-002
      -5.14408536e-002 -3.47182378e-002 -9.16604921e-002 7.04488065e-003
      1.79046039e-002 4.84324479e-003 9.54305008e-002 2.57042870e-002
      -8.25703964e-002 -2.44410690e-002 1.23769967e-002 -5.15214130e-002
      2.57617910e-003 3.79295461e-002 2.98908390e-002 6.50360882e-002
      -2.89299488e-002 2.37002689e-002 -1.97317284e-002 4.19439375e-002
      -3.50699537e-002 -1.32573433e-002 2.26313863e-002 1.97548624e-002
      7.89257213e-002 2.04766598e-002 9.74037200e-002 2.19791215e-002
      9.84200090e-002 1.47163169e-002 1.08169690e-002 -1.74747426e-002
      -2.12592538e-002 5.56377545e-002 -4.88458760e-002 -1.06718823e-001
      -5.86541556e-002 4.58582267e-002 -6.49345145e-002 -1.16828699e-002
      3.76430107e-004 -1.75463222e-003 6.10297620e-002 -5.88242151e-003
      -6.61269203e-002 3.74311960e-004 5.95923662e-002 -2.04746183e-002
      3.01448014e-002 -3.98316048e-002 -1.79922450e-002 3.90595160e-002
      -5.57515286e-002 3.80035564e-002 -2.14195736e-002 6.18083477e-002
      -1.88861545e-002 -4.05580737e-002 5.42162685e-003 9.50392149e-003
      6.32866398e-002 -1.35256648e-002 7.61342794e-002 -1.10960836e-002
      7.79742822e-002 -2.46430486e-002 -2.91860867e-002 -1.54231070e-002
      -1.56248156e-002 3.56362760e-003 -6.47069663e-002 -9.62691233e-002
      -2.04214510e-002 4.32123877e-002 -4.34767120e-002 -1.98530257e-002
      3.17613222e-002 2.17830185e-002 4.91674021e-002 9.20169242e-003
      -1.42273540e-002 -7.99595285e-003 1.00862943e-001 8.09984002e-003
      2.69277557e-003 1.79000350e-003 -3.15107703e-002 3.22325043e-002
      -4.29753289e-002 6.35890365e-002 -3.93573530e-002 4.21457849e-002
      -7.16925040e-002 -3.98894921e-002 3.39175127e-002 3.06248758e-002
      6.60850555e-002 4.07022163e-002 1.05233602e-001 -3.64227891e-002
      4.01349440e-002 -4.07794863e-002 2.48170197e-002 6.75172778e-004
      -3.78449857e-002 -1.10193966e-002 -4.66256179e-002
      -2.98569445e-002 -2.93081254e-002 3.11504137e-002 -5.88164143e-002
      -3.04610264e-002 1.00312997e-002 -1.49147483e-002 1.70612149e-002
      -9.65474825e-003 2.29107239e-003 3.44330305e-003 2.05066688e-002
      -3.18500586e-002 -1.81800034e-002 5.24902828e-002 4.08982970e-002
      2.59308219e-002 -4.02000621e-002 4.14082967e-002 -7.84075782e-002
      -1.60090090e-003 -3.10617182e-002 2.94211879e-002 1.02955680e-002
      2.45132037e-002 6.28390014e-002 -3.93063650e-002 5.29466756e-002
      -4.11594920e-002 1.37342624e-002 1.42017780e-002 1.28374835e-002
      -1.82870645e-002 -1.35596581e-002 1.84889175e-002 -2.26390474e-002
      -1.59960091e-002 -3.62853296e-002 9.18419287e-003 -4.93675731e-002
      -3.37763713e-003 1.29734213e-002 -1.31310765e-002 5.94870821e-002
      -3.12121585e-002 -5.81868168e-004 -1.41584675e-003 4.52610850e-002
      1.22079784e-002 2.90895253e-002 2.80626342e-002 2.57775858e-002
      7.53515065e-002 -3.85021493e-002 8.25641081e-002 -7.66297383e-003
      4.03771214e-002 -1.24928383e-002 -9.25176777e-003 -6.01202343e-003
      4.75128107e-002 1.15522400e-001 3.39922197e-002 1.12124957e-001
      3.71940876e-003 3.91205065e-002 -3.41449901e-002 1.00338866e-003
      1.36446245e-002 -4.02135355e-003 2.77992133e-002 -6.29899651e-002
      -2.40523531e-003 -6.97256671e-003 2.83566993e-002 -3.86605263e-002
      3.60560347e-003 1.05057405e-002 -5.58684254e-003 3.52073498e-002
      -8.83182860e-004 5.36578568e-003 2.39817444e-002 5.43271638e-002
      -3.66269276e-002 -1.70197152e-002 -6.15051622e-003
      -1.84988650e-003 6.44939914e-002 -2.75747329e-002 9.39508304e-002
      -2.08238922e-002 2.49302965e-002 -2.90224180e-002 -2.26882240e-003
      3.01960520e-002 1.33594852e-002 3.94463278e-002 -3.77959386e-002
      7.29350671e-002 -3.05194352e-002 2.53618527e-002 1.14900013e-002
      5.30457087e-002 6.19189208e-003 -2.21075322e-002 1.65984593e-002
      -3.69784534e-002 -1.37857907e-002 -1.24717122e-002 3.37225720e-002
      -1.11624356e-002 9.79853142e-003 1.07829748e-002 9.97081678e-003
      2.41652671e-002 -2.61157379e-002 -3.12155057e-002 -2.16965750e-002
      3.70897762e-002 5.33751724e-003 1.96596030e-002 2.73382068e-002
      5.92426816e-003 1.82685405e-002 -6.87134713e-002 1.27258031e-002
      -5.12350313e-002 1.55942552e-002 2.36446294e-003 2.95253806e-002
      3.82351577e-002 1.54151395e-002 7.11099431e-002 -3.47226625e-003
      8.70634019e-002 -1.43154664e-002 7.60218203e-002 3.02502196e-002
      3.28884311e-002 -7.52355205e-003 -2.85076821e-004 3.75255607e-002
      -3.80445942e-002 -5.93116954e-002 -5.56847304e-002
      -7.66009139e-003 5.29956445e-003 1.28176054e-002 5.88572919e-002
      1.97822563e-002 4.52821590e-002 1.22301215e-002 2.52782105e-004
      -1.08026825e-002 1.76392589e-002 5.07286526e-002 3.67077924e-002
      5.10132313e-002 -2.60025710e-002 -3.19187269e-002 -6.45782650e-002
      5.96856885e-002 -4.68792692e-002 2.52814330e-002 -3.28308064e-003
      2.78787762e-002 5.53835183e-002 7.84313586e-003 -2.10113861e-002
      -2.89666001e-002 7.92388096e-002 3.36710773e-002 4.27081948e-003
      -6.44649612e-003 1.90292187e-002 2.02950351e-002 -3.95366363e-002
      -4.95162830e-002 -7.29880631e-002 -3.40013131e-002
      -4.44148406e-002 -3.96617763e-002 -3.31039242e-002 3.07804961e-002
      1.82169005e-002 1.99122587e-003 -7.83068035e-003 -1.06993914e-002
      7.84511399e-003 4.52612946e-003 -3.60271446e-002 -2.63676457e-002
      8.91833115e-005 -2.14341041e-002 -5.93599640e-002 -9.38077495e-002
      -7.34334216e-002 6.55500963e-002 1.35322753e-002 5.09471865e-003
      -3.29161137e-002 -3.75436433e-002 -2.25708336e-002
      -4.85409284e-003 -3.28821056e-002 -4.79294807e-002 2.96458267e-002
      -3.87121253e-002 2.15698630e-002 3.89614142e-002 -1.65569484e-002
      -1.21884672e-002 -2.18040049e-002 -1.81152523e-002 2.78212060e-003
      2.60493555e-003 -1.87917128e-002 3.43014416e-003 -2.01840755e-002
      -4.57214303e-002 1.47174029e-002 2.43041348e-002 1.21605946e-002
      -1.63567495e-002 -9.14290361e-003 -3.18718329e-002 6.02215640e-002
      4.13599983e-002 7.46854534e-003 -7.50406608e-002 1.89975891e-002
      2.16891523e-002 -4.74679731e-002 9.38589796e-002 -7.59779438e-002
      4.47862642e-003 2.88193990e-002 -5.90095073e-002 -9.77069698e-003
      6.58040047e-002 2.84066107e-002 -2.71998700e-002 1.25050128e-001
      -7.81001151e-002 -2.61647664e-002 -1.51766371e-002
      -3.34085375e-002 -6.74639791e-002 4.43467498e-002 3.27955559e-002
      -4.59606946e-002 3.06500439e-002 -2.86033507e-002 4.62591052e-002
      3.88068818e-002 -5.14520071e-002 -1.74363367e-002 6.48520887e-002
      3.17341574e-002 -1.31901884e-002 4.39650156e-002 -2.26182006e-002
      2.62276698e-002 3.18816490e-002 -1.35800550e-002 -3.45243365e-002
      2.89126858e-002 9.87510849e-003 -4.93335016e-002 -9.99143347e-002
      -2.10882984e-002 3.70509550e-002 1.51609713e-002 8.17444827e-003
      -9.16473269e-002 -6.38872711e-003 -8.30202887e-004
      -3.56046557e-002 -6.14110976e-002 -5.00341766e-002
      -1.22903036e-002 -2.64187269e-002 -7.86446035e-002 1.17168471e-003
      5.03943302e-002 3.47940624e-002 -3.66185121e-002 -6.10088967e-002
      -3.23629119e-002 1.86872780e-002 4.28859331e-002 1.84244812e-002
      -8.31664801e-002 1.22761792e-002 5.15837409e-002 5.64160664e-003
      -2.69155130e-002 -1.07112508e-002 1.44939981e-002 1.57213036e-003
      -9.53459591e-002 -5.43501601e-002 1.20220454e-002 2.58007850e-002
      2.43686233e-002 -6.50827736e-002 -3.40323113e-002 2.88417600e-002
      -6.16040034e-003 -5.48979752e-002 -7.07808435e-002 7.72666978e-003
      2.37327721e-002 3.32604833e-002 -7.46885315e-002 -2.77907252e-002
      1.29780564e-002 -1.66811626e-002 -6.86328411e-002 -1.57657769e-002
      4.65405323e-002 2.37514023e-002 4.26987149e-002 -7.54590929e-002
      -5.46794608e-002 3.69090587e-002 6.27278239e-002 -2.58212034e-002
      -5.19926921e-002 3.92703675e-002 2.44245604e-002 6.03974722e-002
      -3.34849358e-002 -1.90724824e-002 7.47853518e-002 5.50704338e-002
      -2.50439420e-002 -3.09069343e-002 -3.69560486e-003 8.35716911e-003
      -1.20495372e-002 -1.00445509e-001 -3.64062749e-002
      -3.10555031e-003 -1.47395441e-002 -4.72353473e-002
      -9.28685255e-003 -5.85751515e-003 1.79279204e-002 2.48800647e-002
      -4.38319854e-002 -5.80554418e-002 -4.71668877e-002
      -6.58716261e-002 -5.08138277e-002 -2.31421739e-002 6.14718013e-002
      4.85140905e-002 5.34936190e-002 -8.01556259e-002 -2.27872226e-002
      3.83424722e-002 -1.20453062e-002 -4.29753885e-002 3.25105488e-002
      6.56249896e-002 2.61423402e-002 5.10759652e-003 -5.53517453e-002
      -1.20411152e-002 -2.13833489e-002 -6.55961707e-002
      -1.41773149e-002 3.04767443e-003 -1.34562012e-002 3.41420360e-002
      8.98965746e-002 -7.04221614e-003 6.17385935e-003 -3.44970934e-002
      -2.91062221e-002 -1.96482521e-002 -4.02828269e-002
      -5.36623374e-002 4.90729064e-002 9.90912989e-002 -5.04727708e-004
      1.47861931e-002 -1.81113341e-004 -5.38821856e-004 3.07416618e-002
      2.81263217e-002 -5.41370362e-002 -1.03052787e-001 -1.55097060e-002
      -2.50808820e-002 2.21001264e-002 -1.59792528e-002 -3.23550925e-002
      -2.30272417e-003 -4.79542278e-002 -1.69938862e-001
      -5.20135835e-002 2.61586532e-002 1.88328885e-002 6.52258145e-003
      5.15556370e-004 3.81093659e-002 5.17310388e-002 -8.17223117e-002
      -1.25707418e-001 4.07305174e-002 6.68737441e-002 -5.01863137e-002
      8.67398176e-003 -1.00610359e-002 -3.10110394e-002 1.71118286e-002
      -5.83728962e-002 -4.62310649e-002 1.33789971e-001 6.36232644e-002
      -6.11801296e-002 1.08948117e-002 5.47887944e-002 -1.12786116e-002
      3.67501229e-002 -9.79679599e-002 -1.89827979e-001 3.90567221e-002
      5.33821397e-002 -1.18958242e-002 -1.01902867e-002 -1.00756274e-003
      2.05379203e-002 7.03118220e-002 -5.56004792e-002 -7.00794011e-002
      1.25804290e-001 3.40682939e-002 -3.93522605e-002 -1.03760627e-003
      1.63426697e-002 3.18452306e-002 5.04612103e-002 -6.98846430e-002
      -8.23230743e-002 7.80583322e-002 7.14746118e-003 -7.47051314e-002
      -4.07045782e-002 2.12594848e-002 -5.70142604e-002 1.08528649e-002
      -3.66212353e-002 -5.59320599e-002 5.15742935e-002 2.34047547e-002
      -4.99571599e-002 3.34736239e-003 4.16235067e-002 -4.23408560e-002
      4.42396775e-002 -4.66117896e-002 -1.04625598e-001 3.37582640e-002
      -2.72472948e-002 -4.44408692e-002 -2.88844910e-002
      -1.79136395e-002 -1.99114867e-002 6.91945553e-002 -1.10967439e-002
      -8.30771178e-002 2.50654519e-002 -1.66044831e-002 -2.44815461e-002
      1.04278959e-002 9.87763982e-003 -6.14598300e-003 7.44121745e-002
      -1.52706187e-002 -3.46490405e-002 1.41500626e-002 -2.09004078e-002
      -5.76042607e-002 -2.18374208e-002 2.53517646e-003 -8.27068537e-002
      1.16968164e-002 3.88634391e-003 -1.46917477e-002 1.44701423e-002
      2.96991095e-002 1.23291006e-002 1.69235095e-002 2.87727844e-002
      -2.48699710e-002 1.05954902e-002 -3.62281017e-002 -1.23402283e-001
      6.88930415e-003 -2.57799216e-003 -3.18185538e-002 -4.38822657e-002
      -3.47561240e-002 -3.59781198e-002 3.02967113e-002 -4.74966988e-002
      -8.80907550e-002 -2.70491350e-003 2.61369012e-002 1.26773240e-002
      1.54901817e-002 3.09849973e-003 -9.52956732e-003 -3.10087260e-002
      -2.45577469e-002 -2.47458331e-002 -8.86056200e-003
      -2.16627363e-002 7.21929176e-003 2.91984137e-002 2.65833121e-002
      -4.16437872e-002 -3.52963619e-002 3.52445282e-002 -1.45542547e-002
      1.64969321e-002 -6.25082338e-003 6.94516301e-003 1.93090104e-002
      3.42457294e-002 -4.66539338e-003 1.97214577e-002 -9.65411663e-002
      -9.98944864e-002 -2.26492640e-002 -6.87086629e-003
      -4.60491469e-003 -1.64841898e-002 -1.00543005e-002
      -4.75897714e-002 -1.87370814e-002 -4.87693064e-002
      -1.27614336e-002 1.38740344e-002 -3.04391067e-002 -5.04897870e-002
      -7.93188810e-002 -1.94918048e-002 -4.84463833e-002
      -7.93309808e-002 2.43884102e-002 -2.35400554e-002 1.51693700e-002
      -3.03535219e-002 -4.33286242e-002 -2.70492677e-002 4.70279418e-002
      5.21208066e-003 4.42131534e-002 3.56963277e-002 -6.01289980e-003
      5.76039627e-002 1.39063271e-002 -9.91352182e-003 2.05413792e-002
      7.80398846e-002 5.44388369e-002 6.61381781e-002 -3.18644233e-002
      -1.42248888e-002 7.09623192e-003 -7.67202154e-002 -1.42380372e-001
      -1.17170699e-001 -4.89284806e-002 -6.69950098e-002
      -3.93923111e-002 -3.84033807e-002 3.53406072e-002 3.73930223e-002
      -5.71847782e-002 -1.22718938e-001 -9.86514762e-002 5.85056422e-003
      2.50908459e-004 -1.22667225e-002 2.58223061e-002 6.57439884e-003
      3.48641723e-002 1.01970637e-003 8.89570161e-004 2.47734804e-002
      4.53203991e-002 1.60628129e-002 3.38431187e-002 5.97066432e-002
      1.49800302e-002 4.13265079e-002 3.81343551e-002 1.27466386e-002
      1.24658430e-002 3.32056172e-002 -2.39735283e-003 5.25809154e-002
      -1.32764904e-002 -1.66615304e-002 3.38016860e-002 -6.80786418e-003
      -6.37976900e-002 -6.51261583e-002 5.36021590e-002 2.78974753e-002
      4.43721376e-002 1.76736265e-002 -2.44352743e-002 3.18798125e-002
      -1.01096127e-002 -5.49196005e-002 -2.75717396e-002 5.96787483e-002
      5.06940335e-002 2.60519870e-002 5.09126112e-002 -4.82713338e-003
      4.56261374e-002 2.25923378e-002 5.26323309e-003 -1.42877572e-003
      7.06644207e-002 2.68564224e-002 7.04563260e-002 4.07404564e-002
      3.14399377e-002 7.42643103e-002 3.07690147e-002 1.38704982e-002
      -1.55199715e-003 6.22980781e-002 4.68847342e-002 5.75216860e-002
      -5.27996942e-003 -3.41005512e-002 8.77571385e-003 -4.63492088e-002
      -1.05291285e-001 -8.15578327e-002 3.08759734e-002 1.51373995e-002
      3.76449153e-002 -2.42313724e-002 -4.76926938e-002 2.76755262e-002
      -3.73421423e-002 -1.17326379e-001 -6.71915188e-002 3.57384793e-002
      4.83759418e-002 -8.00448190e-003 2.18585804e-002 1.00623295e-002
      4.76347432e-002 2.31058300e-002 6.16612844e-003 -2.99843447e-003
      5.44232801e-002 8.85500573e-003 4.56181020e-002 6.22155629e-002
      1.82425755e-003 3.36715579e-002 6.18320480e-002 5.83728217e-002
      2.85035577e-002 4.90591116e-002 4.22671810e-002 8.33000168e-002
      -1.99164301e-002 -4.06704545e-002 2.98190396e-002 -2.92110443e-002
      -6.15755431e-002 -7.61060715e-002 2.86616199e-002 2.93269344e-002
      2.65453588e-002 1.86790060e-002 -2.95042060e-002 -1.15173506e-002
      1.12631428e-003 -4.99022231e-002 -6.06387481e-002 3.75402458e-002
      1.91390440e-002 2.72520054e-002 4.78672385e-002 -1.65886208e-002
      -1.71551406e-002 -2.65313759e-002 2.48642862e-002 2.22993754e-002
      5.00233099e-003 -1.23043116e-002 7.65991509e-002 5.23331575e-002
      5.10097407e-002 6.26760721e-002 5.32340482e-002 8.78174156e-002
      5.78901730e-002 3.02408878e-002 2.29978599e-002 4.84028757e-002
      9.51893919e-004 -8.14510584e-002 -7.04186708e-002 -8.84939209e-002
      -8.79628956e-002 -1.00040779e-001 -5.19568175e-002
      -8.46643671e-002 -1.34794470e-002 -1.50794834e-002
      -4.37111668e-002 -2.12362744e-002 -3.60797010e-002
      -2.85486635e-002 -8.40415135e-002 -6.48450479e-002
      -6.88999742e-002 4.26994916e-003 -1.65549219e-002 1.50863966e-002
      -9.82501358e-003 2.86843460e-002 1.71107519e-002 -5.41127883e-002
      -2.32885387e-002 -1.21567696e-002 -4.63680476e-002 8.93169362e-003
      4.79585864e-002 2.05773525e-002 3.76150236e-002 4.72801402e-002
      -1.25669586e-002 4.61433008e-002 2.10207291e-002 -3.04054674e-002
      -5.99735752e-002 -3.43888924e-002 -4.80592661e-002
      -4.59425934e-002 -6.91718012e-002 -1.38678595e-001
      -1.10030130e-001 -7.66297132e-002 -5.75930700e-002 3.09481528e-002
      6.03118986e-002 2.42719464e-002 4.14370000e-002 6.24836655e-003
      -4.98023592e-002 1.66090811e-003 2.62091160e-002 -4.93736332e-003
      -4.91002761e-002 4.63810451e-002 1.42227821e-002 -2.64897440e-002
      1.75161567e-002 6.36152108e-004 3.13012823e-002 8.00894853e-003
      -6.17371537e-002 2.02231128e-002 4.81836684e-002 3.30355093e-002
      -6.46041408e-002 8.74681305e-003 -1.67487971e-002 2.75886543e-002
      3.77506800e-002 9.54632461e-003 -3.73279974e-002 4.26651686e-002
      1.78494286e-002 -7.03075156e-003 2.17171330e-002 -3.00238375e-002
      2.07202844e-002 3.36706080e-002 -3.94733623e-002 3.43672112e-002
      4.46377508e-002 4.41244664e-003 -4.60774712e-002 -7.77317863e-003
      1.26962294e-003 1.71370562e-002 6.95073232e-002 5.92416413e-002
      -2.01470777e-002 2.05490552e-002 -1.69812776e-002 -9.96348932e-002
      -6.59096316e-002 -2.26277243e-002 1.43285375e-002 1.40842469e-002
      2.23270222e-003 -8.58113691e-002 2.77584717e-002 -2.97821052e-002
      -5.79978190e-002 -2.45435368e-002 -3.05885989e-002 4.25437205e-002
      8.66482500e-003 -1.09058701e-001 -4.08387221e-002 2.20850110e-002
      2.81134155e-002 -1.64199769e-002 -2.82001141e-002 1.22677749e-002
      4.17897552e-002 1.67380869e-002 -5.49566373e-002 -7.92698637e-002
      8.79756808e-002 -2.06371564e-002 -3.85240726e-002 8.65780935e-003
      -3.45166177e-002 5.66611663e-002 3.57596800e-002 -1.23352066e-001
      3.59096155e-002 6.01319596e-002 -3.35347131e-002 1.74358897e-002
      1.02566043e-002 5.25966622e-002 7.89902583e-002 1.30288079e-001
      4.44175266e-002 -1.06073923e-001 -8.52528960e-002 -7.80506060e-002
      -7.88835250e-003 -2.41599930e-003 3.66282999e-003 3.48366611e-002
      8.55421796e-002 6.18610159e-003 2.80526485e-002 -8.37854296e-003
      -2.39612520e-001 -1.81204841e-001 -6.90205917e-002
      -5.75539703e-003 6.04034699e-002 1.48778036e-001 6.85049891e-002
      -1.28458411e-001 -1.87153757e-001 -2.70339578e-001
      -1.68791741e-001 -6.92281574e-002 -1.24645652e-002 4.43714857e-003
      4.64726910e-002 7.93341140e-004 -7.57264718e-002 1.92255601e-002
      4.52358685e-002 7.78778344e-002 3.22197787e-002 2.54013278e-002
      -2.79001496e-003 -5.57112917e-002 -8.19764584e-002 3.67116965e-002
      9.33091715e-002 2.15226886e-004 -3.21556740e-002 1.42168226e-002
      2.09089648e-002 -5.85328601e-002 -1.44512698e-001 -5.99442907e-002
      -1.66778848e-001 -7.90267810e-002 -1.41677521e-002
      -3.64552950e-003 2.16449276e-002 2.06542723e-002 -4.06554379e-002
      -1.53869048e-001 -1.89030349e-001 -4.17814963e-002
      -1.07919229e-002 -6.86473548e-002 -1.30193844e-001
      -3.05785574e-002 -3.18604754e-003 -1.56454161e-001
      -2.18546748e-001 -1.50352776e-001 4.40467782e-002 -1.61007166e-001
      -2.96519309e-001 -1.91642359e-001 -1.95916500e-002 6.08453229e-002
      3.38181690e-003 -2.97776945e-002 7.15970695e-002 -2.10697968e-002
      -1.60760388e-001 -1.50500223e-001 -2.58669592e-002 7.31726289e-002
      9.21098813e-002 7.98036456e-002 1.03382342e-001 1.39526710e-001
      6.96374178e-002 -1.32601887e-001 -2.87919909e-001 -2.42940262e-001
      -4.01782393e-002 -2.02093571e-002 -1.08962201e-001
      -1.09003507e-001 2.82592466e-003 9.72394049e-002 1.86246764e-002
      -6.35574088e-002 1.68147329e-002 1.09576933e-001 7.33323172e-002
      2.73273531e-002 5.71547300e-002 1.19018383e-001 -9.72345695e-002
      -1.93112388e-001 -3.76971737e-002 3.92560288e-003 -1.78828500e-002
      -3.12234610e-002 -4.99952696e-002 -3.89668457e-002 3.86195928e-002
      -3.01692542e-002 -3.89894992e-002 8.20650980e-002 3.33393589e-002
      1.17352922e-002 -3.27883996e-002 -4.91798967e-002 -4.35816236e-002
      -4.96809185e-003 2.04334464e-002 3.51082464e-003 6.23115189e-002
      7.74124861e-002 4.72517051e-002 -2.18462776e-002 -3.45131829e-002
      -3.68268453e-002 5.72883673e-002 6.80295005e-002 3.99460606e-002
      9.27966610e-002 6.88131377e-002 6.80224076e-002 1.11682313e-002
      5.32966014e-003 -4.12775315e-002 -7.11506989e-004 -4.46016975e-002
      -9.91616622e-002 6.98093046e-003 2.43342225e-003 1.73681453e-002
      -2.75445841e-002 -3.75876687e-002 -7.85018578e-002
      -2.03905944e-002 -8.29838663e-002 -1.65398225e-001
      -3.28465439e-002 -1.92122292e-002 7.58603821e-003 -1.77675206e-002
      -8.45738873e-003 -7.64504075e-002 8.81940685e-003 2.16139853e-002
      -3.26881073e-002 3.37857157e-002 2.95046754e-002 7.87332058e-002
      3.01659107e-002 3.81630547e-002 -4.55062874e-002 2.03281250e-002
      2.16847938e-002 -4.72025350e-002 2.28343196e-002 8.73384550e-002
      7.26708025e-002 3.81060019e-002 4.50936519e-002 6.90007163e-003
      6.24796823e-002 -8.46063048e-002 -2.31465951e-001 -5.95584735e-002
      -3.03422511e-002 1.68617684e-002 -5.03874384e-002 -2.56847925e-002
      -7.29004070e-002 -1.96814854e-002 -1.18402451e-001
      -1.70017958e-001 -3.68955545e-003 5.89203201e-002 4.39606830e-002
      7.94658158e-003 -2.64496580e-002 -6.20837770e-002 -3.07502430e-002
      4.55175946e-003 -8.79727304e-002 3.13311443e-002 3.56590003e-002
      4.34803925e-002 -1.36434473e-002 1.10318479e-005 9.84064583e-003
      6.76041469e-002 -1.00259054e-002 -3.48283835e-002 6.97661787e-002
      8.23257193e-002 4.21300307e-002 4.53778431e-002 5.98225631e-002
      4.26523425e-002 4.12122346e-002 -1.27748832e-001 -1.61165401e-001
      -3.17203328e-002 2.59651635e-002 -1.70269608e-002 -4.50942107e-002
      -1.98638514e-002 -1.10594220e-001 -7.87022784e-002
      -1.17721207e-001 -8.89728218e-002 -1.26023423e-002 4.58497647e-003
      -3.80623154e-002 -7.25456998e-002 -6.28701225e-002
      -1.54816374e-001 -1.34067819e-001 1.05511500e-002 -3.53954211e-002
      5.72585613e-002 5.82596585e-002 3.38789746e-002 -2.79596988e-002
      2.27349680e-002 1.51895843e-002 7.71438181e-002 6.35176972e-002
      3.99051420e-002 6.40880689e-002 7.02123046e-002 2.34674923e-002
      -1.41180027e-002 2.21990943e-002 -6.10549608e-003 3.13627198e-002
      -7.97504932e-002 -3.25683616e-002 4.89703193e-002 2.88452525e-002
      -2.37423070e-002 -6.34502172e-002 -3.23297977e-002
      -1.74859360e-001 -1.52772337e-001 -6.84394538e-002
      -1.87197663e-002 7.48815760e-002 1.49385678e-002 -5.39633818e-002
      -6.00510649e-002 -1.41798006e-002 -1.46010563e-001
      -8.59085321e-002 8.78499299e-002 6.41157804e-003 5.57769276e-002
      1.02571219e-001 6.61416575e-002 6.48339698e-003 2.79600136e-002
      -4.71038036e-002 -2.52876393e-002 -6.45728828e-003
      -4.17641886e-002 6.93682358e-002 6.08113445e-002 2.75243763e-002
      4.07636017e-002 9.46666673e-002 -5.87512888e-002 -3.52319553e-002
      -4.20463830e-002 -3.33240032e-002 4.16483842e-002 2.95812618e-002
      -4.48655989e-003 -8.41650355e-004 7.71179274e-002 -4.84382138e-002
      -4.11039144e-002 -6.15416728e-002 -5.85090928e-002 4.01696414e-002
      5.66680692e-002 3.20553258e-002 5.38041294e-002 1.02369659e-001
      -1.76827342e-003 -2.23426875e-002 -1.21631213e-002
      -6.67782500e-002 4.82922569e-002 4.07452993e-002 5.33461049e-002
      6.06477298e-002 1.10466957e-001 -4.75194715e-002 6.80398615e-003
      -5.97588792e-002 -1.13684177e-001 1.21627040e-002 6.96771368e-002
      7.12010339e-002 6.35491237e-002 6.16036654e-002 -4.16241139e-002
      -4.20345254e-002 5.32761216e-003 -6.86791539e-002 4.74904627e-002
      4.64526489e-002 -1.31455408e-002 1.72177721e-002 8.35996196e-002
      -2.30823681e-002 4.66766842e-002 8.82309978e-004 -4.36648689e-002
      4.91656773e-002 -2.37046945e-004 -3.35584655e-002 5.93228778e-003
      6.01447783e-002 -1.31627088e-002 2.87651480e-003 1.98202636e-002
      -1.23595536e-001 3.78744863e-002 6.09556623e-002 3.72720547e-002
      4.21075746e-002 5.10573201e-002 -4.25978601e-002 2.57782862e-002
      -5.85496752e-003 -6.14044704e-002 6.94422424e-002 2.02263072e-002
      1.62463393e-002 4.29820642e-002 3.43997516e-002 -4.45951484e-002
      -5.01864329e-002 4.39088941e-002 1.05571374e-002 7.52398744e-002
      4.06001769e-002 5.50893024e-002 3.23397629e-002 8.19163993e-002
      1.73820034e-002 3.12517472e-002 3.08635179e-002 1.61359680e-003
      7.26110339e-002 7.00409934e-002 4.05491367e-002 3.75680402e-002
      8.55847672e-002 2.00950727e-002 -1.30812137e-003 1.15249185e-002
      4.34585987e-003 9.18772146e-002 5.71798198e-002 5.93484528e-002
      6.79594427e-002 8.59037489e-002 -6.00449592e-002 -5.17073795e-002
      -7.13203549e-002 -9.86712202e-002 9.70669184e-003 1.06593575e-002
      1.71184633e-002 4.47312742e-002 5.28519005e-002 -1.10256709e-001
      -9.01042521e-002 2.43343730e-002 -4.27118763e-002 1.25323562e-002
      2.80867126e-002 4.13815081e-002 2.72272285e-002 2.83135064e-002
      -5.28339250e-003 1.78030822e-002 3.89950052e-002 2.95109507e-002
      4.11852747e-002 8.02023038e-002 6.14266060e-002 6.93825930e-002
      4.67815287e-002 2.63576955e-002 6.49850741e-002 -8.97899643e-002
      -1.43796340e-001 -1.02030583e-001 -1.03795573e-001
      -1.61218327e-002 1.54059604e-002 -4.38982475e-004 -8.70084390e-002
      -7.04367235e-002 -9.34338570e-002 -9.15931314e-002
      -8.56746584e-002 -3.94050516e-002 -5.88677786e-002
      -1.79987140e-002 -1.15546137e-002 -8.52530599e-002
      -5.79542778e-002 -2.74987519e-002 4.67135897e-003 -1.22587997e-002
      -2.11755373e-002 -7.14017451e-002 -1.31913647e-001
      -6.91054314e-002 -3.65302786e-002 -1.27895949e-002 6.35497421e-002
      9.82414708e-002 8.21887553e-002 1.32720351e-001 7.71686211e-002
      -3.86063056e-003 3.76268774e-002 7.51690716e-002 4.58743982e-002
      -1.27159223e-001 -1.21709347e-001 -7.31257573e-002
      -9.75212231e-002 -1.99667618e-001 -2.12981999e-001
      -1.57155752e-001 -1.21256411e-001 -1.21341936e-001 3.05068940e-002
      8.40476006e-002 6.47104681e-002 8.56706202e-002 1.53514848e-003
      -2.76510809e-002 2.24705320e-002 9.32903886e-002 1.52593898e-002
      -4.74983007e-002 -6.57843286e-003 -2.51656808e-002
      -2.90002655e-002 3.71480547e-002 -5.77729084e-002 -3.12046590e-003
      9.21897776e-003 -4.84241210e-002 3.74794975e-002 2.68877167e-002
      -4.34834734e-002 -8.62249210e-002 -2.20096947e-004
      -5.22838458e-002 -5.13997744e-004 3.92024629e-002 7.56845027e-002
      -5.17463796e-002 2.79734321e-002 -1.40610738e-002 -2.71407943e-002
      5.25943227e-002 -3.29256319e-002 -5.83339147e-002 6.67756610e-003
      -6.81837350e-002 1.45081421e-002 6.93638176e-002 -5.41936792e-003
      -7.35265240e-002 3.96215729e-002 -3.17758173e-002 -1.26622794e-002
      4.32707593e-002 4.63060588e-002 -1.02478005e-001 1.13403760e-002
      4.20953147e-002 4.09953408e-002 -1.47787845e-002 5.47227114e-002
      6.85039312e-002 3.57383825e-002 -8.47275108e-002 -1.37990847e-001
      6.65171668e-002 2.41310541e-002 -5.58581389e-002 -5.45093603e-002
      -4.34110761e-002 1.73557457e-002 2.25359742e-002 -1.39432594e-001
      -1.20145641e-001 1.05202105e-003 6.58651516e-002 1.10975374e-002
      -2.13084538e-002 5.60792089e-002 9.32529792e-002 4.22798991e-002
      -1.00572392e-001 -1.52977899e-001 2.60528680e-002 3.59865576e-002
      -5.19445203e-002 -1.03251219e-001 -7.59604052e-002 1.11077987e-002
      6.77531436e-002 -1.30289093e-001 1.15112618e-001 6.78131655e-002
      -1.34348199e-001 -1.54628918e-001 -1.03500172e-001
      -7.40692019e-002 -2.42156871e-002 9.70012099e-002 1.14080593e-001
      2.88653933e-002 -1.01347268e-001 -1.75639242e-001 -1.36885971e-001
      -7.28594661e-002 -7.68285990e-002 -5.50062805e-002 1.34927630e-002
      6.50934801e-002 1.31591082e-001 1.18860610e-001 -9.32632387e-003
      -6.54057413e-002 -1.31672278e-001 -1.78073838e-001
      -1.61990643e-001 3.44800055e-002 1.07479788e-001 7.23217502e-002
      6.71410710e-002 -1.76591333e-002 -4.36383411e-002 -8.96057263e-002
      -1.29481778e-001 -1.81665152e-001 -1.26542434e-001 2.33726413e-003
      -1.16341539e-001 -8.55388269e-002 -2.33318247e-002
      -1.64894704e-002 5.29618263e-002 1.85596291e-002 -1.83616448e-002
      -1.09122619e-001 -1.28955543e-001 -4.65598181e-002
      -2.21300889e-002 -5.32580279e-002 -5.25993183e-002 2.40422077e-002
      -1.86329638e-003 -1.02455221e-001 -1.14948161e-001
      -9.02543664e-002 -1.27454922e-001 -1.05441600e-001
      -1.18059749e-002 3.87586914e-002 5.19882292e-002 1.31950981e-003
      -4.30928245e-002 -9.76071060e-002 -1.01878457e-001
      -1.04217000e-001 -1.67942688e-001 -1.28686517e-001 4.55374568e-004
      2.00625267e-002 -2.75978819e-002 -6.80466145e-002 6.11961354e-004
      -2.95382645e-002 6.14931770e-002 -6.82742894e-002 -1.87214091e-001
      -1.66199788e-001 -4.27684858e-002 -1.02644920e-001
      -1.58581004e-001 -7.56834671e-002 5.53351315e-003 1.36704922e-001
      9.11315531e-002 1.26713822e-002 6.16242178e-002 5.81047386e-002
      3.20806876e-002 -3.47646363e-002 8.44896119e-003 1.08104281e-001
      -2.02868646e-003 -1.11149505e-001 -1.72455862e-001
      -9.41901878e-002 -6.27619103e-002 -1.84133366e-001
      -1.89021140e-001 -5.08575290e-002 5.39950319e-002 1.22318886e-001
      4.92872521e-002 -2.00807098e-002 4.56613302e-002 4.83599640e-002
      4.06823494e-002 1.31215239e-002 1.00250565e-001 1.62248880e-001
      5.53854480e-002 -1.23612536e-002 7.96633307e-003 3.53696868e-002
      3.07262819e-002 -5.07478192e-002 -4.56404202e-002 -6.40501603e-002
      5.37085049e-002 6.79312646e-002 5.96813904e-003 5.63496538e-002
      5.03898002e-002 8.33938345e-002 5.18200360e-002 3.09439972e-002
      -2.30761664e-003 6.01273514e-002 4.84793484e-002 -3.02952565e-002
      -3.95418815e-002 -6.71871519e-003 5.86375333e-002 2.68263314e-002
      2.09517647e-002 5.32318279e-003 6.99753314e-002 2.59047151e-002
      1.36112291e-002 2.72756349e-002 5.19264042e-002 1.22101344e-001
      8.32416564e-002 1.02190569e-001 3.82463112e-002 7.00351149e-002
      3.29714455e-002 -2.92668398e-002 -1.82284173e-002 -5.24682458e-003
      2.37418469e-002 -5.03744604e-003 4.77243541e-003 -4.69937027e-002
      -1.80536173e-002 6.25972748e-002 5.35763614e-003 1.12342061e-002
      3.23048681e-002 5.35224006e-002 3.37017141e-002 3.32372412e-002
      1.48410005e-002 8.14302489e-002 -1.16307205e-002 -1.90058462e-002
      9.47411917e-003 8.87216348e-003 4.95100357e-002 1.73888300e-002
      9.12468415e-003 -3.20138484e-002 5.03205582e-002 7.91409761e-002
      3.92138511e-002 2.78410111e-002 5.24330474e-002 6.85833022e-002
      5.79859950e-002 3.39483470e-002 -1.79990120e-002 6.34643510e-002
      7.07748458e-002 -3.49231027e-002 -1.05777625e-002 -1.28787048e-002
      -1.71624012e-002 -5.14519103e-002 -2.54833959e-002 7.86335673e-003
      7.69356266e-002 4.41331342e-002 3.09986454e-002 3.47702876e-002
      5.62549176e-005 -5.13673425e-002 -4.41135876e-002 -1.89316012e-002
      2.08326802e-002 5.43779992e-002 6.76184520e-002 2.52100304e-002
      -2.38279961e-002 -3.14396881e-002 -6.59588119e-003 6.50484068e-003
      1.39125697e-002 -4.25415933e-002 6.65124357e-002 6.21408075e-002
      5.54465204e-002 7.48632534e-004 -5.94287142e-002 -6.09949566e-002
      -1.95882339e-002 3.80207598e-002 1.15007479e-002 4.86247875e-002
      5.56523018e-002 -1.32585103e-002 3.29495105e-003 -6.51963130e-002
      -8.05195123e-002 -8.93062651e-002 -1.00863306e-002
      -1.61693040e-002 7.84202591e-002 7.45315179e-002 1.41952718e-002
      3.16957161e-002 -8.22696462e-003 -6.62229955e-002 -3.35355140e-002
      -6.06081914e-003 -2.11502071e-002 9.68950614e-002 8.83006230e-002
      -1.12202559e-002 -3.95624340e-002 -1.22442372e-001
      -1.00937933e-001 -6.67113587e-002 8.23886320e-003 -1.53758964e-002
      7.02827573e-002 8.35469365e-002 -2.13719793e-002 2.26116553e-003
      -3.37788537e-002 -7.94914737e-002 -8.85761995e-003 2.71674804e-002
      6.71657547e-003 7.11464509e-002 1.13446355e-001 -7.38799293e-003
      2.97277607e-002 3.97916920e-002 1.33790262e-002 2.26865499e-003
      4.67622653e-002 -3.14150676e-002 5.78578524e-002 -1.61132663e-002
      -1.01695322e-001 2.59458870e-002 2.51815226e-002 1.51926475e-002
      2.00150479e-002 5.05998321e-002 -6.55513853e-002 -4.07478539e-003
      4.64195274e-002 -2.03452129e-002 4.32229713e-002 1.31085212e-003
      -2.31861100e-002 3.44279185e-002 5.33244871e-002 -3.04537676e-002
      1.16523296e-001 1.03935238e-003 -3.19863781e-002 5.87865487e-002
      7.48480950e-003 -2.81888247e-002 3.25327436e-003 5.38748354e-002
      -7.41832182e-002 -5.28317206e-002 1.21545186e-002 -9.68577713e-002
      4.24385592e-002 4.27812189e-002 4.00755480e-002 5.25161065e-002
      7.80786797e-002 -3.76710296e-002 4.17176224e-002 -3.54273096e-002
      -1.67615011e-001 -3.53527442e-002 4.11203764e-002 5.63333519e-002
      2.28108671e-002 1.46987867e-002 -1.04685172e-001 -5.50751165e-002
      3.32314745e-002 -7.65049038e-003 8.88722017e-002 6.25405759e-002
      4.15970273e-002 3.98120470e-002 5.07526696e-002 -5.86428009e-002
      1.36147849e-002 -3.32280435e-002 -7.94023722e-002 5.20099588e-002
      6.54732212e-002 4.77106385e-002 4.77745868e-002 -2.38186289e-002
      -1.21409535e-001 -4.91483361e-002 3.73044312e-002 -1.17513247e-001
      3.62177081e-002 4.35159132e-002 2.27356814e-002 4.29195464e-002
      4.37942781e-002 -6.58168271e-002 3.00935991e-002 1.26595739e-002
      -5.32684512e-002 7.09129348e-002 3.26256827e-002 5.07914014e-002
      7.48561919e-002 6.96847886e-002 -3.94501202e-002 1.25260111e-002
      4.05101404e-002 -2.81276628e-002 5.38927205e-002 3.95516902e-002
      -8.79393052e-003 5.18095158e-002 3.04673631e-002 -1.34423822e-001
      2.37372611e-002 -2.36535183e-004 -3.21984515e-002 5.68940304e-002
      3.12527455e-002 5.63183520e-003 5.97237982e-002 9.69259366e-002
      -4.87141535e-002 1.88812744e-002 2.00804267e-002 -1.18760020e-002
      5.38841784e-002 5.63106164e-002 6.69785962e-002 7.93712139e-002
      1.00694597e-001 3.04352753e-002 -1.39465276e-002 -5.24434075e-002
      -7.73277581e-002 1.37125580e-002 4.66478691e-002 5.32798506e-002
      5.17007783e-002 2.73463074e-002 -6.93931207e-002 -7.15656132e-002
      -2.77423710e-002 5.96164912e-003 1.04959540e-001 6.90220445e-002
      4.75995727e-002 5.90326861e-002 8.21667761e-002 4.59788973e-003
      3.51086184e-002 -8.21169764e-002 -5.80485612e-002 5.07396683e-002
      5.33220470e-002 3.83064188e-002 3.93989570e-002 2.90633664e-002
      -6.34500831e-002 -6.69447109e-002 -2.28631031e-002
      -6.33452162e-002 -2.30108593e-002 -4.26456481e-002 3.88056524e-002
      2.11842079e-002 3.07920799e-002 -4.84575815e-002 -4.01734300e-002
      -3.77315804e-002 -5.63190766e-002 1.62902009e-002 1.88670517e-003
      -3.52699496e-002 2.11650808e-003 2.45230161e-002 -2.89318655e-002
      -4.79535982e-002 -3.04181036e-002 -5.56775667e-002 2.75961254e-002
      -3.05354060e-003 3.65132987e-002 -1.92887653e-002 -8.79617687e-003
      -6.59399703e-002 -4.18881327e-002 -4.41020429e-002
      -3.32876816e-002 1.98577493e-002 4.81562456e-003 -1.37824966e-002
      2.76316702e-002 1.37663668e-003 -6.16298541e-002 -4.18767519e-002
      -6.33646026e-002 -7.16256797e-002 -1.87930875e-002
      -1.34124666e-001 -2.46304497e-001 -2.18553171e-001
      -6.13970384e-002 -5.19532748e-002 -6.79823086e-002 6.70299232e-002
      1.07399389e-001 1.02814950e-001 9.84240547e-002 -2.89225653e-002
      5.18605225e-002 9.42501947e-002 1.32890150e-001 6.16980046e-002
      -6.92793056e-002 -5.72512560e-002 -6.38885647e-002
      -2.00249985e-001 -2.10329711e-001 -9.93975103e-002
      -4.29091193e-002 -6.97700605e-002 -6.53097779e-002 7.98905343e-002
      1.12821415e-001 8.87570307e-002 3.42327580e-002 -2.82306541e-002
      1.08970590e-001 1.46892220e-001 1.51394323e-001 8.13298970e-002
      -4.92731258e-002 4.51430455e-002 -5.40856412e-003 -5.37183993e-002
      9.28900950e-003 -3.80011350e-002 -3.11921742e-002 5.20004854e-002
      -4.09390293e-002 -2.33684108e-003 7.77831078e-002 1.24679459e-002
      -2.82585844e-002 8.85728002e-003 -3.63096781e-002 -1.30555499e-002
      4.26112674e-002 2.52781585e-002 -5.42550161e-002 6.21114969e-002
      -3.32777463e-002 -6.87324181e-002 6.72827882e-005 -4.48258705e-002
      -4.94385650e-003 7.61222914e-002 -3.39312106e-002 2.54408829e-002
      6.45077601e-002 -1.84535291e-002 -2.49554347e-002 1.70768742e-002
      -1.40293473e-002 1.30078979e-002 9.87025201e-002 3.13913561e-002
      -7.57471472e-002 -5.73592726e-004 3.78342010e-002 -2.58617345e-002
      -2.38322858e-002 -1.72521025e-002 4.99220826e-002 3.56646031e-002
      -5.34855463e-002 -1.26735300e-001 2.38798093e-002 3.68286557e-002
      -6.04556240e-002 -2.33677160e-002 -6.81533366e-002 1.29577918e-002
      9.91217718e-002 -7.98614547e-002 -3.66732106e-002 8.59634019e-003
      -1.86771550e-003 -6.33822978e-002 -4.90892567e-002
      -1.20916553e-001 -6.94511225e-003 6.05907757e-003 -6.44731075e-002
      -9.84671190e-002 1.98885449e-003 1.78624112e-002 -5.82081936e-002
      -1.60655007e-002 -7.87699446e-002 -1.86479427e-002 6.59396052e-002
      -8.04286748e-002 1.76750701e-002 8.66846591e-002 4.24367376e-002
      5.09376265e-003 -8.50934535e-002 -1.62818804e-001 -1.94300935e-001
      -2.43923273e-002 1.69262942e-002 -4.62420024e-002 1.37698660e-002
      2.64651347e-002 2.18671151e-002 -5.12249358e-002 -1.48807347e-001
      -2.41552740e-001 -2.36152679e-001 -1.40611574e-001 2.41080318e-002
      8.50896239e-002 9.37015638e-002 4.08113934e-002 -1.59197655e-002
      1.51056601e-002 -2.21345369e-002 8.07840675e-002 1.30861606e-002
      -4.21558134e-002 4.24959362e-002 5.45838885e-002 1.30636077e-002
      -2.92333700e-002 -3.05339079e-002 -5.11621162e-002
      -7.06205070e-002 -9.11017954e-002 -2.11315915e-001
      -1.65066674e-001 -1.32735260e-002 6.28935099e-002 6.95995316e-002
      3.12557146e-002 2.97834259e-003 -7.25161284e-002 -1.44428894e-001
      -1.66519523e-001 -2.34266654e-001 -1.39399692e-001 3.27446945e-002
      2.73977444e-002 -7.53397569e-002 -7.52327666e-002 2.19393782e-002
      -2.19370667e-002 -1.17534354e-001 -6.80672005e-002 2.11371742e-002
      4.29597870e-002 2.75258664e-002 4.46557477e-002 5.26995398e-002
      2.75893733e-002 -6.90454021e-002 -5.32599315e-002 -1.12182572e-001
      -4.78740595e-002 3.09625678e-002 -6.32287934e-004 -4.00138013e-002
      -2.52124446e-004 9.48104188e-002 2.67251860e-002 1.82633977e-002
      -1.17413126e-001 -9.96925160e-002 -4.17049648e-003
      -4.34552226e-003 -2.31361762e-001 -2.70176798e-001
      -1.08939461e-001 8.16837028e-002 1.41729206e-001 3.23376283e-002
      1.20525490e-002 9.07217413e-002 1.08110286e-001 -5.17349131e-003
      -8.70275870e-002 -2.41553970e-003 1.18648402e-001 6.83455318e-002
      -2.38881260e-002 -1.49150016e-002 4.64972518e-002 -4.14057896e-002
      -1.95615709e-001 -2.87555337e-001 -1.65344417e-001 4.28008139e-002
      1.24351941e-001 9.02293101e-002 8.49891827e-002 1.13786951e-001
      5.33911809e-002 -2.29863990e-002 -1.83107719e-001 -1.57942504e-001
      -2.03474797e-002 7.17891529e-002 -4.73002419e-002 -5.19320369e-002
      -1.82766896e-002 4.84149568e-002 5.91618791e-002 3.91871557e-002
      -4.08618338e-002 3.88700143e-002 -9.31152515e-003 -4.97232154e-002
      2.15648562e-002 3.64401601e-002 9.76046249e-002 7.45892450e-002
      9.83766019e-002 -1.55783782e-003 6.07275888e-002 1.05353510e-002
      -1.63125545e-002 -3.89862508e-002 -1.38696879e-002
      -4.43059839e-002 1.10056540e-002 -5.00476137e-002 -2.14445665e-001
      -1.08444199e-001 -5.07254638e-002 -4.21386249e-002
      -2.60817148e-002 -9.69809480e-003 1.66027304e-002 5.28832003e-002
      9.13300961e-002 -6.49587288e-002 -6.41098768e-002 -1.36549305e-002
      -4.19473983e-002 4.36487198e-002 4.53164577e-002 8.75677764e-002
      4.95085083e-002 5.77905551e-002 -5.49431518e-002 1.88793261e-002
      5.07923588e-002 -1.44127766e-002 3.85854021e-002 5.41797094e-002
      9.12788063e-002 8.65778551e-002 3.16859931e-002 -6.38436377e-002
      1.81475841e-002 -3.04752346e-002 -9.09810588e-002 -5.30243963e-002
      -1.78357456e-002 2.18196064e-002 3.35046649e-002 1.27709284e-002
      -1.22442864e-001 -2.65000444e-002 3.03012412e-003 -7.45842531e-002
      -4.16794568e-002 -1.66289378e-002 3.95944715e-003 2.45277537e-003
      -3.91385257e-002 -1.63943991e-001 -5.64664938e-002 4.96718138e-002
      -3.13487947e-002 1.74497976e-003 6.15448877e-003 9.32364240e-002
      4.97747920e-002 4.61326465e-002 -8.58155116e-002 -2.03258265e-002
      4.47326303e-002 2.30544508e-002 4.85394783e-002 4.04760428e-002
      8.88534188e-002 7.26029426e-002 7.12255910e-002 -4.53615040e-002
      -6.59380294e-003 -3.47117633e-002 -6.94135725e-002
      -2.73598712e-002 -2.64635663e-002 3.64416875e-002 -1.02324383e-002
      -6.76795244e-002 -1.97523192e-001 -8.14604834e-002
      -4.63174731e-002 -4.39851657e-002 -2.84015927e-002
      -4.26675240e-003 5.18884370e-003 7.95479566e-002 -3.02723120e-003
      -1.16028391e-001 -1.17999271e-001 8.00252855e-002 2.20751856e-003
      3.05028223e-002 -1.76634118e-002 6.54701516e-002 5.98144196e-002
      5.13173044e-002 -6.83476478e-002 1.61808003e-002 1.16174007e-002
      -1.52608547e-002 5.84706664e-002 1.54450191e-002 2.74316128e-002
      7.27888644e-002 6.58927858e-002 -2.10232753e-002 5.22935688e-002
      -6.77801818e-002 -9.23571736e-002 -3.32169719e-002
      -3.71352248e-002 -7.28091085e-003 5.83254322e-002 -9.44982655e-003
      -1.06696509e-001 -1.51712269e-001 -1.35902241e-001
      -1.14272423e-001 -1.63218416e-002 -4.07824218e-002
      -1.76965967e-002 3.14095654e-002 1.45455403e-002 -9.27917510e-002
      -1.37492210e-001 6.64108025e-004 -4.23125289e-002 6.21990152e-002
      1.87406465e-002 5.18852882e-002 7.84987360e-002 7.15826601e-002
      -2.21899338e-002 8.31494629e-002 -3.37327085e-002 -2.95334458e-002
      1.05545253e-001 1.15432050e-002 7.44614424e-003 5.96518368e-002
      8.41951296e-002 -1.34539511e-002 -1.30783170e-002 -1.30602300e-001
      -1.39295191e-001 4.31311782e-003 -5.16979061e-002 -4.18811962e-002
      2.26928722e-002 5.68799675e-002 -3.84019241e-002 -6.53997362e-002
      -6.73127845e-002 -8.96019936e-002 3.52441333e-002 -5.19072674e-002
      -7.35930204e-002 2.17344388e-002 6.53575137e-002 3.02705402e-003
      -6.86796531e-002 -2.37873029e-002 -5.10405079e-002 9.63722169e-002
      4.10735309e-002 3.15501317e-002 5.39051518e-002 7.33528510e-002
      -2.29117330e-002 -1.12622594e-002 -4.86810468e-002
      -1.41949290e-002 8.40760544e-002 8.66824538e-002 7.53601640e-002
      7.38778040e-002 2.40447260e-002 -1.13498464e-001 -7.49684423e-002
      -4.49578129e-002 2.44224956e-003 9.43695754e-002 -6.42025657e-003
      -3.26326489e-002 3.94516252e-002 4.51805666e-002 -2.54411027e-002
      -5.26694581e-002 -3.54627408e-002 2.60178018e-002 9.23069641e-002
      4.43634540e-002 3.86948697e-003 6.59627393e-002 4.83480394e-002
      -7.80983791e-002 -7.04867914e-002 3.67846601e-002 -1.04838582e-002
      5.00177927e-002 5.21191321e-002 3.98556739e-002 6.37630820e-002
      2.80272346e-002 -1.29745632e-001 -2.12175939e-002 -4.03842740e-002
      -3.33323218e-002 5.75154759e-002 3.20235714e-002 2.00666506e-002
      1.85691025e-002 3.11632939e-002 -7.67997578e-002 -6.96210656e-003
      9.56184790e-003 1.26846852e-002 6.61987811e-002 2.76340414e-002
      -1.08251749e-002 5.89981489e-002 4.20683362e-002 -5.46366908e-002
      -1.92003679e-002 1.15380865e-002 4.91944365e-002 8.04467127e-002
      1.69812776e-002 -5.39780147e-002 2.38750107e-003 3.69117483e-002
      -1.20070791e-002 1.25936018e-002 -4.42422405e-002 -4.77157645e-002
      9.23717767e-002 4.43946198e-002 3.29580791e-002 1.33224437e-002
      5.79389781e-002 -1.35454293e-002 -2.40888614e-002 -8.76687542e-002
      -6.07213527e-002 6.54372051e-002 3.02037261e-002 -6.91628177e-003
      8.91472120e-003 5.22689782e-002 -8.40158612e-002 -9.90955904e-002
      5.67189083e-002 8.76025110e-002 1.23954594e-001 4.73570190e-002
      1.96705181e-002 4.03820910e-002 6.14375733e-002 3.15451138e-002
      4.09732051e-002 1.49172489e-002 3.15688141e-002 7.82166198e-002
      2.97011770e-002 -1.62688904e-002 4.62951139e-002 8.25570673e-002
      2.18838099e-002 9.13840625e-003 -6.56879842e-002 -9.62567478e-002
      -3.27673666e-002 -3.21320370e-002 -3.85495275e-002
      -7.60862678e-002 -6.34323210e-002 -1.45242304e-001
      -1.13623336e-001 -4.17320132e-002 -5.99624589e-002
      -2.50078961e-002 -1.92302726e-002 -4.86505218e-003 2.01687813e-002
      -6.20907135e-002 -1.16657816e-001 -9.49748829e-002 2.90260813e-003
      -3.67824398e-002 2.90957326e-003 -7.65566132e-004 1.52726183e-002
      4.00732011e-002 2.48878319e-002 -5.31852320e-002 -2.26477816e-004
      5.46515360e-002 1.91216860e-002 1.03012472e-002 4.37159985e-002
      3.29113901e-002 1.23306066e-001 7.71433786e-002 2.71256994e-002
      2.97505315e-002 -9.86730382e-002 -9.98098478e-002 -1.55299559e-001
      -2.17426479e-001 -1.88807756e-001 -9.20830965e-002
      -8.45241249e-002 -1.17285326e-001 -1.06099598e-001 2.54652984e-002
      6.91748559e-002 2.80412119e-002 -6.13990463e-002 -3.03940140e-002
      8.04959163e-002 1.01714954e-001 9.33152139e-002 2.91169304e-002
      -6.84090257e-002 -5.14784306e-002 -8.77222344e-002
      -1.26268834e-001 -1.03286803e-001 -3.88082005e-002
      -1.67775748e-003 -1.92622794e-003 -2.70817932e-002 4.54606302e-002
      8.50966796e-002 5.05108722e-002 -2.23574694e-003 1.67526305e-002
      1.00634918e-001 9.60847437e-002 1.13346457e-001 6.32026047e-002
      -7.32928365e-002 8.30061547e-003 -3.72608416e-002 -8.29368830e-002
      5.09292036e-002 -2.35584434e-002 3.10839689e-003 3.91415730e-002
      -5.38562946e-002 2.74830051e-002 2.36992892e-002 -3.78267765e-002
      -5.09668328e-002 2.00516749e-002 -4.47053425e-002 2.79512797e-002
      6.99577406e-002 2.29854919e-002 -6.17873557e-002 3.60600487e-003
      -1.48324342e-002 -5.50716706e-002 4.47180271e-002 -1.18702054e-002
      -1.23469625e-002 2.03987677e-002 -6.94142058e-002 2.57237088e-002
      2.47287517e-003 -7.51299858e-002 -5.80702759e-002 3.67158256e-003
      -2.08124816e-002 7.67714856e-003 4.29918915e-002 1.25498138e-002
      4.65470413e-003 8.72165337e-003 5.70333609e-003 -2.67095175e-002
      -1.77722909e-002 -5.29350340e-002 1.63645484e-002 1.90313701e-002
      -4.50436957e-002 -5.24397828e-002 -3.77710722e-003 4.08658711e-003
      -4.13248017e-002 8.69087223e-003 1.06171342e-002 2.84911674e-002
      1.69940405e-002 -7.46356472e-002 -4.26987372e-003 2.44592670e-002
      3.96240540e-002 -3.89315723e-003 -9.29238051e-002 -6.99310154e-002
      1.43559361e-002 -1.34087587e-002 -5.08943349e-002 -8.87907520e-002
      -3.49289272e-003 -1.05303787e-002 -4.80798557e-002
      -7.39941671e-002 -4.35185917e-002 1.95693765e-002 -3.31584811e-002
      -1.22097902e-001 -4.57923999e-003 3.04073654e-002 3.15979198e-002
      -4.46773097e-002 -4.50997576e-002 5.58854640e-002 2.46470179e-002
      4.29542363e-002 -4.58039809e-003 -3.56114469e-002 1.47329308e-002
      2.52457764e-002 -1.32508222e-002 -4.08399887e-002 -1.94466375e-002
      2.59237252e-002 2.46359445e-002 -4.11738344e-002 -7.55197257e-002
      -6.68260269e-003 2.38703117e-002 -1.59863587e-002 -3.37267816e-002
      2.42327247e-002 4.42991704e-002 1.01058502e-002 -6.61692843e-002
      -5.89459762e-002 8.91123712e-003 9.99016128e-003 -1.20904315e-002
      -6.51539043e-002 -1.15836952e-002 6.66007847e-002 4.66009155e-002
      -4.47365046e-002 -3.16521563e-002 -1.64113455e-002 6.60242466e-003
      -1.76639594e-002 -7.62088820e-002 -1.56603137e-003 6.28753006e-002
      6.15547262e-002 7.48071726e-003 -1.03564910e-003 -8.07788894e-002
      -3.19535136e-002 -5.91856940e-003 -6.77510202e-002
      -2.16055382e-002 3.99936289e-002 7.23125637e-002 3.90216485e-002
      -3.14275883e-002 1.03684179e-002 -2.69357692e-002 -3.92708741e-003
      -8.11521932e-002 -3.34578604e-002 4.60209884e-002 4.14921865e-002
      -1.39917731e-002 -4.46383990e-002 -6.02046736e-002
      -2.84991190e-002 1.84041392e-002 -5.88115416e-002 2.34406795e-002
      2.89677568e-002 3.59293520e-002 1.19425841e-002 1.49844866e-002
      -6.17889315e-002 -3.42374258e-002 1.85889006e-002 -2.45454703e-002
      -4.52544689e-002 -1.21740967e-001 -8.05627704e-002 4.04317714e-002
      8.12022910e-002 4.33915369e-002 9.31360945e-003 4.00044248e-002
      3.65613028e-002 1.03051886e-002 -7.02294931e-002 -1.57922983e-001
      -2.80702468e-002 -4.69702296e-002 -3.31139080e-002 1.25460103e-002
      5.43257296e-002 -3.12881395e-002 6.53560609e-002 3.59163135e-002
      -1.13261295e-002 -4.08444228e-003 1.12905586e-002 8.41032155e-003
      5.42238951e-002 5.98899126e-002 -5.54903224e-003 7.84800202e-002
      4.44975868e-002 -5.29520251e-002 -5.62288538e-002 5.74751087e-002
      5.44334110e-003 -5.48285944e-003 2.75239814e-003 -8.87382030e-003
      3.48901562e-002 3.83001231e-002 -1.82888716e-001 -1.07439049e-001
      5.79550229e-002 1.86884664e-002 8.96786619e-003 -2.86698784e-003
      1.74528500e-003 3.59323286e-002 1.10450059e-001 -6.78778738e-002
      -5.71892783e-002 3.71817872e-003 -4.59351949e-003 8.62074643e-003
      4.46194084e-003 -8.53646174e-002 4.05153297e-002 3.82908359e-002
      -9.08031091e-002 -1.04181863e-001 1.81500390e-002 1.55485757e-002
      4.05627564e-002 9.84887127e-003 -4.14779000e-002 8.55729952e-002
      1.09226249e-001 -3.65184546e-002 -3.90216596e-002 7.18922168e-002
      -2.45924667e-002 -4.20981124e-002 -3.62471081e-002
      -4.56350408e-002 9.17784311e-003 2.51466781e-002 -9.19489786e-002
      -2.24398244e-002 9.41392332e-002 1.76477116e-002 3.70923383e-003
      7.79082812e-003 -1.42568834e-002 -1.35053257e-002 7.29479827e-003
      -6.66302517e-002 3.02336738e-002 -2.38455608e-002 -3.20834517e-002
      2.25798022e-002 -2.51233950e-002 -6.35190010e-002 2.75939964e-002
      4.82354052e-002 -7.08104670e-002 -3.38572785e-002 -4.41892212e-003
      -2.56876107e-002 4.31321934e-002 1.67940352e-002 -3.86841297e-002
      1.86602864e-002 4.13579568e-002 -3.94463167e-002 -1.63687989e-002
      4.02682312e-002 -1.12821497e-002 -2.23864112e-002 -2.62582991e-002
      -1.34396208e-002 -1.33294228e-003 -1.02982335e-002
      -1.17737532e-001 -3.56887132e-002 -5.89482312e-004
      -1.65202729e-002 -1.04392301e-002 -1.07692217e-003
      -1.97785683e-002 5.86184897e-002 1.00225061e-002 -8.74112844e-002
      -5.66054210e-002 -1.09265763e-002 -3.75158265e-002 9.22552031e-003
      -1.12680206e-002 -6.00270070e-002 1.22091798e-002 1.91237330e-002
      -2.97402218e-002 -1.34585481e-002 1.65057052e-002 -3.31800915e-002
      1.43593578e-002 3.34761874e-003 -3.54103222e-002 3.75903994e-002
      2.32751146e-002 -1.02367960e-002 6.82785176e-003 -1.07330196e-002
      -6.90616593e-002 -4.88815233e-002 -3.58846411e-002
      -2.69107032e-003 1.61362924e-002 1.62751637e-002 -8.36096480e-002
      -7.61880875e-002 -5.57048135e-002 -4.64848652e-002
      -2.11954415e-002 -4.19022255e-002 -3.00657786e-002
      -1.18466001e-002 3.16426009e-002 -4.15621959e-002 -3.77572887e-002
      -4.17244621e-002 -5.20232096e-002 1.58211289e-004 -4.32817405e-003
      3.15570575e-003 -8.34130973e-004 4.82481066e-003 -3.15918252e-002
      -2.80207191e-002 -1.84904188e-002 -1.56669114e-002
      -9.18280054e-003 1.58653185e-002 -1.08000502e-004 2.20460873e-002
      4.06908989e-002 -3.37042753e-003 -1.33479182e-002 -4.11927216e-002
      -8.45698863e-002 -3.86995189e-002 -8.54107216e-002
      -9.55500454e-002 -5.27571589e-002 4.59818132e-002 -1.87934898e-002
      7.16932677e-003 -2.07703542e-002 -1.89186130e-002 2.13916730e-002
      -6.73442036e-002 -1.03876270e-001 -6.11734428e-002 1.13877337e-002
      -6.56320201e-003 -2.09184419e-002 8.94145295e-003 -2.42919438e-002
      3.69501375e-002 -1.68917030e-002 -2.86500957e-002 4.19293967e-004
      3.62879708e-002 2.15337556e-002 9.86377522e-003 2.10282113e-002
      2.64371857e-002 8.41251686e-002 2.88747940e-002 -2.70210523e-002
      -8.06973476e-005 3.62233594e-002 -7.59985065e-004 -1.23702893e-002
      5.29162847e-002 4.53551114e-002 4.95049842e-002 -4.38316762e-002
      -5.18909656e-002 -2.87023298e-002 1.20560192e-002 -7.37369657e-002
      -1.30066760e-002 3.43901217e-002 5.27235232e-002 6.41368777e-002
      -3.19364034e-002 -5.23965843e-002 -2.88666207e-002 2.37638392e-002
      -6.66516796e-002 -2.28969482e-004 4.15979661e-002 1.48935346e-002
      5.31388521e-002 1.88385136e-002 2.17911880e-003 -2.43777200e-003
      5.86364977e-002 -6.79642311e-004 -6.22940855e-003 3.06979772e-002
      -8.68037157e-003 1.59186460e-002 1.13831684e-002 2.47529671e-002
      1.67630110e-002 8.03492591e-002 1.33936843e-002 2.16685012e-002
      1.48020945e-002 7.40034087e-003 1.27528934e-002 -8.42502192e-002
      -1.18157946e-001 -4.69368510e-002 4.43291757e-003 -4.23693620e-002
      -4.72077876e-002 3.80063057e-002 7.42717162e-002 2.79310010e-002
      -6.24377690e-002 -1.02074809e-001 -4.23425026e-002 3.67910638e-002
      -1.30958119e-002 7.69180944e-003 3.48608904e-002 -3.19105829e-003
      2.83651389e-002 -3.07553187e-002 -1.21645425e-002 1.07185505e-002
      2.73556169e-002 1.32188732e-002 4.02569845e-002 1.00858800e-001
      3.83792371e-002 5.18165976e-002 -3.11526423e-003 -9.42103215e-004
      2.04460621e-002 6.37328327e-002 4.53023277e-002 8.03203955e-002
      4.68497388e-002 4.21255156e-002 2.80616172e-002 -6.18129596e-002
      -7.47501478e-002 -4.34261970e-002 -1.55327946e-003
      -4.21182439e-002 -3.23980376e-002 2.14057583e-002 -1.18621755e-002
      3.72717879e-003 -7.08115771e-002 -6.03507012e-002 -5.41255390e-003
      -1.73842926e-002 -4.35840897e-002 -6.27506385e-003 4.04353850e-002
      3.68891954e-002 4.36835997e-002 -6.70256373e-003 -4.28262353e-003
      5.06960507e-003 3.53778824e-002 2.03041248e-002 1.28952889e-002
      5.08707985e-002 7.33048543e-002 4.46759984e-002 6.13908060e-002
      3.65093872e-002 5.61016425e-002 1.73101649e-002 1.84040740e-002
      9.05560795e-003 1.04243110e-003 -7.60527402e-002 -8.24833885e-002
      -1.07671119e-001 -8.90967101e-002 -5.75550124e-002
      -5.49931340e-002 -7.89032727e-002 5.01471164e-004 1.39889615e-002
      -6.95059672e-002 -6.81730136e-002 -4.56666797e-002
      -2.20707711e-002 9.10700299e-003 7.59764947e-003 -3.38876583e-002
      -2.59611383e-003 3.94127369e-002 2.21142024e-002 1.32506853e-002
      4.24079262e-002 1.82880778e-002 -2.29956433e-002 -5.27829491e-003
      1.48408990e-002 3.59198712e-002 3.94832827e-002 4.98387516e-002
      3.45862061e-002 5.83450720e-002 4.76730168e-002 4.08150628e-002
      5.61616234e-002 7.61271566e-002 6.81086257e-002 -4.49878499e-002
      -8.42701644e-002 -7.80226886e-002 -1.16559707e-001
      -6.20459504e-002 -5.82868345e-002 -2.01875828e-002
      -1.41462125e-002 -9.69161279e-003 1.62202716e-002 1.85725652e-002
      4.17098105e-002 -2.75060162e-002 -1.20045533e-002 1.19148018e-002
      3.01992241e-002 7.78458863e-002 4.64719646e-002 -5.43525629e-002
      -2.64274813e-002 -2.76569407e-002 -3.26844081e-002
      -6.71922602e-003 2.09095087e-002 -2.71978378e-002 1.78821348e-002
      -1.10939294e-002 -2.65729744e-002 3.07741687e-002 7.22417533e-002
      4.52124290e-002 4.97893728e-002 3.08256280e-002 5.33001544e-003
      3.47997211e-002 -2.05170806e-003 -3.93437706e-002 1.38696115e-002
      3.80418710e-002 -2.10846756e-002 4.19421755e-002 -2.43147463e-002
      1.74349677e-002 4.47773635e-002 -2.11498812e-002 2.99711283e-002
      4.35726568e-002 3.56406183e-003 -1.43122822e-002 -1.55899972e-002
      -5.33807427e-002 1.79362241e-002 5.45687564e-002 5.53421117e-002
      -9.76444855e-002 1.54108871e-002 6.69126436e-002 -2.08845991e-003
      2.62371395e-002 -9.48091000e-002 -1.93241071e-002 3.93012278e-002
      -7.69140199e-002 -3.55972275e-002 3.60211059e-002 3.58084328e-002
      -3.16466275e-003 1.48306647e-003 -4.55345400e-002 -8.75111949e-003
      4.40544374e-002 4.05913405e-003 -4.03804742e-002 2.88255978e-002
      3.53429690e-002 5.78472158e-003 -6.59736618e-002 -5.89313693e-002
      4.16997680e-003 -5.45864925e-003 -5.15150912e-002 -7.25303143e-002
      2.74303928e-002 7.70222070e-003 -5.79605065e-002 -7.94304460e-002
      -6.99338019e-002 2.74766423e-002 -1.11501310e-002 -7.87978098e-002
      -5.48088364e-002 2.97240093e-002 1.33080157e-002 -5.90791292e-002
      2.24628597e-002 -9.05266628e-002 -3.28421742e-002 -4.50720167e-004
      -3.77069935e-002 -9.75670889e-002 5.83309401e-003 1.52730336e-002
      -1.21168137e-001 6.09090887e-002 -9.71118063e-002 -5.23997005e-003
      4.71030222e-003 -8.21285546e-002 -4.74687517e-002 5.18998969e-003
      7.97987450e-003 -4.49830182e-002 -5.02520651e-002 -9.27872770e-003
      1.86760270e-003 1.27829639e-002 -2.98695117e-002 -4.76807542e-002
      2.60816179e-002 2.26961188e-002 -2.34940089e-002 -9.64499190e-002
      -5.55155315e-002 -2.05837563e-002 -1.04520479e-002
      -7.24886730e-002 -8.62820894e-002 -4.73110611e-003 7.77138257e-003
      -8.40944946e-002 4.54042815e-002 -6.73374757e-002 -9.58440080e-003
      6.18957914e-002 -2.61270478e-002 -5.78791201e-002 -2.67417971e-002
      -3.41548510e-002 -8.55766535e-002 3.95977274e-002 -7.42661953e-002
      -2.81166155e-002 1.60963908e-002 -4.32185717e-002 1.37192500e-003
      1.18047092e-002 -2.70038359e-002 -2.48373765e-002 -6.27599731e-002
      -1.12209888e-002 -1.62306577e-002 -1.71219576e-002
      -3.64834517e-002 1.58907752e-002 3.23027663e-004 -2.09393399e-003
      -2.36300868e-003 -2.63693519e-002 7.79577764e-003 1.34932343e-002
      5.09928586e-003 1.88346393e-002 2.32694088e-003 -7.10957870e-003
      -1.22369183e-002 -1.14157833e-001 4.47116196e-002 -7.39157721e-002
      -2.97650099e-002 -3.29568330e-003 -3.56931053e-002
      -3.77017520e-002 -7.52795022e-003 -2.88404599e-002
      -8.50245655e-002 5.86486235e-002 -7.77870715e-002 -2.73711141e-002
      -5.20643182e-002 -6.98913857e-002 -1.86001591e-003
      -2.27284934e-002 -6.81811338e-003 7.41605228e-003 -3.92600596e-002
      2.75970008e-002 1.06701963e-002 -1.55962314e-002 1.36154576e-003
      -1.79505174e-003 -3.24936770e-002 1.11160241e-002 1.36923613e-002
      -4.11357880e-002 2.38854438e-002 2.68767904e-002 -1.49237746e-002
      -2.31872406e-002 -1.60921123e-002 8.55415128e-003 9.16915014e-003
      -3.45812626e-002 1.12536296e-001 -3.49694863e-002 -3.23309265e-002
      -3.58202904e-002 -2.77515445e-002 -4.92375763e-003
      -2.20445748e-002 2.50570625e-002 -5.30934110e-002 1.11737221e-001
      -9.83303413e-003 1.66647397e-002 -7.61264516e-003 1.63062643e-002
      1.16785076e-002 -1.03982881e-001 -5.04297055e-002 -5.91604449e-002
      -1.32878229e-001 5.60204592e-003 3.58789973e-002 -4.52974811e-002
      -5.76043595e-003 -2.48594093e-003 -4.41927947e-002 1.33957025e-002
      -1.83934737e-002 -1.04661614e-001 6.44692630e-002 8.40642303e-002
      1.01832533e-002 3.02967820e-002 6.79623336e-003 -5.81144840e-002
      -1.94487721e-002 -7.37032145e-002 4.11794931e-002 -3.99145670e-002
      3.88869755e-002 7.36334547e-003 3.04505881e-002 1.27380053e-002
      -7.76153849e-003 3.42905745e-002 -3.39938402e-002 4.04447690e-002
      -1.78167298e-002 8.72095376e-002 6.48727417e-002 4.64009270e-002
      -3.12701166e-002 -6.24793842e-002 2.55486667e-002 -2.54890565e-002
      -1.10026196e-001 -7.73334084e-003 4.88972366e-002 -3.58462706e-002
      -3.50031145e-002 7.30648357e-003 -2.60420274e-002 4.35311496e-002
      -2.85687558e-002 -8.74418467e-002 -1.77389830e-002 5.98233677e-002
      -1.98219088e-003 -6.50356244e-003 -9.59589495e-004
      -2.92729773e-002 2.48271935e-002 -3.28663364e-002 4.41508703e-002
      -6.81832060e-002 4.89298664e-002 3.80273536e-002 3.27363126e-002
      2.74092965e-002 -1.15523646e-002 7.18794540e-002 -1.84312426e-002
      7.08335787e-002 -4.27763276e-002 7.41568729e-002 7.28081241e-002
      3.56261097e-002 -1.94076691e-002 -7.55780041e-002 -3.55110317e-003
      -3.27567384e-002 -1.10638052e-001 -5.21050319e-002 3.31328623e-002
      -1.75506563e-003 -3.13337427e-003 3.81777203e-003 -4.71636765e-002
      5.32875210e-002 3.38443700e-004 -8.49643424e-002 -3.83255109e-002
      5.09865358e-002 8.40300601e-003 3.01983226e-002 -6.27369620e-004
      -4.92219813e-002 2.91137584e-002 -5.92721021e-003 6.39609322e-002
      -6.82368726e-002 6.14148490e-002 5.57248332e-002 7.67929340e-003
      -3.34112847e-004 -3.18961143e-002 8.41488168e-002 5.14761172e-003
      5.32203056e-002 -7.74462149e-002 7.88112804e-002 3.92746925e-002
      2.79636700e-002 -7.57648796e-002 -7.07414001e-002 3.22419330e-002
      -3.32316831e-002 -3.85289267e-002 -5.02152033e-002
      -1.71164237e-002 -3.89137268e-002 -2.78933197e-002
      -3.61125059e-002 -2.41469201e-002 3.62439677e-002 2.71539073e-002
      1.19758947e-002 4.02686819e-002 2.13580262e-002 6.80206995e-003
      -2.23726849e-004 -1.83432288e-002 -5.70649765e-002 6.72372058e-002
      -2.92993709e-002 7.89770484e-002 -8.79687369e-002 1.93566736e-002
      -3.13750468e-002 -6.99589308e-003 9.43312142e-003 -3.23660597e-002
      4.01435457e-002 -2.14397497e-002 1.12635553e-001 3.73706259e-002
      5.46602979e-002 3.90275456e-002 2.85767261e-002 1.51359541e-002
      -2.26435177e-002 2.05055475e-002 -2.75124796e-002 -1.05709704e-002
      -4.28218115e-003 -1.21250693e-002 1.15286307e-002 -1.69270653e-002
      1.53500782e-002 -2.01273505e-002 2.76373178e-002 7.80516490e-003
      -2.41237301e-002 -3.32418978e-002 -1.56507175e-002
      -8.79673660e-003 1.25390822e-002 2.09965780e-002 -3.78661193e-002
      1.20834296e-003 -6.14693463e-002 7.30273724e-002 -5.02331778e-002
      -1.86832063e-003 1.77370626e-002 5.76825328e-002 2.86036599e-002
      -4.71272320e-003 2.50862837e-002 -5.19181564e-002 9.96218696e-002
      -3.60615812e-002 1.72621179e-002 6.65704394e-003 4.01577689e-002
      -2.99981833e-002 -4.50952277e-002 3.05450540e-002 8.36445205e-003
      -4.57502343e-003 -4.46466133e-002 1.60804689e-002 1.00135792e-003
      -1.99222434e-002 -2.45359614e-002 -3.45292278e-002 2.80457307e-002
      4.47977288e-003 -8.07910040e-003 -2.66713519e-002 6.36713728e-002
      1.33464448e-002 -4.42749541e-003 1.44199075e-004 3.16316751e-003
      6.35449886e-002 -2.60990541e-002 1.39312908e-001 -1.78581234e-002
      4.48631011e-002 3.28799188e-002 4.48595434e-002 2.23836619e-002
      7.22414488e-003 7.85029680e-002 -4.37599160e-002 1.00776881e-001
      4.06467309e-003 4.86380197e-002 1.85655393e-002 1.92520097e-002
      7.60363741e-003 -2.91673709e-002 3.86298005e-003 -4.61968184e-002
      -3.88888717e-002 -5.51287010e-002 -1.84458168e-003
      -1.24895917e-002 -1.02808978e-002 4.38540578e-002 -1.78084169e-002
      3.33162770e-002 -1.86268874e-002 -2.79218331e-002 -4.01115604e-002
      4.75647766e-003 8.78076162e-003 4.12505455e-002 3.69105078e-002
      -8.06800148e-004 6.96070269e-002 -2.80728154e-002 7.72249326e-002
      -6.28204718e-002 3.20355961e-004 -1.74583879e-003 -2.43845675e-003
      3.62677090e-002 -1.13484534e-002 3.20572816e-002 1.57188065e-002
      1.32024005e-001 -2.43486632e-002 1.89927332e-002 2.53266320e-002
      3.44466907e-003 -1.91664957e-002 1.58743616e-002 3.64925936e-002
      -3.95281687e-002 -5.94271235e-002 -4.32540588e-002
      -1.31550594e-003 -1.93143683e-003 -5.67622064e-003 1.26291458e-002
      6.22042120e-002 6.14828169e-002 2.86490191e-002 -1.33939395e-002
      2.33677924e-002 1.81984082e-002 4.90316562e-002 2.35867426e-002
      2.02396940e-002 -7.24717369e-003 3.91277969e-002 -2.45081391e-002
      9.96013880e-002 -6.59191459e-002 -1.49261327e-002 2.83450726e-002
      3.23446989e-002 6.05609231e-002 4.07036990e-002 7.02316910e-002
      -3.23222280e-002 1.41350135e-001 9.85409366e-004 1.46239828e-002
      4.02258672e-002 5.30039445e-002 -1.32109167e-003 -6.69927569e-003
      -7.41333980e-003 -2.77652517e-002 -5.03235385e-002
      -7.50830323e-002 -4.84036952e-002 -8.47786572e-003
      -1.03111835e-002 2.54396740e-002 6.64208969e-003 -3.92311858e-003
      2.52281688e-002 -2.92863883e-002 -1.12741813e-002 -1.61642972e-002
      1.40825729e-003 1.94415487e-002 2.02767495e-002 -7.19372602e-003
      -3.51487915e-003 -5.77407926e-002 1.00557446e-001 -8.36898834e-002
      -5.79967983e-002 -1.77541170e-002 3.19167823e-002 4.34719957e-002
      -1.89558789e-002 -1.16312187e-002 1.29083581e-002 8.21720511e-002
      -3.03023420e-002 -8.77755508e-003 5.28229587e-003 5.46063967e-002
      -8.52960348e-003 -7.94927776e-003 1.18637132e-002 -3.08558741e-003
      -4.98268791e-002 -1.88924074e-002 -5.81481159e-002
      -4.10387255e-002 -1.49313752e-002 1.72888841e-002 5.20645790e-002
      3.35655138e-002 1.58948209e-002 -3.44225578e-002 -2.02343278e-002
      -3.03531233e-002 5.13709849e-003 3.39692011e-002 -4.83344402e-003
      -6.25309497e-002 -5.13551710e-003 -3.73979062e-002 4.44022231e-002
      -7.12886900e-002 -6.37219399e-002 -3.95889804e-002 1.21919001e-002
      2.46827491e-003 4.47637914e-003 -6.32179249e-003 -3.40708233e-002
      6.85243160e-002 -4.22750078e-002 -3.56821120e-002 3.12374681e-002
      1.02674933e-002 -3.17038409e-002 5.96620403e-002 4.91806082e-002
      -3.18634138e-003 4.09060717e-003 -1.95480455e-002 2.15987377e-002
      5.13711050e-002 -2.06246767e-002 -1.26816956e-002 9.87034477e-003
      1.05135506e-002 -5.25949616e-003 4.92080906e-003 3.13963206e-003
      3.19720469e-002 6.03769757e-002 -9.94462147e-003 -4.01030518e-002
      3.18413116e-002 1.66586705e-003 -2.76506841e-002 1.18371285e-001
      -4.95854542e-002 1.17615936e-002 5.17922118e-002 -3.74878049e-002
      -5.42898700e-002 -4.18063626e-002 -2.41452064e-002
      -1.27195695e-003 1.33585170e-001 -5.70904724e-002 -3.65941529e-003
      5.05102053e-002 -1.89549029e-002</_></support_vectors>
  <decision_functions>
    <_>
      <sv_count>1</sv_count>
      <rho>-4.9992666134041777e+000</rho>
      <alpha>
        1.</alpha>
      <index>
        0</index></_></decision_functions></my_svm>
</opencv_storage>
