<?xml version="1.0"?>
<opencv_storage>
<my_svm type_id="opencv-ml-svm">
  <svm_type>C_SVC</svm_type>
  <kernel><type>LINEAR</type></kernel>
  <C>1.0000000000000000e-002</C>
  <term_criteria><epsilon>1.1920928955078125e-007</epsilon>
    <iterations>50000</iterations></term_criteria>
  <var_all>4620</var_all>
  <var_count>4620</var_count>
  <class_count>2</class_count>
  <class_labels type_id="opencv-matrix">
    <rows>1</rows>
    <cols>2</cols>
    <dt>i</dt>
    <data>
      -1 1</data></class_labels>
  <sv_total>1</sv_total>
  <support_vectors>
    <_>
      1.83360271e-014 0. 0. 0. 0. 0. 0. 0. 1.83360271e-014 0. 0. 0. 0.
      0. 0. 0. 1.83360271e-014 0. 0. 0. 0. 0. 0. 0. 1.83360271e-014 0.
      0. 0. 0. 0. 0. 0. 7.20913708e-002 9.59524512e-002 -5.19185290e-002
      -7.39593878e-002 2.43611056e-002 -1.04365222e-001 -2.07061749e-002
      1.98418707e-001 6.61584586e-002 1.26236305e-001 -2.04055803e-003
      -6.52011260e-002 5.83413392e-002 -1.68539677e-002 -8.70508775e-002
      9.19556022e-002 9.21743587e-002 8.90305191e-002 -1.92955211e-002
      -9.44709480e-002 1.04945684e-002 -2.64219940e-003 -8.58344957e-002
      1.08172186e-001 1.83360271e-014 0. 0. 0. 0. 0. 0. 0.
      1.83360271e-014 0. 0. 0. 0. 0. 0. 0. 1.83360271e-014 0. 0. 0. 0.
      0. 0. 0. 1.83360271e-014 0. 0. 0. 0. 0. 0. 0. -1.21922120e-001
      3.45384404e-002 1.53776510e-002 3.29043418e-002 -3.44589073e-003
      -2.79912893e-002 1.77020598e-002 1.37578264e-001 -4.81336936e-002
      -2.32773437e-003 2.32316889e-002 3.22570652e-003 -9.50219668e-003
      -5.22825941e-002 -1.32890660e-002 6.93555847e-002 -4.23016474e-002
      -3.56866457e-002 2.51370519e-002 -3.29486690e-002 -5.87190911e-002
      -1.77447218e-002 -6.24571033e-002 9.28891450e-002 1.83360271e-014
      0. 0. 0. 0. 0. 0. 0. 1.83360271e-014 0. 0. 0. 0. 0. 0. 0.
      1.83360271e-014 0. 0. 0. 0. 0. 0. 0. 1.83360271e-014 0. 0. 0. 0.
      0. 0. 0. -4.66826446e-002 7.22469091e-002 1.63008217e-002
      5.08738980e-002 1.44817978e-002 6.61616698e-002 3.98196615e-002
      -4.90661487e-002 -6.45669624e-002 -7.94199295e-003 2.11215857e-002
      -3.02518788e-003 2.15316983e-003 -7.21760392e-002 4.25654603e-003
      3.19855586e-002 1.21824760e-002 -1.82978287e-002 8.15021992e-003
      -1.09044584e-002 -3.87206040e-002 -3.76282781e-002
      -7.29522780e-002 -2.84605008e-002 1.83360271e-014 0. 0. 0. 0. 0.
      0. 0. 1.83360271e-014 0. 0. 0. 0. 0. 0. 0. 1.83360271e-014 0. 0.
      0. 0. 0. 0. 0. 1.83360271e-014 0. 0. 0. 0. 0. 0. 0.
      -8.75807405e-002 2.90809721e-002 1.96111519e-002 3.96447666e-002
      2.33667456e-002 -1.24896243e-002 3.17461193e-002 1.17217321e-002
      -9.21286643e-003 -5.54146012e-003 2.18623038e-002 -5.86223090e-003
      3.57850865e-002 -4.11896333e-002 1.30314641e-002 3.56098041e-002
      1.73630342e-002 1.60674157e-003 3.61853093e-002 1.98763106e-002
      -5.82649931e-002 -5.07699549e-002 -6.32081628e-002 1.43013513e-002
      1.83360271e-014 0. 0. 0. 0. 0. 0. 0. 1.83360271e-014 0. 0. 0. 0.
      0. 0. 0. 1.83360271e-014 0. 0. 0. 0. 0. 0. 0. 1.83360271e-014 0.
      0. 0. 0. 0. 0. 0. -6.60245568e-002 2.29331907e-002
      -1.13520743e-002 -1.77245084e-002 3.79021056e-002 -2.27010325e-002
      1.23134181e-002 1.64332055e-002 4.18690629e-002 4.30891581e-004
      -1.40980715e-002 -8.81733187e-003 4.04042378e-002 -5.74252605e-002
      2.03887559e-002 -1.89180672e-002 3.47396284e-002 -2.57307906e-002
      1.06126592e-002 1.75825246e-002 -1.07564583e-001 -5.57623543e-002
      -7.25765303e-002 3.44822481e-002 1.83360271e-014 0. 0. 0. 0. 0. 0.
      0. 1.83360271e-014 0. 0. 0. 0. 0. 0. 0. 1.83360271e-014 0. 0. 0.
      0. 0. 0. 0. 1.83360271e-014 0. 0. 0. 0. 0. 0. 0. -7.21268803e-002
      5.18340990e-002 1.55862398e-003 4.15368937e-002 -4.43051755e-002
      -2.38477569e-002 -1.94426402e-002 1.11997081e-002 -5.05439676e-002
      1.17815211e-002 2.24079634e-003 1.33208558e-002 -1.88249033e-002
      -8.97566602e-002 1.25842625e-002 4.53301147e-002 -4.65830900e-002
      6.80882111e-003 1.39298802e-002 3.98436532e-004 -9.25506800e-002
      -7.01350346e-002 -4.30214480e-002 1.04812928e-001 1.83360271e-014
      0. 0. 0. 0. 0. 0. 0. 1.83360271e-014 0. 0. 0. 0. 0. 0. 0.
      1.83360271e-014 0. 0. 0. 0. 0. 0. 0. 1.83360271e-014 0. 0. 0. 0.
      0. 0. 0. -6.20749816e-002 -3.53508536e-003 -2.48962343e-002
      1.01115212e-001 -1.27895668e-001 -3.68634127e-002 -3.90471220e-002
      -3.94330397e-002 -4.39733230e-002 8.96851066e-003 -1.76242813e-002
      8.65395553e-003 -8.82822648e-002 -4.27805223e-002 -5.27504645e-003
      1.37172975e-002 -4.85114977e-002 6.00118749e-002 1.89072336e-003
      9.91076231e-003 -7.57671669e-002 -7.60108382e-002 -3.11614778e-002
      3.01772486e-002 1.83360271e-014 0. 0. 0. 0. 0. 0. 0.
      1.83360271e-014 0. 0. 0. 0. 0. 0. 0. 1.83360271e-014 0. 0. 0. 0.
      0. 0. 0. 1.83360271e-014 0. 0. 0. 0. 0. 0. 0. -2.00461857e-002
      -6.58555403e-002 -6.63633943e-002 8.94821361e-002 -1.22268431e-001
      -6.02764869e-003 2.90613715e-002 -9.47225466e-002 -2.72367671e-002
      5.37862023e-003 2.96599064e-002 -2.37554871e-002 -5.05431332e-002
      -2.70097815e-002 -1.51207373e-002 -4.40567806e-002 2.36369967e-002
      -1.10931564e-002 -7.97686924e-004 5.71972458e-003 -6.95344955e-002
      -6.49726689e-002 -8.59532598e-003 -4.50265184e-002 1.83360271e-014
      0. 0. 0. 0. 0. 0. 0. 1.83360271e-014 0. 0. 0. 0. 0. 0. 0.
      1.83360271e-014 0. 0. 0. 0. 0. 0. 0. 1.83360271e-014 0. 0. 0. 0.
      0. 0. 0. 1.47879506e-002 -3.91887128e-002 -9.73055735e-002
      7.62317032e-002 -5.04950732e-002 7.01046363e-003 4.52792756e-002
      -1.50874361e-001 -1.09336846e-001 2.92658638e-002 5.53829037e-002
      -2.80954614e-002 -3.52325477e-002 -2.27337945e-002 7.02866912e-003
      -7.06033036e-002 -2.42220815e-002 -3.69003713e-002
      -1.56343468e-002 -4.16716151e-002 -3.64416577e-002
      -6.49103150e-002 -2.47272737e-002 -1.03472183e-002 1.83360271e-014
      0. 0. 0. 0. 0. 0. 0. 1.83360271e-014 0. 0. 0. 0. 0. 0. 0.
      1.83360271e-014 0. 0. 0. 0. 0. 0. 0. 1.83360271e-014 0. 0. 0. 0.
      0. 0. 0. 1.00227602e-001 2.08262298e-002 -5.76855429e-002
      1.15912780e-001 -1.99579895e-002 5.55137098e-002 2.87099127e-002
      -2.73614198e-001 -4.73645441e-002 4.21318673e-002 -2.49020774e-002
      -2.66267415e-002 -3.86605896e-002 -1.94104463e-002 4.17571887e-002
      -1.17892243e-001 -2.03071199e-002 2.78455466e-002 -2.93473080e-002
      -2.95650046e-002 -4.48104590e-002 -4.94650565e-002
      -3.80877405e-002 -2.98168864e-002 1.83360271e-014 0. 0. 0. 0. 0.
      0. 0. 1.83360271e-014 0. 0. 0. 0. 0. 0. 0. 1.83360271e-014 0. 0.
      0. 0. 0. 0. 0. 1.83360271e-014 0. 0. 0. 0. 0. 0. 0.
      2.07621306e-001 8.77225697e-002 -3.41896564e-002 1.15369059e-001
      2.26594359e-002 1.28534287e-001 -7.40575045e-003 -3.43647003e-001
      -1.88716687e-002 2.93321796e-002 -1.79810133e-002 -1.71285048e-002
      -2.73255650e-002 -4.39839289e-002 3.38139758e-002 -1.15084849e-001
      3.48451696e-002 4.27057594e-002 -3.92839275e-002 -3.21263745e-002
      -5.91888204e-002 -6.18040888e-003 -2.87593547e-002
      -1.07145913e-001 1.83360271e-014 0. 0. 0. 0. 0. 0. 0.
      1.83360271e-014 0. 0. 0. 0. 0. 0. 0. 1.83360271e-014 0. 0. 0. 0.
      0. 0. 0. 1.83360271e-014 0. 0. 0. 0. 0. 0. 0. 7.23631531e-002
      6.24553040e-002 -6.04219139e-002 1.20192114e-002 6.49005175e-002
      1.12969555e-001 -1.05953030e-002 -2.06815124e-001 -1.07359722e-001
      -1.92878079e-002 -3.06226313e-002 1.68585256e-002 -3.66054140e-002
      -2.70031691e-002 4.50523049e-002 -1.11110993e-002 1.38442088e-002
      -4.07831743e-002 -8.46036449e-002 -4.15841155e-002
      -5.29914871e-002 2.67546624e-002 -3.35391499e-002 -9.58527848e-002
      1.83360271e-014 0. 0. 0. 0. 0. 0. 0. 1.83360271e-014 0. 0. 0. 0.
      0. 0. 0. 1.83360271e-014 0. 0. 0. 0. 0. 0. 0. 1.83360271e-014 0.
      0. 0. 0. 0. 0. 0. -1.08698979e-001 -3.43470275e-002
      -5.91863506e-002 -6.55271709e-002 2.00395789e-002 3.93993929e-002
      6.00715578e-002 -3.12263630e-002 -7.61504620e-002 -6.67934418e-002
      -7.49975219e-002 4.45061829e-003 -1.81754527e-004 -3.96461022e-004
      5.34975566e-002 -2.71240249e-002 -2.65785921e-002 -1.11598700e-001
      -6.59319311e-002 -4.04807217e-002 -3.10143549e-002 5.62461317e-002
      2.08967291e-002 -1.35023117e-001 1.83360271e-014 0. 0. 0. 0. 0. 0.
      0. 1.83360271e-014 0. 0. 0. 0. 0. 0. 0. 1.83360271e-014 0. 0. 0.
      0. 0. 0. 0. 1.83360271e-014 0. 0. 0. 0. 0. 0. 0. 4.29453775e-002
      -1.76060423e-002 -1.25430658e-001 -1.46613494e-001 4.74637747e-002
      4.02787067e-002 -1.88386533e-002 -1.07245430e-001 -2.88720820e-002
      -2.07457226e-003 -1.35004342e-001 -6.89875633e-002 5.23164831e-002
      5.54831466e-004 5.26294764e-003 -9.13775042e-002 1.53654944e-002
      -9.17300805e-002 -1.03595875e-001 -1.23198755e-001 3.14232288e-003
      7.43897771e-003 -2.65349094e-002 -8.12748075e-002 1.83360271e-014
      0. 0. 0. 0. 0. 0. 0. 1.83360271e-014 0. 0. 0. 0. 0. 0. 0.
      1.83360271e-014 0. 0. 0. 0. 0. 0. 0. 1.83360271e-014 0. 0. 0. 0.
      0. 0. 0. -1.26875594e-001 -1.05864577e-001 5.42574450e-002
      -3.94617952e-002 1.57795940e-002 -1.46894038e-001 4.20567989e-002
      3.64684388e-002 -1.27684638e-001 -8.26275349e-002 5.53423949e-002
      4.39731777e-003 -5.80729730e-003 -1.70353845e-001 6.17297851e-002
      2.53592264e-002 -1.69583336e-001 -1.89920545e-001 9.20176134e-002
      -5.09565994e-002 -5.33218719e-002 -1.76457763e-001 1.97329130e-002
      8.95363837e-002 -4.47617248e-002 5.33947814e-003 2.00717300e-002
      -5.42958491e-002 -1.62669364e-002 -3.16972211e-002 1.40639218e-002
      5.30129634e-002 -4.17128205e-002 -9.28089991e-002 -1.02928653e-002
      1.10479342e-002 -3.83987813e-003 2.59707607e-002 -7.96024352e-002
      -1.43053127e-003 4.62529585e-002 -5.52041568e-002 -3.69626991e-002
      2.02775970e-002 1.25752930e-002 -4.90704849e-002 -6.84097707e-002
      1.20085292e-002 2.86392085e-002 2.82663852e-003 -3.22790109e-002
      -7.55159631e-002 -1.00892484e-002 2.47975420e-002 -4.10654806e-002
      -5.03761359e-002 -7.47445077e-002 -9.43625811e-003 1.67131424e-002
      -4.44802865e-002 -2.89672911e-002 6.83275983e-003 -1.91621743e-002
      2.55249329e-002 4.51385006e-002 -2.64817365e-002 3.09066065e-002
      3.16361040e-002 -3.00957728e-002 -5.05238883e-002 -1.99550036e-002
      -2.55251005e-002 -5.79210296e-002 2.37313695e-002 -1.73662174e-002
      -6.94818911e-004 -2.02179682e-002 -6.12122975e-002
      -2.96939053e-002 8.02933052e-003 1.60542578e-002 1.63963605e-002
      -4.01450396e-002 -3.16099115e-002 3.16979401e-002 3.87075581e-002
      -3.29734199e-002 -7.98551738e-002 -7.21280975e-003
      -1.04447920e-003 -7.96192363e-002 -7.19743669e-002
      -1.66539680e-002 2.03936640e-002 1.50393846e-003 -7.73074403e-002
      -7.53981434e-003 2.26813238e-004 9.52265132e-003 -5.48167117e-002
      3.21372971e-002 -2.02630665e-002 -1.24358591e-002 -1.39967296e-002
      -4.15645679e-003 -4.97237928e-002 -2.42260713e-002
      -5.88558847e-003 -5.53096831e-002 5.00201201e-003 -5.79645894e-002
      -3.16397026e-002 -5.50710335e-002 -3.80499326e-002 1.29052717e-002
      1.50315249e-002 1.91420466e-002 -2.71968767e-002 -5.38111739e-002
      1.28942847e-004 2.41272170e-002 -9.92356334e-003 -1.31720882e-002
      -1.58271950e-003 2.31167823e-002 9.59305186e-003 -1.96190663e-002
      -4.93752696e-002 -2.88412552e-002 -2.20224615e-002
      -3.88794243e-002 -3.72140259e-002 -3.49086337e-002
      -5.83150052e-002 -6.49231719e-003 -5.59934089e-003 4.47552241e-002
      4.35620386e-005 2.08778623e-002 3.91172757e-003 1.38794472e-002
      2.03994326e-002 -2.38198135e-002 3.34205143e-002 -4.90564294e-003
      5.38844652e-002 -2.14481596e-002 4.11966778e-002 3.61223072e-002
      2.22804472e-002 -4.09314036e-003 -1.73684228e-002 1.20371804e-002
      2.40791626e-002 -1.47009557e-002 1.98647706e-003 -2.45560650e-002
      -1.68871619e-002 -1.37365907e-002 -4.61662048e-003 3.52026746e-002
      5.77701330e-002 1.74920578e-002 -3.15996744e-002 -1.00029842e-003
      2.40437854e-002 3.02137472e-002 2.73730718e-002 5.20500019e-002
      -3.98989022e-002 2.23845243e-002 -4.70683165e-002 -5.14740171e-003
      -4.26398180e-002 8.41221306e-003 -1.29683707e-002 2.61223614e-002
      6.31484017e-002 1.52186956e-002 5.72273917e-002 -5.46676712e-003
      2.24469993e-002 2.70281220e-003 1.71993598e-002 -1.32937040e-002
      1.72113311e-002 9.30323265e-003 -1.90242715e-002 3.88313308e-002
      -6.64202031e-003 -1.04925528e-001 -4.19545285e-002
      -1.68354027e-002 -4.95083928e-002 1.44607772e-003 2.10731030e-002
      1.20482920e-002 7.88614750e-002 1.73175801e-002 -9.31199193e-002
      -2.16422305e-002 -2.60133902e-003 -3.91831435e-002
      -1.81740299e-002 3.67109217e-002 1.94827300e-002 4.92093563e-002
      -1.87432989e-002 2.57572681e-002 -1.12638697e-002 1.96313988e-002
      -2.11870130e-002 -3.63425934e-003 9.34080873e-003 1.28838746e-002
      4.21927050e-002 4.87610791e-003 1.00228392e-001 5.38024046e-002
      9.98655930e-002 3.53412479e-002 2.35713758e-002 -1.12088621e-002
      -6.06882572e-003 4.12516668e-002 -4.42223437e-002 -9.41145271e-002
      -6.58127293e-002 1.74516663e-002 -4.40465435e-002 -1.07792038e-002
      -1.70195960e-002 -3.23913380e-004 2.54550278e-002 -4.56493115e-003
      -6.79387078e-002 1.36701972e-003 5.78379706e-002 5.79814473e-003
      3.04215886e-002 -3.78738455e-002 -1.03804898e-002 1.67646911e-002
      -7.20441788e-002 3.88336256e-002 5.90157788e-003 6.23911843e-002
      -3.48221324e-003 -3.17210108e-002 2.09933575e-002 3.06632835e-002
      6.69214725e-002 -1.88943967e-002 6.13212995e-002 -1.13199921e-002
      5.18117957e-002 -2.66471729e-002 -3.04010063e-002 -3.28447893e-002
      -1.93547830e-003 -4.71588550e-003 -6.95512816e-002
      -7.49698281e-002 -1.07515026e-002 4.57055904e-002 -1.76330339e-002
      -1.34470258e-002 1.46246795e-002 5.33641018e-002 4.54071611e-002
      5.37466910e-003 -8.22097994e-003 -1.06052146e-003 8.59571993e-002
      3.63982306e-003 8.77058017e-004 2.15185247e-002 -1.15269981e-002
      2.80310791e-002 -3.16148400e-002 3.89120243e-002 -3.38895246e-002
      3.06964293e-002 -5.00729531e-002 -3.50983106e-002 5.42816073e-002
      2.42671408e-002 6.40683100e-002 6.36856109e-002 9.82880369e-002
      -1.80952847e-002 4.40790057e-002 -1.46502908e-002 3.79201137e-002
      -1.32217696e-002 -1.45436581e-002 -1.78311095e-002
      -2.81394627e-002 -3.45311239e-002 -1.95600130e-002 1.30226156e-002
      -6.11749962e-002 -4.80521657e-002 9.73294117e-003 -2.52834894e-002
      2.33968105e-002 2.79780384e-002 1.38285654e-002 1.67395063e-002
      1.77239608e-002 -1.00927129e-002 -9.93062370e-003 5.21858670e-002
      2.41428241e-002 1.51723633e-002 -2.86606513e-002 5.18221669e-002
      -6.50964007e-002 -4.64093918e-003 -3.12530547e-002 2.10879371e-002
      4.02409956e-003 3.54319662e-002 4.22011688e-002 -4.63981368e-002
      5.27809635e-002 -2.74462625e-002 9.09575913e-003 1.25742713e-002
      1.33506097e-002 -2.12013666e-002 -3.02689373e-002 1.30118784e-002
      4.23842022e-004 4.80106380e-003 -2.17287745e-002 1.52534561e-003
      -2.65348032e-002 -2.68575065e-002 1.15671298e-002 1.86578445e-002
      3.57529595e-002 -7.48968218e-003 9.26437601e-003 -7.49859074e-003
      2.67582368e-002 2.81682704e-002 3.44395973e-002 1.30644012e-002
      2.17542313e-002 4.69107665e-002 -6.04334027e-002 5.22557162e-002
      -5.49531356e-003 2.02025436e-002 -1.61817484e-002 -1.61904264e-002
      -2.06148941e-002 2.62329392e-002 9.36122164e-002 2.67920420e-002
      8.14859867e-002 9.93602816e-003 1.72161534e-002 -3.87436114e-002
      -2.06327386e-004 1.78921707e-002 1.02415672e-002 1.98674407e-002
      -6.28349259e-002 -1.15201166e-002 -2.46179756e-002
      -3.01242020e-004 -3.44043970e-002 1.62777696e-002 4.44811629e-003
      -3.02066864e-003 3.46271023e-002 3.19204177e-003 5.27798245e-003
      1.07145738e-002 3.67114283e-002 -2.49426719e-002 -6.15080912e-003
      -1.28056258e-002 -1.44270351e-002 4.95229363e-002 -3.81373912e-002
      5.35143353e-002 -1.03601832e-002 1.07195508e-002 -3.93538773e-002
      6.31339289e-003 1.77164730e-002 1.10716186e-002 2.06872839e-002
      -3.96555625e-002 4.92956229e-002 -2.75263600e-002 1.98622160e-002
      -1.24233104e-002 4.78215553e-002 8.91846791e-003 -1.76100116e-002
      7.85404164e-003 -3.38868760e-002 -2.08124164e-002 -1.24087417e-002
      1.83438752e-002 -4.85314755e-003 1.71519797e-002 7.79590430e-003
      1.04992872e-003 -1.89978644e-004 -2.67299209e-002 -2.99260952e-002
      -1.70448404e-002 3.63721438e-002 6.88974420e-003 3.27737071e-002
      1.51087586e-002 3.13393422e-003 1.91219186e-003 -4.81310412e-002
      1.79832187e-002 -3.78841534e-002 1.41860461e-002 -9.19429772e-003
      2.03723982e-002 3.74186151e-002 1.26834186e-002 3.74909975e-002
      -1.75616425e-002 8.46511647e-002 -7.03317672e-003 6.82006478e-002
      1.73979308e-002 3.28929797e-002 -1.91198699e-002 5.58141107e-003
      2.11528614e-002 -1.76558960e-002 -3.58071849e-002 -3.79521474e-002
      -1.74479019e-002 8.88041407e-003 -7.08619086e-003 3.29555646e-002
      2.66496763e-002 9.88409389e-003 1.69498310e-003 1.16753234e-002
      -7.57469609e-003 2.08961330e-002 4.59672920e-002 2.32884232e-002
      3.47307324e-002 -9.78398696e-003 -2.84303874e-002 -7.25765452e-002
      3.55621241e-002 -2.63863821e-002 2.24225428e-002 -2.54720007e-003
      1.72233619e-002 4.71951030e-002 2.18769927e-002 -6.76984666e-003
      -4.26057028e-003 6.77710921e-002 5.00174798e-002 1.06680030e-002
      -8.71190336e-003 7.80259958e-003 -1.70486033e-004 -1.53013291e-002
      -4.42023091e-002 -6.26174733e-002 -3.02078519e-002
      -3.51243131e-002 -2.89794784e-002 -2.20051147e-002 1.02698598e-002
      -1.24727497e-002 8.87540355e-003 6.45742379e-003 1.62193011e-002
      9.08378512e-004 1.92810502e-002 -2.88618654e-002 -2.55886018e-002
      -2.06853617e-002 -1.06853619e-002 -5.29237352e-002
      -8.68314505e-002 -5.24497107e-002 6.72690123e-002 3.12057957e-002
      2.60924660e-002 -2.84903739e-002 -3.62699218e-002 -5.98726561e-003
      1.79701856e-005 -2.65931357e-002 -4.49315086e-002 1.85851827e-002
      -2.89265774e-002 1.48738222e-002 1.64731350e-002 -2.23727040e-002
      -1.50145851e-002 -1.27935810e-002 -1.01193115e-002 1.86104476e-002
      9.55750886e-003 2.68415269e-003 4.63233283e-003 -9.17774625e-003
      -4.63207141e-002 1.15151564e-002 3.97108421e-002 7.46497512e-003
      -1.51356561e-002 -4.88380389e-003 -2.78830398e-002 4.58007455e-002
      3.11842840e-002 -1.10261291e-002 -4.28748690e-002 1.63926966e-002
      1.01350779e-002 -6.26474097e-002 7.47396722e-002 -5.63074462e-002
      2.76060356e-003 1.67157445e-002 -4.60898131e-002 1.41840754e-002
      7.10304677e-002 1.12176547e-002 -1.28248036e-002 1.19374499e-001
      -5.74824177e-002 -2.93226540e-002 -2.96741836e-002
      -2.41183694e-002 -4.03209180e-002 6.22877851e-002 2.56265365e-002
      -5.50280549e-002 2.80819442e-002 -2.99571436e-002 4.65015247e-002
      3.09354831e-002 -4.60270979e-002 3.29016964e-003 6.98797926e-002
      3.97161692e-002 -4.64131415e-004 4.95133437e-002 -2.39591096e-002
      8.45879503e-003 2.63593998e-002 2.88215885e-003 -2.54462324e-002
      2.77611427e-002 1.80170629e-002 -1.56726968e-002 -7.97222480e-002
      -1.04678180e-002 2.61831805e-002 2.24717017e-002 5.95060224e-003
      -8.01247358e-002 -8.16208869e-003 4.48947679e-003 -1.30709994e-003
      -7.39303306e-002 -6.33790344e-002 -1.49133811e-002
      -8.39808397e-003 -6.06513508e-002 -1.46594141e-002 5.24543375e-002
      3.25567499e-002 -1.68590695e-002 -5.30389585e-002 -2.00801231e-002
      3.13862115e-002 3.35567594e-002 -1.61086377e-002 -8.59103724e-002
      3.71833070e-004 5.17139472e-002 -1.35637878e-003 -5.02877347e-002
      -2.40651369e-002 1.32867200e-002 -9.50982794e-003 -1.00683235e-001
      -3.58560868e-002 2.95129754e-002 3.50464061e-002 4.60299850e-002
      -5.21626808e-002 -4.06878479e-002 2.29344666e-002 2.27899123e-002
      -3.02749909e-002 -6.43892959e-002 1.76990908e-002 1.74462032e-002
      1.71291810e-002 -6.07233569e-002 -2.30226461e-002 1.37144560e-002
      -1.46499025e-002 -6.37011975e-002 -7.05338607e-005 5.44980764e-002
      2.88444422e-002 3.73968668e-002 -7.25840777e-002 -4.82226871e-002
      3.51436250e-002 6.37323260e-002 -1.58610940e-002 -5.24298400e-002
      3.85524780e-002 1.89598724e-002 3.78138088e-002 -4.38571610e-002
      -2.54903492e-002 5.36047071e-002 3.63252610e-002 -2.76815575e-002
      -1.87842119e-002 1.36221694e-002 1.64323561e-002 -5.54904621e-003
      -6.69796765e-002 -7.98259489e-003 1.24314195e-002 -2.16385666e-002
      -4.33264263e-002 -1.41043281e-002 -3.65916034e-003 1.91751942e-002
      2.12203600e-002 -5.24668805e-002 -4.95060161e-002 -4.36492004e-002
      -6.91048652e-002 -5.28758951e-002 -2.17412636e-002 6.71988651e-002
      4.01401892e-002 4.89617512e-002 -8.14369693e-002 -2.18013171e-002
      2.30116751e-002 -2.76037287e-002 -4.21650633e-002 3.01380977e-002
      5.17022125e-002 1.01525709e-002 -2.27068737e-002 -6.78909197e-002
      -2.01591440e-002 -2.82229334e-002 -8.32997933e-002
      -2.13035475e-002 3.05987010e-003 -8.48575681e-003 4.68575843e-002
      8.39101374e-002 -9.00389627e-003 1.44241210e-002 -1.28969746e-002
      -1.31898206e-002 -6.74490118e-003 -4.62516882e-002
      -4.87291142e-002 6.91358373e-002 8.52768123e-002 -1.51354512e-002
      5.28018549e-003 3.78456200e-003 -7.21355155e-003 2.54151560e-002
      3.07572484e-002 -5.91580085e-002 -6.94501624e-002 -1.63951050e-002
      -3.53466570e-002 2.45216470e-002 -9.69413202e-004 -3.01730260e-002
      -7.34565128e-003 -7.21303448e-002 -1.62272558e-001
      -3.57848369e-002 2.53724549e-002 -1.00508761e-002 4.29716194e-003
      5.31938625e-003 2.12782100e-002 1.82047840e-002 -6.40393719e-002
      -9.07513127e-002 5.58347702e-002 6.18418753e-002 -4.25880887e-002
      2.55345944e-002 8.05330405e-004 -2.86654588e-002 2.52831355e-002
      -4.50513437e-002 -3.32747065e-002 1.02782264e-001 5.60223833e-002
      -5.13054095e-002 9.22527257e-003 3.40068340e-002 -4.82091028e-003
      3.70564759e-002 -1.06619582e-001 -1.71992630e-001 4.38868031e-002
      6.80214614e-002 -4.43918584e-003 -1.46598264e-003 1.06637068e-002
      1.12855826e-002 4.12915088e-002 -6.68579489e-002 -7.75087252e-002
      8.34424421e-002 2.54083350e-002 -1.80763248e-002 -4.42225602e-004
      1.90652220e-003 2.28871778e-002 2.97599230e-002 -4.43488024e-002
      -5.24509437e-002 5.55762462e-002 4.36053844e-003 -5.06746136e-002
      -3.72833535e-002 8.49008840e-003 -2.65702326e-002 2.35618744e-002
      -3.61571796e-002 -3.51865627e-002 2.72917282e-002 1.84074026e-002
      -3.02906781e-002 1.76773574e-002 2.25289688e-002 -4.26131673e-002
      2.85666566e-002 -3.91795188e-002 -7.83665106e-002 1.02043953e-002
      -2.56308932e-002 -1.80788692e-002 -2.28829887e-002
      -3.68935242e-002 -3.42602166e-003 6.58013746e-002 -4.76460950e-003
      -6.80212080e-002 2.50531789e-002 -2.59472188e-002 -1.23126684e-002
      1.47806127e-002 -1.27052618e-002 -3.25940107e-003 6.12162426e-002
      -3.00148614e-002 -4.98916814e-003 2.55481116e-002 -1.84764359e-002
      -4.24873084e-002 -4.22652112e-003 -2.56157806e-003
      -6.30234927e-002 -7.95241445e-003 3.99067486e-003 1.56879555e-002
      3.06595955e-002 4.44430895e-002 3.60126495e-002 3.01892031e-002
      3.17032821e-002 -2.37330189e-003 3.79674393e-003 -4.08247672e-002
      -9.26629081e-002 2.69577634e-002 -2.00520363e-002 -3.77884991e-002
      -4.66120504e-002 -4.90166061e-002 -4.11898606e-002
      -1.35667576e-003 -4.16139960e-002 -5.81528284e-002 1.03000049e-002
      2.26543751e-002 1.54656358e-002 1.58976410e-002 5.10463398e-003
      -5.46461390e-003 -3.95829678e-002 -9.45806131e-003
      -5.99306216e-003 -1.50619457e-002 -1.69638824e-002 9.65884887e-003
      2.35738661e-002 1.47075495e-002 -3.46867144e-002 -3.92426625e-002
      5.47362790e-002 -3.76348878e-004 3.11603416e-002 6.49377191e-003
      9.67431534e-003 3.13564390e-002 2.01583914e-002 6.07827818e-003
      3.15937251e-002 -8.75478908e-002 -8.10679644e-002 -2.47699469e-002
      -1.01207010e-002 -1.83157641e-002 -1.69862024e-002
      -7.08347559e-003 -4.41572554e-002 -3.59273665e-002
      -4.63291779e-002 -5.79611072e-003 6.65864721e-003 -3.94183435e-002
      -6.05742671e-002 -5.35046831e-002 4.34917072e-003 -1.86697245e-002
      -6.30282909e-002 3.87616418e-002 -1.73547752e-002 2.69014109e-002
      -1.97713636e-002 -2.82385293e-002 -2.22974271e-002 1.43639510e-002
      -1.30754951e-002 3.35508995e-002 5.01444302e-002 1.95006765e-002
      6.53639138e-002 1.56268179e-002 -2.53279833e-003 1.34578198e-002
      5.21823987e-002 4.86798622e-002 6.19122274e-002 -5.25751039e-002
      -2.24314854e-002 -6.90553524e-003 -9.40834135e-002
      -1.40222996e-001 -9.80852768e-002 -4.89138253e-002
      -6.61953539e-002 -5.66544943e-002 -3.02232411e-002 4.48633544e-002
      4.68115434e-002 -5.10922894e-002 -1.23155400e-001 -8.16125423e-002
      -1.27641286e-003 -5.94426971e-003 -9.93163045e-003 2.80369166e-002
      1.38452621e-002 3.11550945e-002 -4.77299979e-003 -4.89819376e-003
      3.87014891e-003 2.59470101e-002 1.47842830e-002 3.41302231e-002
      3.75064947e-002 3.02270381e-003 3.83517630e-002 4.73785661e-002
      2.79115923e-002 6.62963791e-003 2.28858981e-002 1.21303871e-002
      4.96980175e-002 -2.22133547e-002 -2.37317570e-002 2.98120510e-002
      -1.81992520e-002 -7.20336288e-002 -6.30591661e-002 2.98911203e-002
      1.59644317e-002 5.47701120e-002 5.76834986e-003 -2.18887925e-002
      1.47014977e-002 3.82979563e-003 -3.95559631e-002 -2.15474237e-002
      3.25568877e-002 4.98419739e-002 3.39494459e-002 3.54936793e-002
      -4.09041112e-003 3.19830664e-002 3.03188898e-002 5.81675163e-003
      -7.96578359e-003 4.76254784e-002 2.23938785e-002 6.22622259e-002
      1.45361181e-002 2.19159592e-002 5.25514483e-002 1.03151733e-002
      1.88645329e-002 1.17196599e-002 4.33318838e-002 4.47294749e-002
      4.34998721e-002 2.68949266e-003 -1.31194731e-002 1.78108469e-003
      -3.19567025e-002 -9.50192586e-002 -6.69034049e-002 3.86573677e-003
      1.34139992e-002 2.33261865e-002 -6.64345315e-003 -3.55911776e-002
      2.28133071e-002 -4.39042747e-002 -1.08693711e-001 -5.48212640e-002
      -3.77855671e-004 3.14063951e-002 4.68863361e-003 9.35220160e-003
      1.10324938e-002 2.95944214e-002 1.30807692e-002 2.05842741e-002
      1.60638883e-003 1.80788934e-002 1.12430602e-002 2.82196365e-002
      5.52523248e-002 5.19486470e-003 1.13963420e-002 4.42003570e-002
      5.73129319e-002 1.95846371e-002 3.08894906e-002 4.06588279e-002
      6.38075396e-002 -7.85067957e-003 -4.16695289e-002 2.04900652e-002
      -3.17682587e-002 -6.14259876e-002 -5.79229593e-002 5.95602160e-003
      1.97312105e-002 2.35019419e-002 9.03454423e-003 -4.15640287e-002
      -1.30357323e-002 1.49887670e-002 -3.22788842e-002 -4.73438986e-002
      2.60752309e-002 3.41442525e-002 3.84001024e-002 3.22535038e-002
      -6.25941297e-003 -1.80675089e-002 -2.73214877e-002 1.54153556e-002
      4.01577400e-003 3.54490941e-003 -7.66907493e-003 4.11410071e-002
      2.99865846e-002 4.60556336e-002 5.63333444e-002 5.98571450e-002
      6.59922436e-002 4.37335186e-002 3.57800238e-002 8.30327906e-003
      2.62556076e-002 -1.25058722e-002 -6.54186010e-002 -5.59786707e-002
      -7.57640228e-002 -8.48178491e-002 -8.83736685e-002
      -3.31540257e-002 -4.34138030e-002 -4.67904843e-003
      -2.10289638e-002 -2.18519010e-002 -1.35328704e-002
      -2.73798108e-002 -2.26496942e-002 -7.30904266e-002
      -5.06482497e-002 -5.67134246e-002 -1.18452935e-002
      -8.89548194e-003 1.10876299e-002 -8.87332484e-003 2.64887344e-002
      4.96565830e-003 -4.27441075e-002 -1.66745856e-002 -6.21183077e-003
      -3.66855711e-002 1.67921875e-002 4.81759869e-002 2.54801884e-002
      2.31449269e-002 3.50766294e-002 -6.66153710e-003 4.70303893e-002
      3.32420804e-002 -2.55289935e-002 -6.58304468e-002 -1.76364500e-002
      -3.97454612e-002 -3.58132422e-002 -5.30241542e-002
      -1.12965710e-001 -8.67712572e-002 -4.99621704e-002
      -5.28604947e-002 2.79695056e-002 4.88929413e-002 2.91455779e-002
      2.82484852e-002 -2.71006417e-003 -2.48895921e-002 4.25644498e-003
      2.36766394e-002 -1.46395061e-002 -2.71432865e-002 5.47360033e-002
      1.25844385e-002 -3.73001881e-002 1.77032333e-002 -9.03698429e-003
      3.93524170e-002 2.03971546e-002 -6.23620301e-002 2.75631156e-002
      5.71923517e-002 1.72104146e-002 -5.63152879e-002 2.64230045e-003
      -1.91229153e-002 2.92692147e-002 4.88761291e-002 8.45837127e-003
      -1.72691830e-002 3.78531218e-002 1.05995731e-002 -8.96224193e-003
      9.04840790e-003 -1.98521093e-003 2.02559475e-002 2.23406963e-002
      -4.63263094e-002 3.68088484e-002 5.19787036e-002 6.40449929e-004
      -3.36105339e-002 -1.70770679e-002 1.66825950e-002 3.62662971e-002
      7.08414912e-002 5.17452136e-002 -4.00856510e-003 4.65985537e-002
      -4.54446813e-003 -8.33048597e-002 -4.92225550e-002 1.79067196e-003
      2.19251569e-002 2.75741350e-002 2.47584712e-002 -8.90012085e-002
      3.45961191e-002 -1.29305720e-002 -6.78872988e-002 -4.81673628e-002
      -1.69862807e-002 5.05006276e-002 1.20018553e-002 -8.60477537e-002
      -2.63338648e-002 2.68228408e-002 2.16612089e-002 -1.42647363e-002
      -1.76695902e-002 1.87126119e-002 4.23173681e-002 3.31861712e-002
      -4.32798788e-002 -7.47560263e-002 6.14394769e-002 -2.25604773e-002
      -6.95473179e-002 -3.48120034e-002 -3.58870327e-002 4.01335470e-002
      3.23171541e-002 -1.22489065e-001 3.24083455e-002 6.63295835e-002
      -7.49596814e-003 4.36414545e-003 1.36346528e-002 7.03724474e-002
      9.82587114e-002 1.25063270e-001 4.76817004e-002 -6.98081776e-002
      -6.49366081e-002 -6.55709803e-002 -1.77315269e-002 3.03570228e-003
      2.80528553e-002 4.89576310e-002 8.09313282e-002 1.03273196e-002
      1.76320951e-002 -2.57935356e-002 -2.06802025e-001 -1.84417635e-001
      -9.15749893e-002 9.89649817e-003 7.41835684e-002 1.32328600e-001
      3.58545817e-002 -1.23982236e-001 -2.01682538e-001 -2.40612194e-001
      -1.63567916e-001 -6.84637651e-002 8.71207216e-004 8.78557097e-003
      4.15590703e-002 -2.98431311e-002 -4.52385060e-002 1.73448846e-002
      3.83566990e-002 6.67925775e-002 3.23520862e-002 2.59593967e-002
      -1.00848656e-002 -5.67887351e-002 -5.37864678e-002 4.35999781e-002
      7.48273656e-002 -1.28138084e-002 -4.81982827e-002 -1.75156433e-003
      2.15941016e-002 -5.77863231e-002 -1.32752016e-001 -3.42148766e-002
      -1.54848307e-001 -9.55565497e-002 -6.20600535e-003 2.32034363e-002
      3.81409042e-002 2.25905813e-002 -4.40660380e-002 -1.56926066e-001
      -1.76630661e-001 -4.84612472e-002 -3.34232785e-002
      -7.70571753e-002 -1.05647489e-001 -3.04529537e-002
      -9.71339829e-003 -1.39455333e-001 -2.14066267e-001
      -1.48632199e-001 6.00143969e-002 -1.44205704e-001 -2.42137879e-001
      -1.66129723e-001 -1.75324362e-002 7.63618797e-002 1.65100880e-002
      -2.29014549e-002 7.94897452e-002 -4.02974449e-002 -1.62513807e-001
      -1.25338703e-001 -7.59682199e-003 5.49341850e-002 7.12982565e-002
      5.75736016e-002 6.68658167e-002 1.01916708e-001 7.42816329e-002
      -1.31360605e-001 -2.68399626e-001 -2.23852158e-001
      -5.09223938e-002 -6.25919597e-003 -6.58489987e-002
      -8.25577676e-002 1.64887384e-002 8.83264244e-002 -6.35569915e-003
      -7.36046955e-002 -1.42387748e-002 7.17986450e-002 6.36990368e-002
      1.72355063e-002 4.01912294e-002 1.03484035e-001 -1.08798109e-001
      -1.95106730e-001 -4.58240286e-002 3.26390043e-002 4.58993297e-003
      -2.47087590e-002 -3.56754027e-002 -5.02255708e-002 1.87473446e-002
      -3.52140926e-002 -6.58738911e-002 4.49381024e-002 2.59036906e-002
      2.37302911e-002 -2.78240219e-002 -4.68431674e-002 -2.68217381e-002
      -6.07888214e-003 2.53309235e-002 -1.53229600e-002 3.34158614e-002
      8.06678385e-002 5.62924258e-002 -1.80719942e-002 -3.62817496e-002
      -5.02014644e-002 4.03690673e-002 4.98790257e-002 3.50978784e-002
      7.96048343e-002 8.13800618e-002 6.93986490e-002 2.17461847e-002
      9.58279800e-003 -2.26954501e-002 -1.60570408e-003 -5.65559305e-002
      -1.02931410e-001 -5.38138999e-003 -2.81285471e-003 3.12569961e-002
      -2.70301271e-002 -5.01361787e-002 -5.35829850e-002
      -2.19706483e-002 -8.54476392e-002 -1.59148470e-001
      -4.91181808e-003 -2.16175057e-002 5.90234483e-003 -2.61843707e-002
      -3.12123820e-002 -6.73228353e-002 2.89954362e-003 -1.55190763e-004
      -1.52985631e-002 4.21292111e-002 3.37316282e-002 7.29059801e-002
      2.54677329e-002 3.17891873e-002 -3.09624448e-002 1.57202668e-002
      -2.35078530e-003 -3.09309326e-002 4.65466306e-002 7.71432072e-002
      6.60290495e-002 4.86527383e-002 3.54128331e-002 1.24367513e-002
      6.69365302e-002 -8.91524553e-002 -1.85700268e-001 -2.12756861e-002
      -2.44844314e-002 2.25800630e-002 -4.84231971e-002 -3.17651480e-002
      -7.19297528e-002 -3.25778686e-002 -1.07546501e-001
      -1.37643680e-001 -5.88412303e-003 4.78467830e-002 3.16207297e-002
      2.46232888e-003 -1.99677907e-002 -6.75565526e-002 -3.90605517e-002
      -6.45953091e-003 -6.31000027e-002 5.17577901e-002 4.40719239e-002
      5.24180159e-002 1.07830698e-002 1.30391736e-002 3.14323045e-002
      6.40569851e-002 -4.12258785e-003 -2.44987179e-002 6.09931611e-002
      9.31616202e-002 4.60060723e-002 4.16003168e-002 6.26024157e-002
      4.06202413e-002 4.61383685e-002 -1.12539165e-001 -1.38773277e-001
      -3.54253426e-002 3.60859483e-002 -9.21175722e-003 -3.42084207e-002
      -5.16722212e-003 -9.40531865e-002 -8.84492621e-002
      -1.12759136e-001 -8.17112401e-002 -1.54561410e-002 2.71277651e-002
      -2.74333563e-002 -2.94615570e-002 -1.06949341e-002
      -9.53444839e-002 -1.34078383e-001 1.76828094e-002 -2.39469819e-002
      4.98632118e-002 6.27524555e-002 4.20901701e-002 -2.20805556e-002
      2.53598671e-002 1.25165302e-002 5.85187040e-002 6.51372746e-002
      4.34045456e-002 6.71521574e-002 1.01501785e-001 3.70341949e-002
      4.33086185e-003 3.90507765e-002 1.81655027e-002 4.16787863e-002
      -8.04707333e-002 -5.61458096e-002 1.96824875e-002 1.20565575e-002
      -3.15265357e-002 -4.32924405e-002 -1.02561507e-002
      -1.53871745e-001 -1.41772225e-001 -5.45532033e-002
      -1.45775836e-003 7.12075680e-002 1.70812551e-002 -5.36913574e-002
      -5.46080694e-002 1.77270430e-003 -1.21098936e-001 -4.93288897e-002
      6.04853369e-002 -1.99802080e-003 4.17064838e-002 8.51296782e-002
      3.84686925e-002 -6.08975347e-003 2.22532731e-002 -5.02513088e-002
      -2.46107448e-002 -1.24318181e-002 -3.09006367e-002 6.31699935e-002
      5.92762381e-002 2.44502854e-002 2.26096082e-002 8.70562270e-002
      -6.70475215e-002 -2.63961870e-002 -4.82468046e-002
      -3.11099496e-002 4.02126051e-002 3.09841521e-002 -5.83055429e-003
      -1.28584150e-002 6.09028973e-002 -3.19324583e-002 -7.74588902e-003
      -4.15458493e-002 -5.27095385e-002 3.93508598e-002 7.04305023e-002
      4.16450575e-002 4.65360358e-002 7.85590187e-002 9.31056868e-003
      1.16127441e-002 -4.47992124e-002 -6.80323094e-002 3.65083665e-002
      3.87940742e-002 3.96333486e-002 3.79694104e-002 1.01765715e-001
      -4.70452867e-002 -3.18348454e-003 -8.57421085e-002
      -1.10984199e-001 1.10132657e-002 7.64506608e-002 7.54265189e-002
      6.53073415e-002 5.19676916e-002 -3.08981501e-002 -4.44247462e-002
      1.92814227e-002 -3.90644073e-002 4.64729816e-002 4.30349596e-002
      3.20603896e-004 1.77059378e-002 5.73690347e-002 -5.92994504e-003
      4.77194414e-002 2.65590772e-002 -3.23865786e-002 4.58312631e-002
      4.11372958e-003 -2.09396817e-002 1.79572422e-002 4.25119326e-002
      1.84298668e-003 2.94316486e-002 -5.21775335e-003 -1.11786366e-001
      2.32001245e-002 5.88728711e-002 3.36606652e-002 5.00539765e-002
      2.57800668e-002 -3.82958353e-002 2.17740443e-002 -2.65592691e-002
      -5.88576868e-002 4.90213744e-002 1.60707608e-002 3.84683162e-003
      4.28602062e-002 2.30597369e-002 -3.89076471e-002 -4.06713784e-002
      4.18057591e-002 3.32771859e-004 7.04724342e-002 2.96625756e-002
      3.75917554e-002 5.24868220e-002 8.31276327e-002 1.38235306e-002
      3.13347727e-002 1.82192847e-002 -1.77171994e-002 6.86975196e-002
      6.66128844e-002 4.65530343e-002 6.89490512e-002 9.26477015e-002
      2.80089807e-002 1.47234527e-002 -2.05923580e-002 -2.33003311e-002
      7.28202313e-002 3.05764880e-002 2.74453070e-002 7.18795210e-002
      7.47815669e-002 -6.90642074e-002 -5.21225668e-002 -9.58667025e-002
      -1.13255501e-001 4.06964589e-003 5.29147452e-003 1.48355402e-002
      6.14954121e-002 4.90394756e-002 -9.70723107e-002 -9.03543085e-002
      2.47775838e-002 -4.68025692e-002 1.37210498e-002 8.35255533e-003
      4.06936444e-002 3.75357009e-002 2.68005040e-002 9.89883486e-003
      3.33835892e-002 3.80863063e-002 2.76830867e-002 4.19351533e-002
      6.12092838e-002 7.36179575e-002 5.95257133e-002 3.80472504e-002
      2.58978140e-002 5.97085766e-002 -9.07316506e-002 -1.37281880e-001
      -9.84358862e-002 -1.03769369e-001 -2.52618603e-002 5.02368249e-003
      1.07075472e-003 -6.85928613e-002 -6.01779148e-002 -8.36306661e-002
      -9.26741436e-002 -8.46491754e-002 -4.41131815e-002
      -3.96958739e-002 -1.40217850e-002 -1.91072877e-002
      -5.63315563e-002 -5.83428741e-002 -1.73558760e-002 1.38308927e-002
      5.56287682e-003 -2.27193963e-002 -5.64861037e-002 -1.24750420e-001
      -6.45528138e-002 -3.20340171e-002 -1.17749097e-002 6.39824346e-002
      8.75745937e-002 8.06352571e-002 1.08099692e-001 5.26763126e-002
      -2.16383347e-003 2.12371685e-002 5.49618825e-002 4.03720811e-002
      -9.45012644e-002 -1.02519155e-001 -6.35522604e-002
      -7.95896053e-002 -1.60880655e-001 -1.75243601e-001
      -1.36830002e-001 -1.04707226e-001 -1.07265279e-001 4.39377017e-002
      7.99144730e-002 6.99202716e-002 9.14641246e-002 7.74117419e-003
      -1.73219461e-002 2.32727211e-002 7.39346743e-002 1.15623549e-002
      -3.02215293e-002 -4.16482054e-003 -1.54441930e-002
      -3.32097299e-002 1.80796795e-002 -2.71210633e-002 4.77002747e-003
      -8.00976995e-003 -4.76380214e-002 3.74271460e-002 2.48111747e-002
      -2.29985062e-002 -6.65076077e-002 -1.33261019e-002
      -2.48058513e-002 2.04890016e-002 2.03507766e-002 5.15609346e-002
      -4.48027477e-002 2.95476336e-002 -1.74844259e-004 -1.06745986e-002
      3.85044999e-002 -1.45414444e-002 -3.84567305e-002 1.62815629e-003
      -6.73856139e-002 9.23813973e-003 6.42810389e-002 7.21693831e-003
      -3.44842635e-002 2.76225433e-002 -1.41838496e-003 1.18422387e-002
      2.44641434e-002 4.28168699e-002 -8.01324248e-002 2.92636137e-002
      5.72571307e-002 5.67496084e-002 -1.36964535e-003 4.89215851e-002
      6.43582717e-002 3.95349748e-002 -7.87653774e-002 -1.21951528e-001
      5.91952689e-002 2.12547965e-002 -5.59498742e-002 -6.88551068e-002
      -4.58112732e-002 1.32228192e-002 2.23317388e-002 -1.48332655e-001
      -9.96842757e-002 3.85461119e-003 6.57663271e-002 2.74201073e-002
      -5.69123309e-003 6.18434399e-002 6.12507053e-002 5.02119437e-002
      -8.03799033e-002 -1.32401839e-001 1.67263411e-002 1.67373866e-002
      -6.22623563e-002 -9.42853019e-002 -6.01436682e-002 1.97460264e-004
      6.61952347e-002 -1.16249859e-001 8.73041525e-002 5.65910600e-002
      -1.01490743e-001 -1.32534564e-001 -1.12553328e-001
      -5.97051531e-002 -4.43752995e-003 1.01482414e-001 9.06286538e-002
      -1.00777037e-002 -1.06753029e-001 -1.51817098e-001
      -1.26832098e-001 -5.49881049e-002 -6.15111664e-002
      -3.04909442e-002 2.46034320e-002 5.31805977e-002 1.21564284e-001
      1.05153367e-001 -5.79020754e-003 -5.76910116e-002 -1.41090289e-001
      -1.66569397e-001 -1.43050790e-001 3.97199355e-002 1.00651838e-001
      5.33988215e-002 4.98593301e-002 -3.05969156e-002 -4.41100784e-002
      -9.01323333e-002 -1.30472004e-001 -1.73708886e-001
      -1.22564606e-001 3.20551754e-003 -1.14904858e-001 -8.79957303e-002
      -2.04275306e-002 1.35660758e-002 6.69345334e-002 2.86712162e-002
      -1.35516068e-002 -1.05938666e-001 -1.27846405e-001
      -2.85421629e-002 -3.17553431e-002 -7.01608062e-002
      -3.47153023e-002 3.17344218e-002 1.59798376e-002 -7.86219910e-002
      -1.26397640e-001 -9.68676880e-002 -1.32313728e-001
      -1.03557698e-001 -3.09809670e-002 2.32116878e-002 3.92818302e-002
      8.59458931e-003 -4.15501706e-002 -9.95244533e-002 -9.87071916e-002
      -1.00157090e-001 -1.55486733e-001 -1.16451509e-001
      -4.90761595e-004 1.35562671e-002 -1.34256640e-002 -6.71507716e-002
      -9.13211517e-003 -3.23561542e-002 6.38435856e-002 -6.32972643e-002
      -1.87314153e-001 -1.77882046e-001 -4.36405465e-002
      -7.46087730e-002 -1.16830207e-001 -9.37569961e-002
      -8.23789090e-003 1.32638752e-001 8.55003893e-002 8.54540057e-003
      2.46009380e-002 2.79778708e-002 1.26917260e-002 -3.48110199e-002
      -8.89710989e-003 9.80724469e-002 1.09605379e-002 -9.34277624e-002
      -1.50407121e-001 -8.53698254e-002 -7.27844983e-002
      -1.46929607e-001 -1.65657088e-001 -6.75803497e-002 4.72232550e-002
      1.29095599e-001 5.91375157e-002 -8.51093139e-003 3.82152684e-002
      4.78173681e-002 3.86851057e-002 -6.67276559e-003 6.33449554e-002
      1.40602291e-001 6.73518628e-002 -1.70613807e-002 -1.45018613e-003
      2.10234970e-002 1.95627809e-002 -5.79345897e-002 -4.44531851e-002
      -7.43455067e-002 3.81256305e-002 5.25500812e-002 1.99821591e-002
      4.41511013e-002 5.17284237e-002 6.61445633e-002 4.04508822e-002
      1.22436779e-002 -2.22783107e-002 4.17290628e-002 4.57561538e-002
      -2.17821673e-002 -2.68116985e-002 1.47372158e-003 5.04903533e-002
      2.12506056e-002 -9.24196187e-003 2.49964860e-003 5.25692329e-002
      1.40550621e-002 1.09910383e-003 1.73519813e-002 4.79929037e-002
      9.83151272e-002 8.51285607e-002 7.85611719e-002 3.04567628e-002
      5.02282307e-002 2.68157795e-002 -1.64805334e-002 -1.23007763e-002
      -6.41634734e-003 2.82831639e-002 -1.89589355e-002 5.79607766e-003
      -3.88514325e-002 -1.67380814e-002 6.18465394e-002 8.81350879e-003
      2.37307567e-002 2.51523163e-002 4.04791571e-002 3.17298509e-002
      2.43823305e-002 2.00267434e-002 8.72846246e-002 -8.86290520e-003
      -2.11375281e-002 1.79835558e-002 1.35957068e-002 4.59561348e-002
      9.62923840e-003 8.09308514e-003 -1.97218768e-002 2.75428593e-002
      5.60915321e-002 2.05849633e-002 3.51168141e-002 4.89029959e-002
      5.47708832e-002 3.97876762e-002 2.32555661e-002 -4.31707967e-003
      3.86282653e-002 7.18253851e-002 -2.48614866e-002 -8.83629546e-003
      -7.47370953e-003 -1.03568910e-002 -3.69729176e-002
      -3.14754769e-002 2.33251378e-002 7.71223158e-002 5.84922209e-002
      2.72005163e-002 1.98127236e-002 -1.60346052e-003 -5.60883805e-002
      -5.46318889e-002 -2.92151142e-002 1.53368143e-002 5.74475564e-002
      6.01842031e-002 1.88671425e-002 -1.71124674e-002 -1.64533406e-002
      -1.69389304e-002 1.85325686e-002 1.63108204e-002 -1.87092833e-002
      5.29328808e-002 6.67179525e-002 3.90982553e-002 7.56443618e-003
      -6.31659254e-002 -6.78031445e-002 -2.65080817e-002 1.84433330e-002
      9.14366450e-003 3.85950170e-002 5.63398600e-002 -1.74984746e-002
      -7.63003761e-003 -6.66351542e-002 -8.26416910e-002
      -1.06762521e-001 -3.04633435e-002 -1.93880480e-002 7.03762472e-002
      8.92423764e-002 1.49323596e-002 4.20576483e-002 1.05290208e-003
      -5.64082935e-002 -2.84843929e-002 -1.84225887e-002 7.15540862e-003
      1.22089982e-001 7.48672336e-002 -4.32261918e-003 -2.51840185e-002
      -1.21877171e-001 -9.08968523e-002 -8.64919052e-002
      -2.81458348e-002 -2.13122964e-002 5.38326837e-002 7.66472444e-002
      -1.26354834e-002 1.94569249e-002 -1.47231854e-002 -4.15707789e-002
      -7.21505377e-003 2.35120337e-002 3.07539385e-002 6.51279837e-002
      1.13069974e-001 -8.57272837e-003 2.58746874e-002 2.36242395e-002
      -3.14268307e-003 -1.98589079e-002 3.19130458e-002 -1.47759588e-002
      7.02357367e-002 -1.57756209e-002 -8.69183317e-002 2.34491229e-002
      6.16435148e-003 -9.01074265e-004 6.16147416e-003 4.33903150e-002
      -6.34721965e-002 -2.02310830e-002 2.64498889e-002 -1.86085459e-002
      4.60759439e-002 -5.58715034e-003 -2.15332024e-002 2.68051121e-002
      4.91686128e-002 -3.63803166e-003 9.55293253e-002 -2.00581718e-002
      -5.10866754e-002 3.56886275e-002 -1.39646335e-002 -4.35077697e-002
      -3.26062413e-003 3.86232436e-002 -6.56215474e-002 -5.50195836e-002
      -1.45150898e-002 -7.75111467e-002 4.23189253e-002 3.03324088e-002
      2.55986918e-002 3.29234265e-002 7.61513859e-002 -2.06784885e-002
      3.79242897e-002 -4.46371920e-002 -1.37242228e-001 -1.99332833e-002
      4.99068312e-002 6.34227246e-002 2.39274893e-002 1.80653762e-002
      -8.84313807e-002 -4.05125841e-002 -2.45278026e-003
      -1.67614426e-002 6.69886768e-002 3.53008397e-002 9.67353024e-003
      1.51868965e-002 3.63659449e-002 -6.98646829e-002 -5.56200556e-003
      -3.57017554e-002 -7.76846558e-002 4.86345515e-002 5.76792136e-002
      3.74857709e-002 2.30745599e-002 -3.45243588e-002 -1.17002718e-001
      -3.84435989e-002 1.30094383e-002 -1.06023803e-001 2.70308387e-002
      4.90371212e-002 3.58737893e-002 4.02024090e-002 3.54174525e-002
      -5.83874881e-002 3.74984629e-002 4.85389913e-003 -5.17169982e-002
      6.07940815e-002 3.51021588e-002 4.05559540e-002 7.18104616e-002
      5.09231426e-002 -3.61925922e-002 1.44302808e-002 3.77070047e-002
      -2.79648602e-002 5.40518276e-002 3.70638072e-002 -4.15364839e-003
      4.27574404e-002 2.69083511e-002 -1.17454976e-001 1.91446375e-002
      6.87028235e-003 -3.64729017e-002 5.80829047e-002 2.78814435e-002
      -8.56389850e-003 5.70282824e-002 7.93974772e-002 -4.99621332e-002
      3.01580923e-003 5.13352687e-004 -3.63543816e-002 5.35253137e-002
      5.10020368e-002 4.64296378e-002 7.25302324e-002 7.53567070e-002
      3.16832848e-002 -8.63005407e-003 -6.09883890e-002 -7.18396828e-002
      1.88410152e-002 5.50745353e-002 6.70669302e-002 6.11521602e-002
      3.76034752e-002 -2.14906186e-002 -4.30078581e-002 -3.94601487e-002
      -2.03287154e-002 9.13818628e-002 5.82669489e-002 9.45256464e-003
      5.08739501e-002 6.40689358e-002 -1.05079794e-002 2.21755933e-002
      -8.56764242e-002 -6.85154647e-002 4.42835316e-002 4.80734296e-002
      3.53765041e-002 3.36280949e-002 2.89664771e-002 -3.04181855e-002
      -5.16824648e-002 -1.59278307e-002 -5.21328859e-002
      -1.64697543e-002 -3.74153070e-002 2.43247300e-002 1.13708647e-002
      3.86622101e-002 -1.23818740e-002 -1.48778670e-002 -2.01171115e-002
      -4.42315228e-002 1.48578463e-002 -1.15953954e-002 -3.62252258e-002
      6.80644764e-003 3.03240139e-002 -1.16719352e-002 -5.26911877e-002
      -5.16768992e-002 -5.81250526e-002 1.72093399e-002 -1.63533706e-002
      2.01172270e-002 -3.18591408e-002 -7.80446315e-003 -6.34999126e-002
      -4.02122699e-002 -5.78024201e-002 -2.69612912e-002 5.40312519e-003
      -1.44097889e-002 -1.68953091e-002 1.32591296e-002 2.07167002e-004
      -5.27766906e-002 -4.37116809e-002 -4.28031124e-002
      -5.58217540e-002 -1.63854640e-002 -1.15453094e-001
      -2.14444205e-001 -1.78486004e-001 -4.98769954e-002
      -3.97331007e-002 -4.67327833e-002 8.27647075e-002 1.00880139e-001
      8.57462734e-002 8.01000595e-002 -8.48232582e-003 5.33869900e-002
      7.98872411e-002 1.20111816e-001 6.33468255e-002 -8.85487646e-002
      -6.25671670e-002 -5.72605021e-002 -1.74772769e-001
      -1.97863922e-001 -9.77849886e-002 -4.89583760e-002
      -6.50033876e-002 -7.37963989e-002 6.13694340e-002 8.69801491e-002
      5.84491119e-002 1.71882790e-002 -1.62487552e-002 1.14403278e-001
      1.21890537e-001 1.32467166e-001 7.88087323e-002 -2.71444451e-002
      3.31177264e-002 -1.17939059e-002 -5.22199348e-002 -5.33484039e-004
      -3.76042277e-002 -2.35590842e-002 3.69084068e-002 -3.48795503e-002
      1.74940173e-002 7.29134306e-002 2.30598450e-002 -8.57837312e-003
      2.04219092e-002 -2.58312039e-002 5.87546127e-003 3.05832177e-002
      4.12440039e-002 -7.02221766e-002 2.71370914e-002 -5.04465960e-002
      -7.25149661e-002 7.90000614e-003 -2.57128198e-002 3.18344682e-003
      5.89232817e-002 -2.48947889e-002 1.28189567e-002 6.28782883e-002
      -2.55994702e-004 -9.10490565e-003 2.22942140e-002 -2.73955823e-003
      3.20049562e-002 8.68819878e-002 3.15584056e-002 -5.24370000e-002
      -3.03010107e-003 4.61455323e-002 -2.09297910e-002 -2.74870787e-002
      -8.65168590e-003 3.45878080e-002 4.98591363e-002 -4.23592776e-002
      -1.02479108e-001 2.68726218e-002 2.45043766e-002 -7.69105926e-002
      -2.81320214e-002 -6.12282977e-002 6.78833947e-003 9.86796021e-002
      -6.76069856e-002 -1.22950422e-002 1.57830548e-002 4.43785172e-003
      -5.50315082e-002 -4.92987297e-002 -8.61557797e-002
      -5.17636025e-003 1.12096267e-002 -4.53599133e-002 -8.47584009e-002
      1.25706699e-002 1.50862653e-002 -6.51123300e-002 -1.45145282e-002
      -6.72436357e-002 -1.34797152e-002 6.79749772e-002 -6.83674067e-002
      3.06315981e-002 9.23405066e-002 4.19772640e-002 1.87752594e-003
      -8.51939321e-002 -1.62267774e-001 -1.85301334e-001
      -2.61259563e-002 3.17919627e-002 -5.32823391e-002 2.40343227e-003
      7.44473794e-003 1.71634108e-002 -5.42940572e-002 -1.66504279e-001
      -2.33214021e-001 -2.32829928e-001 -1.23498797e-001 3.01060900e-002
      8.74913484e-002 8.28094408e-002 4.06354144e-002 -6.04609144e-004
      9.32786427e-003 -1.86024234e-002 8.13014209e-002 3.59597728e-002
      -3.20750214e-002 3.99188027e-002 4.19547446e-002 2.40463484e-002
      -2.22713780e-002 -4.00064178e-002 -4.50851731e-002
      -5.71043342e-002 -5.73725626e-002 -1.99855059e-001
      -1.63708046e-001 -1.63271856e-002 6.03724085e-002 5.20780757e-002
      1.25111556e-002 -6.25251792e-003 -7.85272196e-002 -1.42390952e-001
      -1.50915235e-001 -2.21541479e-001 -1.19650736e-001 2.98647732e-002
      1.15656536e-002 -7.45275170e-002 -7.28521869e-002 1.08569609e-002
      -1.78657472e-002 -9.95195210e-002 -6.83454722e-002 2.04958078e-002
      3.98299731e-002 1.27879018e-002 4.12980504e-002 5.58485538e-002
      2.25850735e-002 -6.32059053e-002 -3.68761048e-002 -8.85711089e-002
      -3.26330103e-002 3.32110040e-002 1.32088372e-002 -2.11171862e-002
      -3.16997088e-004 7.32447580e-002 4.01275754e-002 2.90899966e-002
      -9.96759087e-002 -9.22736079e-002 -1.05890643e-003
      -1.61555316e-002 -1.95376262e-001 -2.40520939e-001
      -1.05768315e-001 9.09679160e-002 1.29232496e-001 3.76328975e-002
      4.79596248e-003 7.53711537e-002 9.64257717e-002 -3.03090340e-003
      -9.71187279e-002 -2.55437735e-002 1.07745737e-001 7.11503774e-002
      3.14398436e-003 -2.73574516e-003 4.66461666e-002 -3.49903442e-002
      -1.67852059e-001 -2.55263060e-001 -1.45202681e-001 3.62605304e-002
      1.01158276e-001 8.71228352e-002 7.92624876e-002 9.52809677e-002
      5.18749766e-002 -1.86976790e-002 -1.61239192e-001 -1.62504628e-001
      -3.02170385e-002 6.11720011e-002 -2.72074677e-002 -3.41644622e-002
      -8.96855909e-003 4.65194434e-002 6.62191287e-002 2.49388162e-002
      -4.07766774e-002 3.29632461e-002 -8.35748017e-003 -3.80433202e-002
      1.80930924e-002 3.36919539e-002 6.63225651e-002 7.85377622e-002
      8.53851363e-002 3.95861641e-003 4.43478711e-002 -3.32697295e-003
      -3.29585932e-002 -3.23083848e-002 -1.57777518e-002
      -2.93654241e-002 3.90083110e-003 -5.46518378e-002 -2.02359706e-001
      -1.17972866e-001 -6.03866391e-002 -4.38416339e-002
      -3.45431007e-002 -1.58508457e-002 4.37418959e-004 4.14712019e-002
      8.20473507e-002 -6.21860437e-002 -8.07792842e-002 -9.95970331e-003
      -4.26457971e-002 4.40985896e-002 4.62371111e-002 5.91268577e-002
      3.76621187e-002 4.82051373e-002 -4.30378877e-002 3.87143664e-005
      3.66287716e-002 -1.97699964e-002 1.82469748e-002 3.16504911e-002
      6.60223216e-002 7.74269253e-002 3.25738713e-002 -4.23164293e-002
      4.11556757e-005 -3.23157310e-002 -7.12995827e-002 -4.13103700e-002
      -2.80910823e-002 1.60552934e-002 1.90327242e-002 1.96797978e-002
      -1.03848502e-001 -5.43132089e-002 7.97941629e-003 -6.90614134e-002
      -3.46244015e-002 -3.56232934e-002 1.74701586e-002 1.21348845e-002
      -2.34619118e-002 -1.34720281e-001 -5.36322109e-002 4.40500863e-002
      -2.22187508e-002 -5.30636916e-003 -9.85729415e-003 6.29776120e-002
      5.18805161e-002 6.03565872e-002 -6.86161965e-002 -3.13947946e-002
      3.77278812e-002 2.60709710e-002 5.25858104e-002 1.67510416e-002
      5.52718379e-002 5.90319857e-002 6.44737035e-002 -3.97501066e-002
      -2.50133593e-002 -2.67125741e-002 -5.03953099e-002
      -2.23137904e-002 -3.06061748e-002 4.85676788e-002 1.09458566e-002
      -4.67499644e-002 -1.63709491e-001 -7.55800679e-002
      -5.41382022e-002 -4.61345464e-002 -1.34160053e-002
      -7.96220265e-003 -1.82065368e-003 8.04990456e-002 5.48336841e-003
      -1.13033712e-001 -1.19762845e-001 4.79068570e-002 1.39248734e-002
      3.10059506e-002 -3.48313674e-002 5.09916209e-002 2.94516310e-002
      3.64694297e-002 -5.16440310e-002 1.58117700e-003 -7.05238292e-003
      5.48358308e-003 6.75868690e-002 2.07198244e-002 4.29102704e-002
      6.94343150e-002 5.97407520e-002 1.01596117e-002 4.02388163e-002
      -8.47664177e-002 -6.41388670e-002 -2.68104319e-002
      -3.56260538e-002 -1.34461652e-002 4.39306423e-002 3.15077370e-003
      -9.98525545e-002 -1.23923957e-001 -1.33278996e-001
      -9.34707448e-002 -6.26589265e-003 -2.97796559e-002
      -1.85475033e-002 1.15691395e-002 1.17549840e-002 -6.70190901e-002
      -1.18804418e-001 -2.73877922e-002 -2.18740292e-002 7.77493864e-002
      2.71211918e-002 6.62508309e-002 7.73785561e-002 6.28516003e-002
      3.50110000e-003 5.92296273e-002 -7.20557496e-002 -3.91075946e-002
      9.18520018e-002 5.78835048e-003 2.32884637e-003 6.18874542e-002
      8.90350863e-002 6.22920645e-003 -4.12466563e-002 -1.16764970e-001
      -1.11755669e-001 1.31197395e-002 -2.17894446e-002 -2.82743834e-002
      1.09380335e-002 4.40937765e-002 -3.41704860e-002 -9.56056193e-002
      -5.56207001e-002 -7.41496459e-002 1.36252344e-002 -3.72705162e-002
      -6.69732988e-002 1.79903861e-002 7.23130479e-002 -7.34152924e-003
      -6.48632571e-002 -4.29154411e-002 -4.82712798e-002 8.14165249e-002
      3.09678148e-002 2.51248609e-002 5.13864011e-002 7.70266950e-002
      -2.09276639e-002 -3.89672741e-002 -4.25547101e-002
      -1.16749052e-002 9.23623815e-002 7.13553950e-002 6.91425055e-002
      7.27128461e-002 1.26914494e-002 -1.07786343e-001 -8.38363990e-002
      -3.09640951e-002 -2.36474094e-003 6.45145178e-002 -8.63991445e-004
      -1.72329880e-002 3.65469828e-002 5.78838661e-002 -2.01383661e-002
      -3.75528708e-002 -2.47737113e-002 2.42589768e-002 9.06416327e-002
      4.02019396e-002 3.08778267e-002 7.35282600e-002 4.92972285e-002
      -5.13544865e-002 -5.97614124e-002 3.17548066e-002 -1.70897692e-002
      5.87451905e-002 4.31977212e-002 3.75533998e-002 6.69691041e-002
      2.91163754e-002 -1.23545118e-001 -2.02714596e-002 -2.00556256e-002
      -2.16389038e-002 5.62933311e-002 1.38282925e-002 -4.69039194e-003
      1.67679004e-002 2.84899957e-002 -7.77530149e-002 4.08243295e-003
      5.98963024e-003 3.21042873e-002 6.81924224e-002 2.35783085e-002
      -4.37243516e-003 6.10557683e-002 2.73723081e-002 -4.19795513e-002
      -4.39050281e-003 1.65932942e-002 6.24292679e-002 7.85117596e-002
      9.92015470e-003 -4.01899740e-002 2.96879793e-003 3.10254358e-002
      -1.62254050e-002 1.51038617e-002 -2.77701020e-002 -3.09346132e-002
      8.41167867e-002 3.19788419e-002 1.10841598e-002 7.46756268e-004
      4.95013557e-002 -1.27228666e-002 -1.69036689e-003 -1.12139270e-001
      -6.74057007e-002 6.10176027e-002 4.10613492e-002 -6.98492816e-003
      8.28370452e-003 4.87608202e-002 -5.80765940e-002 -9.34361592e-002
      5.64682037e-002 8.66648108e-002 1.18930347e-001 4.30074632e-002
      8.51495750e-003 3.35121490e-002 6.22166768e-002 1.37143144e-002
      3.63674685e-002 1.04608629e-002 3.15688066e-002 7.70645663e-002
      3.68020795e-002 -2.26809806e-003 4.30027060e-002 7.81268701e-002
      2.16568820e-002 -5.01191895e-003 -9.37582925e-002 -7.93866739e-002
      -3.60294469e-002 -3.55213769e-002 -3.54793817e-002
      -8.06669742e-002 -4.97075021e-002 -1.37543648e-001
      -1.05880328e-001 -3.67307924e-002 -4.89802212e-002
      -4.62433137e-002 -1.99636761e-002 -1.61238853e-002 6.41236547e-003
      -5.20831831e-002 -9.33449492e-002 -7.61962757e-002 3.79207049e-004
      -2.51794308e-002 -3.90220783e-003 -1.57656930e-002 1.44503722e-002
      2.48699114e-002 1.67423952e-002 -5.14816605e-002 -1.58939660e-002
      5.45467287e-002 3.80822122e-002 5.45068737e-003 3.85945961e-002
      2.83477344e-002 9.10537615e-002 6.90886527e-002 2.36640759e-002
      3.88670862e-002 -9.12437662e-002 -9.25362483e-002 -1.48438692e-001
      -1.82505786e-001 -1.68943927e-001 -8.72516483e-002
      -8.55375007e-002 -9.67787504e-002 -9.04948339e-002 2.35147830e-002
      6.91196322e-002 1.75667349e-002 -5.43006100e-002 -5.41969528e-003
      8.34145769e-002 8.18132758e-002 8.03990513e-002 4.49555553e-002
      -5.52719980e-002 -4.34911586e-002 -9.98869091e-002
      -1.16741076e-001 -1.01573847e-001 -5.32180741e-002
      -9.66882799e-003 -1.05253457e-004 -2.14639697e-002 4.49054316e-002
      7.56723210e-002 3.29868086e-002 -1.21857282e-002 2.11612470e-002
      9.05804783e-002 7.58347064e-002 1.07083030e-001 5.70463426e-002
      -7.98958465e-002 -2.08680518e-003 -5.41075096e-002
      -8.87487382e-002 5.74369319e-002 -1.29919425e-002 9.01760627e-003
      3.00344527e-002 -2.96363756e-002 4.44660708e-003 1.92946214e-002
      -3.25136259e-002 -4.83256541e-002 2.20115203e-002 -2.81965602e-002
      2.37893425e-002 4.65226024e-002 1.60028711e-002 -4.77965698e-002
      -5.43667097e-003 -2.99757309e-002 -6.17356636e-002 3.57037000e-002
      -6.26097899e-003 -1.19380159e-002 1.26949903e-002 -5.35831042e-002
      2.17935219e-002 -3.24304937e-003 -6.29167333e-002 -5.66768497e-002
      1.70571578e-003 -1.55335423e-002 6.69223024e-003 9.28158406e-003
      2.41797287e-002 -2.56778742e-003 2.54062023e-002 1.21604698e-002
      -1.98879093e-002 -2.18147645e-003 -4.86153178e-002 8.85469187e-003
      2.87944302e-002 -4.90430705e-002 -4.99919727e-002 -5.03120420e-004
      4.63419082e-003 -3.79954576e-002 1.09623158e-002 -7.97940884e-003
      2.82768626e-002 4.24205475e-002 -6.39275685e-002 6.90428587e-003
      2.67077014e-002 2.33404543e-002 -1.16718002e-002 -7.49545768e-002
      -6.42785802e-002 3.38071754e-004 -1.01164468e-002 -6.78450838e-002
      -7.81484395e-002 -1.61874909e-002 -2.74634920e-002
      -5.80362044e-002 -5.93929775e-002 -5.57806455e-002 1.99658219e-002
      -9.00292676e-003 -1.02065191e-001 -1.61860641e-002 2.53358241e-002
      2.24303640e-002 -5.05117700e-002 -3.54339145e-002 4.13287431e-002
      3.04858238e-002 6.91563115e-002 2.96664936e-003 -4.12251838e-002
      2.36742515e-002 1.63759701e-002 -1.52989887e-002 -3.96390930e-002
      -9.02598910e-003 3.45965289e-002 4.45883386e-002 -4.81124707e-002
      -7.57969394e-002 -1.01838997e-002 5.47206262e-003 -2.19533425e-002
      -3.26627716e-002 1.88242272e-002 5.48085757e-002 3.69862691e-002
      -6.60585463e-002 -6.36939779e-002 2.22300994e-003 5.45044756e-003
      -1.62597038e-002 -6.77995309e-002 -4.47015744e-003 6.55042306e-002
      5.43898679e-002 -5.83347455e-002 -2.11503226e-002 5.67321992e-003
      1.66798141e-002 -9.55600198e-003 -7.22328946e-002 3.96071235e-004
      6.80634603e-002 6.83480129e-002 1.61898676e-002 1.18678752e-002
      -5.40174842e-002 -3.03006209e-002 -2.06969585e-002
      -5.32029122e-002 -3.05265635e-002 3.41190845e-002 6.74081445e-002
      4.82841916e-002 -2.66541075e-002 2.23402437e-002 -1.82000026e-002
      -1.12373233e-002 -7.02906474e-002 -2.85321083e-002 4.10656221e-002
      4.29743305e-002 -2.56497879e-002 -1.76042803e-002 -4.27818969e-002
      -3.65577266e-002 -2.37263553e-002 -5.28092757e-002 2.19472423e-002
      1.87148303e-002 1.90390982e-002 -1.23682211e-003 3.36549729e-002
      -3.12924683e-002 -2.53234580e-002 1.32915704e-002 -2.95540374e-002
      -3.22344005e-002 -8.89424160e-002 -6.92788288e-002 3.93779911e-002
      7.28488192e-002 5.13565987e-002 2.72589829e-002 3.05537116e-002
      1.87960174e-002 1.65841058e-002 -6.67070597e-002 -1.51650801e-001
      -3.33628654e-002 -1.62953436e-002 -2.17703488e-002 1.51468441e-002
      3.63519713e-002 -2.63714679e-002 6.63003176e-002 5.28093725e-002
      -7.28590321e-003 4.03766986e-003 6.14641514e-003 7.48128688e-004
      6.19696788e-002 4.27580029e-002 -1.20445546e-002 9.09059197e-002
      7.06445575e-002 -2.37790663e-002 -5.22898138e-002 5.00326157e-002
      -1.41540216e-002 1.25497682e-002 6.30299328e-003 -1.26496078e-002
      2.51791291e-002 2.34602168e-002 -1.65954754e-001 -8.95538628e-002
      3.86685841e-002 2.89230328e-003 2.71629779e-005 -7.05316104e-003
      -1.60365738e-002 2.67681517e-002 1.06843367e-001 -4.69517410e-002
      -4.76285256e-002 7.16825388e-003 -4.49649105e-003 2.05664393e-002
      5.12238313e-003 -6.69910759e-002 4.85982969e-002 4.92124967e-002
      -6.41255975e-002 -8.89587402e-002 2.78584417e-002 2.40044370e-002
      4.40116748e-002 1.48085756e-002 -5.19359745e-002 8.06280896e-002
      1.04632311e-001 -3.25424634e-002 -2.72769686e-002 5.08903302e-002
      -1.60723682e-002 -3.87309603e-002 -4.60611172e-002
      -3.35338674e-002 1.07993837e-002 2.61945017e-002 -8.36259648e-002
      -1.83291864e-002 8.15509334e-002 8.43227655e-003 -5.14363730e-003
      -9.22047440e-003 -3.09855724e-003 6.95004174e-003 1.23507623e-002
      -6.74130321e-002 3.87534425e-002 -2.74347737e-002 -2.36811507e-002
      2.76553705e-002 -2.22184006e-002 -5.93937822e-002 3.15452628e-002
      5.57546988e-002 -6.19849004e-002 -4.53335680e-002 -2.71316096e-002
      -3.29823382e-002 2.58903950e-002 5.40888822e-003 -4.21342812e-002
      2.71591451e-002 4.99711670e-002 -2.64406465e-002 -3.29382867e-002
      2.99163535e-002 -2.55559739e-002 -1.82354432e-002 -2.63910741e-002
      -1.15785925e-002 6.47555618e-003 -1.10408952e-002 -1.12996750e-001
      -3.41788419e-002 -1.22422157e-002 -2.35318933e-002
      -2.04756134e-003 1.73333555e-003 -1.39829377e-002 5.25819808e-002
      -1.14431523e-003 -9.03091282e-002 -6.14610352e-002
      -2.31287610e-002 -3.20346914e-002 1.42066749e-002 -4.52888617e-003
      -5.86662330e-002 1.78567991e-002 2.86731087e-002 -3.47348414e-002
      -2.01059580e-002 2.43195123e-003 -3.21697742e-002 3.73231694e-002
      3.21856774e-002 -2.40706690e-002 2.61430889e-002 1.05647091e-002
      -2.58565005e-002 -3.69871897e-003 -2.08635721e-002
      -6.04934990e-002 -4.39087152e-002 -2.58223191e-002
      -1.53873973e-002 9.17492248e-003 2.23730542e-002 -8.65353495e-002
      -6.99437484e-002 -3.50296088e-002 -3.84089388e-002
      -1.44687658e-002 -3.03945951e-002 -3.92557643e-002
      -1.85949784e-002 1.89244561e-002 -3.83739024e-002 -3.65233570e-002
      -3.92897092e-002 -4.97850366e-002 8.92797112e-003 1.28739998e-002
      1.82568526e-003 -1.46216126e-002 -6.16210885e-003 -3.11703421e-002
      -2.15816852e-002 -9.04275384e-003 -1.25724338e-002 8.65392387e-004
      2.39399672e-002 -6.16892707e-003 1.86894443e-002 4.60694246e-002
      -6.76167756e-003 -6.50460785e-003 -1.34640671e-002
      -4.63433564e-002 -2.91644763e-002 -5.93148246e-002
      -1.04265831e-001 -5.67090288e-002 1.81467813e-002 -2.58108545e-002
      -2.07665004e-002 -8.44816025e-003 6.10422483e-003 1.10150455e-002
      -4.84228246e-002 -1.00103229e-001 -5.63227348e-002 5.58127044e-003
      -3.83993471e-003 -2.53773313e-002 -4.94216522e-003
      -5.86427981e-003 4.69023995e-002 -3.42004932e-003 -4.00058776e-002
      5.76931098e-003 4.72511873e-002 2.08632927e-002 1.84193514e-002
      1.67289656e-002 2.37641260e-002 5.78127429e-002 2.77061444e-002
      -1.27861463e-002 3.12100779e-002 5.95397204e-002 1.39306420e-002
      1.38278864e-003 4.87182923e-002 4.62715700e-002 2.64069568e-002
      -3.21150832e-002 -4.57330570e-002 -3.08743250e-002
      -4.70154075e-004 -6.87184036e-002 -1.41235460e-002 3.66161130e-002
      5.20789772e-002 5.31317890e-002 -5.32056671e-003 -1.88294109e-002
      -1.65988244e-002 9.27610137e-003 -5.43743484e-002 -3.99799738e-003
      3.08377203e-002 1.71809159e-002 2.33576316e-002 3.56543250e-003
      5.44607779e-003 -8.98366701e-003 4.26037274e-002 -5.35098743e-003
      -1.10207358e-003 3.89565863e-002 2.27040960e-003 9.78114270e-003
      9.75817256e-003 2.54533924e-002 1.92691386e-002 6.10840768e-002
      2.77266256e-004 3.07839718e-002 1.72022879e-002 1.55900503e-002
      1.30724302e-002 -7.06225038e-002 -9.52158347e-002 -3.59473974e-002
      -1.74465906e-002 -4.31334004e-002 -4.00768332e-002 3.00783552e-002
      6.76238611e-002 2.12410204e-002 -5.81447557e-002 -9.36755687e-002
      -3.21465917e-002 2.35006604e-002 -2.42533395e-003 -1.98711641e-003
      4.06366698e-002 -1.22379710e-003 1.96008440e-002 -2.53020376e-002
      -1.31037766e-002 1.39588462e-002 1.22415349e-002 -1.66189093e-002
      3.56872268e-002 8.42987970e-002 3.59226950e-002 5.36142923e-002
      -1.25945155e-002 -5.79615310e-003 7.15069426e-003 5.67776449e-002
      2.00093389e-002 4.76171300e-002 5.80376312e-002 4.91225496e-002
      2.10477374e-002 -5.53375892e-002 -8.82242322e-002 -2.30896920e-002
      -2.86271982e-003 -4.37736958e-002 -2.66038515e-002 2.36379318e-002
      -8.62610340e-003 -6.73414767e-003 -6.40795529e-002
      -5.92754483e-002 4.87940898e-003 -1.17800534e-002 -6.32265434e-002
      -2.04452332e-002 4.39485051e-002 4.42753173e-002 4.29181978e-002
      -1.54810408e-002 -2.05076411e-002 2.23899931e-002 3.74919847e-002
      1.06341895e-002 1.11911986e-002 4.63993065e-002 6.96378797e-002
      2.92588416e-002 3.60671394e-002 1.94688067e-002 4.76455986e-002
      2.14545173e-003 4.31275880e-003 1.32698950e-003 -4.99101309e-003
      -6.73705190e-002 -7.03638121e-002 -1.05766006e-001
      -8.16074237e-002 -4.66779843e-002 -4.35952917e-002
      -7.80719519e-002 -2.12153923e-002 -3.37282219e-003
      -4.86607812e-002 -5.42067885e-002 -3.44404466e-002
      -2.60609053e-002 1.23608699e-002 1.32229738e-003 -4.55212332e-002
      -2.51692645e-002 3.37125696e-002 5.00363857e-003 -9.92521737e-003
      2.60908604e-002 1.29363108e-002 -2.32137665e-002 -4.75179870e-003
      1.13539735e-003 2.29372643e-002 3.62118669e-002 4.25140932e-002
      3.02440636e-002 5.88330664e-002 2.60787923e-002 5.25774322e-002
      7.21257254e-002 6.65928870e-002 5.03699780e-002 -5.61531447e-002
      -7.78103992e-002 -8.74869376e-002 -9.91410017e-002
      -7.38687813e-002 -2.07863096e-002 -2.59361286e-002
      -4.44858335e-002 -3.64535600e-002 1.03029767e-002 4.99426993e-003
      1.87809151e-002 -3.28631476e-002 -7.31343636e-003 3.97087112e-002
      2.74026897e-002 5.54126799e-002 3.61308046e-002 -4.58185375e-002
      -1.85455345e-002 -5.15493099e-003 -2.88446713e-002
      -2.28400361e-002 6.27008975e-002 -3.83547181e-003 9.38522816e-003
      -1.31268911e-002 -2.84770504e-002 2.97123883e-002 6.45213053e-002
      5.26355840e-002 3.45982425e-002 5.62697537e-002 1.75662208e-002
      3.35711539e-002 1.23172142e-002 -2.94913724e-002 5.87457325e-003
      4.59782453e-003 -3.34966779e-002 6.31671539e-003 -9.10296384e-003
      1.43155437e-002 2.53528543e-002 -1.96757186e-002 4.31041308e-002
      3.71894725e-002 -7.15771923e-003 -9.37602296e-003 -1.49290254e-002
      -4.22788858e-002 2.43753493e-002 4.06208411e-002 5.22918478e-002
      -9.25224572e-002 1.70706771e-002 2.93271039e-002 -1.14915576e-002
      -7.63963815e-003 -7.50893131e-002 -1.15897981e-002 1.73699502e-002
      -5.59500381e-002 -1.21156471e-002 5.11468686e-002 3.71490568e-002
      4.87676589e-003 5.12509886e-003 -3.16215307e-002 -9.63839237e-003
      2.91507095e-002 2.80422345e-002 -1.36606041e-002 2.40201205e-002
      2.20813658e-002 1.24241961e-002 -4.29351404e-002 -3.77082787e-002
      1.32612679e-002 -3.34000424e-003 -5.05754426e-002 -4.09669541e-002
      1.08088441e-002 -1.84420999e-002 -5.45736961e-002 -4.37619165e-002
      -6.68473020e-002 2.52428167e-002 1.16128260e-002 -7.24697784e-002
      -3.54168080e-002 7.12103024e-003 -4.48099617e-003 -6.85576349e-002
      2.95298304e-002 -6.61650151e-002 -5.34829311e-003 1.44297276e-002
      -2.29725968e-002 -7.77760148e-002 -1.16634052e-002
      -6.57855859e-003 -1.19867265e-001 7.41317719e-002 -8.10699835e-002
      -7.74088502e-003 -5.05542324e-004 -7.96468481e-002
      -3.39690000e-002 8.13811086e-003 -3.91651783e-003 -4.40347604e-002
      -3.29943337e-002 -7.44492980e-003 1.46163004e-002 3.06604169e-002
      -3.31765153e-002 -4.44897972e-002 2.34829877e-002 2.59190109e-002
      -2.93192025e-002 -9.83868018e-002 -3.40777971e-002
      -3.95058049e-003 3.74870654e-003 -7.91284069e-002 -6.84464201e-002
      -3.23933229e-004 6.86888117e-004 -7.35644326e-002 4.95398231e-002
      -6.47661537e-002 -1.20445127e-002 5.39271273e-002 -4.45897244e-002
      -6.08856827e-002 -4.17148657e-002 -2.69842613e-002
      -7.95949325e-002 4.70674410e-002 -7.41857439e-002 -2.59210709e-002
      6.27125800e-003 -5.12731932e-002 -1.35332029e-002 2.11159810e-002
      -8.46709032e-003 -3.06943208e-002 -6.07584082e-002
      -1.60618700e-004 -1.50297466e-003 -6.05480699e-003
      -4.28764112e-002 1.56638715e-002 2.24477635e-003 9.06214025e-003
      -5.06979041e-003 -2.26795413e-002 2.99082547e-002 2.42523011e-002
      1.37773532e-004 1.00164569e-003 -2.11543124e-002 -1.46771269e-002
      -2.00715195e-002 -1.08421817e-001 4.56602611e-002 -6.79208636e-002
      -1.49964923e-002 -7.92550680e-004 -4.21976373e-002
      -4.27674353e-002 -1.03867715e-002 -2.80381273e-002
      -7.37404823e-002 5.63698038e-002 -5.54324798e-002 -1.84039753e-002
      -4.73772027e-002 -6.92948923e-002 -6.50170550e-004
      -1.34217618e-002 1.63913723e-002 1.18255690e-002 -1.96620971e-002
      3.33336592e-002 1.43382354e-002 -2.14750413e-002 -9.52627975e-003
      1.12549831e-004 -1.49820279e-002 1.87804922e-002 6.34970842e-003
      -3.89039703e-002 8.56760144e-003 3.69525999e-002 -9.57704242e-003
      -2.08319556e-002 -8.92949011e-003 1.56176137e-002 2.35779863e-002
      -1.62807535e-002 1.14955701e-001 -2.99102459e-002 -3.35300379e-002
      -4.01977748e-002 -3.78018282e-002 -1.48508069e-003
      -2.15219613e-002 1.87385175e-002 -5.07199652e-002 1.15908317e-001
      -1.20148957e-002 6.42379466e-003 -1.70851257e-002 -2.03462609e-004
      3.29608209e-002 -8.45621303e-002 -3.38008404e-002 -4.90575992e-002
      -1.06309555e-001 6.22256659e-004 3.02973930e-002 -3.55534032e-002
      2.01416109e-002 1.96586084e-002 -2.41767410e-002 2.44499817e-002
      -1.31583819e-002 -1.02935880e-001 6.19066097e-002 7.89431110e-002
      1.64114982e-002 5.22920787e-002 3.53419296e-002 -6.51245639e-002
      -2.92130224e-002 -7.53328577e-002 3.24611478e-002 -4.34228070e-002
      2.62660161e-002 2.05070078e-002 4.91783619e-002 2.08520107e-002
      -1.11654093e-002 2.56634410e-002 -5.65612689e-002 2.86764894e-002
      -1.21091567e-002 8.03223476e-002 7.18852803e-002 6.46837950e-002
      -1.76481884e-002 -5.08065112e-002 3.67936082e-002 -2.04181466e-002
      -1.01150915e-001 -6.28121337e-003 4.74824049e-002 -2.42419410e-002
      -3.55686769e-002 -5.17606642e-003 -2.88548879e-002 3.72999087e-002
      -2.16354169e-002 -8.00683349e-002 -8.33857455e-004 4.75853570e-002
      1.69662666e-002 -8.91408604e-003 -1.42289484e-002 -2.72513796e-002
      2.60846224e-002 -5.53545952e-002 2.64623705e-002 -5.72184324e-002
      4.61578891e-002 4.75229807e-002 3.22339348e-002 5.69902873e-003
      6.04056567e-003 6.74352497e-002 -2.27663964e-002 3.91318798e-002
      -4.42869850e-002 4.24648002e-002 7.51848295e-002 3.52802537e-002
      -1.59208942e-002 -7.13636577e-002 -7.59239402e-003
      -2.47856285e-002 -1.07235074e-001 -5.31158894e-002 1.31432759e-002
      -6.70511089e-003 -1.81075204e-002 1.51532460e-002 -3.85867879e-002
      6.45727739e-002 1.30584622e-002 -7.20767453e-002 -3.43655497e-002
      2.08040047e-002 -3.37203057e-003 2.67792456e-002 -2.95301131e-003
      -3.19549963e-002 2.90996693e-002 1.04632610e-002 4.49856669e-002
      -7.33828321e-002 2.67208833e-002 5.24494089e-002 6.41723955e-003
      1.42326881e-003 -3.27029191e-002 7.68790916e-002 5.51312184e-003
      5.37721403e-002 -5.64733222e-002 7.58894682e-002 4.38071191e-002
      3.43646519e-002 -5.97973987e-002 -5.91672882e-002 3.04131042e-002
      -1.38585959e-002 -4.73957323e-002 -5.06643690e-002
      -2.62699705e-002 -3.81099097e-002 -1.67975482e-002
      -3.22792046e-002 -2.37144809e-002 2.61608977e-002 2.62309667e-002
      -7.29486067e-003 3.16255204e-002 2.61935834e-002 -1.98487498e-004
      2.68587982e-003 -2.96918042e-002 -4.68557701e-002 5.57686798e-002
      -2.15438735e-002 6.97459951e-002 -6.20288625e-002 3.20909023e-002
      -3.12373638e-002 9.14737699e-004 -4.78521315e-003 -4.08695452e-002
      2.78476104e-002 -1.37666836e-002 8.82280692e-002 2.24949848e-002
      5.12336902e-002 2.07449738e-002 5.90043515e-003 -1.51212942e-002
      -2.72247735e-002 1.37466043e-002 -1.84097923e-002 -1.51746077e-002
      4.64772247e-003 9.83700529e-003 2.81975772e-002 -1.10027464e-002
      1.48799457e-002 -1.20956106e-002 9.30997171e-003 -3.95354675e-003
      -2.19477508e-002 -6.58730231e-003 1.22922864e-002 1.66464075e-002
      2.47589480e-002 3.17289797e-003 -4.31351811e-002 1.11602219e-002
      -5.64656630e-002 4.52645458e-002 -3.76965776e-002 7.52212806e-003
      3.52538154e-002 4.53065224e-002 2.52395240e-003 -7.90440384e-003
      1.89433824e-002 -4.67688963e-002 9.54459980e-002 -1.69374049e-002
      3.60745899e-002 3.10126785e-002 3.76356989e-002 -1.49139101e-002
      -3.70639935e-002 9.04809125e-003 -1.27877258e-002 -1.31475721e-002
      -4.55690809e-002 1.64688006e-002 -4.30322136e-004 -1.90102961e-002
      -1.87806580e-002 -2.97540929e-002 2.45265011e-002 7.09935883e-003
      -6.96925959e-003 -2.78843269e-002 5.59874997e-002 7.09478697e-003
      1.37137843e-003 -8.60269181e-003 -2.30361708e-002 6.32994846e-002
      -4.10094485e-002 1.22819692e-001 -1.13538522e-002 5.23554534e-002
      3.98709886e-002 5.07032238e-002 9.21319611e-003 -1.45698749e-002
      7.81911537e-002 -3.73357125e-002 8.97485837e-002 6.16304437e-003
      4.71004248e-002 2.25725528e-002 1.69941951e-002 -5.88074978e-003
      -3.81129533e-002 5.48303779e-003 -4.85357791e-002 -4.21239398e-002
      -3.74502577e-002 -1.34254945e-002 -3.38064097e-002
      -1.98331084e-002 4.56865355e-002 -6.40755147e-003 4.00575958e-002
      -2.01202370e-002 -2.13055704e-002 -3.19788642e-002
      -1.12923319e-002 -1.73707958e-002 2.74116416e-002 1.50018567e-002
      -2.36360766e-002 5.46778180e-002 -3.47195826e-002 5.37030436e-002
      -5.55374511e-002 -1.50836324e-002 -1.42671708e-002
      -1.36549277e-002 2.54323855e-002 -9.19769332e-003 2.63709351e-002
      1.09439017e-002 1.47260264e-001 -6.56593032e-003 -9.79737728e-004
      1.23398323e-002 -2.13616691e-003 -1.80621762e-002 1.36820776e-002
      2.58585773e-002 -4.36335467e-002 -4.94860299e-002 -2.14935690e-002
      -4.85256285e-004 -6.10885723e-003 2.67225318e-003 -1.86300429e-003
      3.86317782e-002 3.46948355e-002 6.36846758e-003 -2.23161615e-002
      1.53391985e-002 6.61699986e-003 4.30300869e-002 2.31700800e-002
      1.33539904e-002 -1.45763261e-002 3.88962328e-002 -1.05608860e-002
      1.01071581e-001 -2.58124042e-002 -1.65200345e-002 3.26378755e-002
      3.49964164e-002 5.25448024e-002 3.19177657e-002 5.89808412e-002
      -3.70748825e-002 1.02502152e-001 -3.81781021e-003 -5.67949004e-003
      4.18902673e-002 6.72545806e-002 1.54633413e-003 -2.82444302e-002
      -2.25655027e-002 -3.55769694e-002 -5.28031401e-002
      -6.62630871e-002 -4.55658175e-002 -2.19297837e-002
      -1.45973321e-002 1.53031517e-002 -2.77159549e-003 -1.23149361e-002
      2.08040718e-002 -4.21564132e-002 9.37941077e-004 -2.55725789e-003
      -1.32103998e-003 4.81794588e-003 1.70944743e-002 -1.28900288e-002
      9.33024846e-003 -4.82381172e-002 6.77180663e-002 -8.00443888e-002
      -5.36268055e-002 -8.75465572e-003 2.53631640e-002 3.86681929e-002
      -1.88647453e-002 -6.82884082e-003 2.19590776e-002 6.44646212e-002
      -2.63761077e-002 -7.83369597e-003 7.30446493e-003 3.58864479e-002
      -3.78015148e-003 -8.23588297e-003 1.52193969e-002 -1.62135586e-002
      -7.82803595e-002 -1.46184368e-002 -3.38947661e-002
      -2.95311864e-002 -5.87824732e-003 1.96919069e-002 5.75497225e-002
      3.83466929e-002 1.36664417e-002 -5.04352041e-002 -1.97350923e-002
      -3.36392373e-002 5.09059057e-003 2.88576912e-002 -7.15881493e-003
      -5.26583567e-002 9.04957950e-003 -1.32897487e-002 2.39810981e-002
      -4.98599857e-002 -5.04376814e-002 -2.62671299e-002
      -1.00597892e-004 1.48735300e-003 6.38605235e-003 5.41855907e-003
      -2.14795060e-002 4.08062972e-002 -3.13821435e-002 -3.16248126e-002
      2.20109504e-002 4.32664389e-003 -2.24127136e-002 5.63551113e-002
      3.00386455e-002 2.05206219e-003 -3.27763483e-002 -3.34997177e-002
      1.79721415e-002 4.40733619e-002 -1.63837690e-002 5.38730854e-003
      1.85555778e-002 1.78143661e-002 1.13219284e-002 5.08901523e-003
      -2.17136904e-003 3.75908986e-002 5.33210039e-002 8.88284575e-003
      -4.82665040e-002 2.09858324e-002 -1.09625061e-003 -2.25786082e-002
      7.46812075e-002 -6.54244348e-002 1.02861514e-002 3.63639854e-002
      -3.28046381e-002 -4.40031029e-002 -4.21054438e-002
      -1.85528230e-002 6.34575542e-003 1.26077875e-001 -4.84811068e-002
      1.15389507e-002 3.32589038e-002 -1.78520791e-002</_></support_vectors>
  <decision_functions>
    <_>
      <sv_count>1</sv_count>
      <rho>-6.6048762435852399e+000</rho>
      <alpha>
        1.</alpha>
      <index>
        0</index></_></decision_functions></my_svm>
</opencv_storage>
